svm_type c_svc
kernel_type rbf
gamma 8
nr_class 33
total_sv 1404
rho 0.183782 0.0686805 0.15334 0.136908 0.0242832 0.210417 0.149552 -0.213581 -0.170567 0.116735 -0.105866 0.175325 0.296375 0.130426 0.187509 0.270741 -0.098494 0.0236447 0.286487 0.0303688 0.148914 0.221105 0.0546244 0.249592 -0.306626 -0.342125 -0.35471 -0.468029 -0.232593 -0.387543 -0.314744 -0.126373 -0.100228 0.0758083 -0.0637462 -0.155143 0.00130913 -0.127886 -0.334492 -0.300294 -0.0556204 -0.219071 0.122182 -0.0197119 -0.0549448 0.0400475 0.000777208 -0.280895 -0.117806 0.0309853 -0.174995 0.0443421 -0.00629535 -0.0981475 0.0636784 -0.354738 -0.406048 -0.388769 -0.543787 -0.495868 -0.508965 -0.821563 -0.324475 0.14372 -0.390157 -0.152002 0.0914233 0.146943 -0.356628 -0.354231 0.0572237 -0.245263 0.201264 0.11294 0.0306054 0.15139 0.401036 0.0115564 -0.0809423 0.133201 -0.294417 0.138009 0.104967 -0.0205929 0.0284321 -0.411599 -0.299831 -0.246463 -0.597123 -0.587076 -0.688349 -0.356135 -0.162831 -0.167239 -0.164656 -0.0103162 -0.0251277 -0.364848 -0.342447 -0.0876962 -0.261756 0.0529114 0.00869833 -0.0933691 -0.0183834 0.0304419 -0.3166 -0.166061 -0.0356938 -0.205509 0.00348391 0.0241844 -0.140571 -0.0531737 -0.424327 -0.402764 -0.37812 -0.493583 -0.391461 -0.515293 -0.404074 -0.267179 -0.192642 0.0521491 0.0578462 -0.351464 -0.377793 0.0464534 -0.1861 0.13273 0.062191 0.088219 0.0919895 0.421296 -0.172321 -0.0702315 0.103505 -0.153527 0.076982 0.0837467 -0.0492982 0.0648608 -0.469292 -0.388064 -0.306053 -0.525333 -0.468477 -0.563644 -0.485469 -0.142267 0.164212 0.159177 -0.516486 -0.267365 0.0900935 -0.363 0.204999 0.160972 0.169275 0.159516 0.261774 -0.150047 0.0967954 0.161868 0.0141132 0.164528 0.151312 0.0314471 0.189997 -0.318987 -0.273851 -0.236871 -0.417442 -0.275139 -0.618945 -0.247657 -0.103267 -0.0543384 -0.375225 -0.350247 -0.0921755 -0.266377 0.0492537 -0.00563995 -0.091023 -0.011908 0.0323028 -0.299553 -0.168842 -0.0297884 -0.19611 0.00191867 -0.0125084 -0.156369 -0.0457842 -0.42322 -0.404504 -0.389604 -0.512362 -0.422939 -0.524891 -0.441327 -0.251882 -0.361772 -0.337019 -0.0335795 -0.246634 0.103369 0.0468216 -0.078509 0.0242403 -0.0199973 -0.306209 -0.160962 0.058517 -0.189666 0.0044271 0.00153202 -0.147443 0.00546165 -0.392299 -0.398478 -0.388196 -0.518356 -0.417953 -0.516614 -0.488122 -0.279466 -0.0365619 0.297941 0.0747579 0.403986 0.363162 0.340615 0.365077 0.51213 0.117186 0.266455 0.366802 0.206489 0.370617 0.369977 0.248652 0.386791 -0.0696028 -0.0649965 -0.00991899 -0.216278 -0.0346379 -0.224692 -0.0185296 0.162315 0.270314 -0.0367385 0.381463 0.334976 0.295343 0.343897 0.450147 0.0837078 0.348287 0.342336 0.165518 0.346442 0.341125 0.207374 0.316138 -0.167107 -0.107667 -0.0472023 -0.280418 -0.114975 -0.34713 -0.0541752 0.175532 -0.202658 0.141568 0.0950799 -0.036402 0.0963004 0.135761 -0.280906 -0.0780297 0.104004 -0.080136 0.0921923 0.0766095 -0.0432859 0.0843813 -0.255638 -0.390621 -0.317535 -0.481808 -0.441978 -0.469698 -0.546141 -0.200747 0.296996 0.253505 0.181685 0.265799 0.307604 -0.0414938 0.145076 0.269473 0.0728397 0.27054 0.275101 0.121942 0.276269 -0.205462 -0.167646 -0.162219 -0.321747 -0.208894 -0.426965 -0.161307 0.0215435 -0.126792 -0.14292 -0.0515638 -0.0207134 -0.345796 -0.21367 -0.107517 -0.253017 -0.0617553 -0.0547837 -0.195724 -0.115672 -0.448357 -0.428333 -0.40864 -0.512769 -0.424055 -0.54376 -0.450307 -0.303222 -0.0442661 0.00103126 0.0874813 -0.323598 -0.157546 0.0584894 -0.188507 -0.0290513 -0.0111965 -0.151064 0.0511504 -0.394067 -0.403793 -0.384985 -0.527854 -0.428767 -0.521051 -0.545816 -0.257322 0.0872108 0.207314 -0.260786 -0.121786 0.108899 -0.202294 0.114536 0.059543 -0.0642638 0.0433014 -0.408987 -0.362822 -0.323105 -0.506287 -0.394553 -0.509449 -0.50695 -0.294627 0.0212906 -0.296992 -0.169191 0.0451941 -0.196647 0.00818865 0.00792507 -0.145784 -0.0589164 -0.433927 -0.412655 -0.389702 -0.516221 -0.417049 -0.51566 -0.411526 -0.254417 -0.328722 -0.0842659 -0.0275179 -0.442912 -0.0346486 -0.0764119 -0.196382 -0.153986 -0.558887 -0.4955 -0.444896 -0.662699 -0.599711 -0.642306 -0.667517 -0.397991 0.255344 0.317518 0.0683434 0.274772 0.354632 0.238907 0.259577 -0.150322 -0.17549 -0.233833 -0.611844 -0.234206 -0.323609 -0.233028 -0.0344049 0.168445 -0.177514 0.174538 0.160152 -0.0400471 0.113056 -0.336249 -0.314886 -0.30999 -0.469336 -0.331715 -0.619904 -0.26533 -0.0902431 -0.200613 -0.236934 -0.00936283 -0.16113 -0.0367135 -0.434127 -0.406572 -0.328942 -0.541884 -0.466345 -0.512024 -0.452943 -0.268464 0.186731 0.154545 0.366925 0.320366 -0.197179 -0.301222 -0.227847 -0.525219 -0.392683 -0.486095 -0.281336 -0.0592381 0.0328484 -0.13931 -0.0326434 -0.404251 -0.400117 -0.368647 -0.494345 -0.42953 -0.512759 -0.430392 -0.240113 -0.097326 0.0281165 -0.504758 -0.562412 -0.373203 -0.606215 -0.418332 -0.539228 -0.451258 -0.315935 0.100944 -0.279934 -0.366754 -0.351207 -0.464241 -0.445067 -0.398931 -0.303084 -0.137477 -0.701643 -0.52568 -0.375337 -0.61143 -0.549589 -0.634951 -0.52526 -0.304443 0.139858 0.0642759 -0.280668 -0.0601804 -0.274005 -0.100206 0.173633 -0.03562 -0.37529 0.0158097 -0.171129 0.00821211 -0.0571747 -0.273407 0.034962 -0.204092 0.0403396 0.186476 0.136471 -0.00674663 0.0907203 0.503455 -0.198712 -0.0277949 0.34528 0.183044 0.397105 0.465619
label 10 11 12 13 14 15 16 17 18 19 20 21 22 23 25 26 27 28 29 30 31 32 33 34 35 2 3 4 5 6 7 8 9
probA -4.49793 -4.29335 -4.50265 -4.43844 -4.45266 -4.44902 -4.47732 -4.14173 -4.32924 -4.46149 -4.02373 -4.49857 -4.34642 -4.37173 -4.46579 -4.50955 -4.12122 -4.3651 -3.5324 -4.36921 -4.45764 -4.54767 -4.33369 -3.69813 -4.09221 -4.1536 -3.8542 -3.66063 -4.14416 -3.8351 -4.09896 -4.37249 -4.1233 -4.6763 -4.10914 -4.29524 -4.60828 -3.86159 -4.15686 -4.41622 -4.44526 -3.87974 -4.65981 -4.56143 -3.91618 -4.60331 -4.09236 -4.25061 -4.53244 -4.67707 -4.36673 -4.62653 -4.60948 -4.43411 -4.05177 -3.51191 -4.1771 -4.08954 -3.57761 -3.9269 -3.74057 -3.47131 -3.50319 -4.55375 -3.02894 -3.94234 -3.73543 -4.6243 -4.02632 -4.06685 -4.29377 -3.83388 -4.58185 -4.3703 -4.13816 -4.59997 -2.89407 -4.05571 -4.48795 -4.60767 -3.114 -4.60983 -4.31465 -3.38972 -3.85089 -3.74746 -4.16069 -4.2154 -3.65049 -3.49868 -3.75235 -3.98234 -3.74886 -4.51324 -4.50369 -4.63139 -4.61816 -4.27193 -4.50812 -4.58475 -4.09239 -4.73563 -4.46894 -4.49017 -4.64555 -4.69335 -4.36327 -4.55779 -4.51998 -4.4098 -4.75005 -4.7007 -4.36019 -4.64562 -4.15823 -4.23837 -4.33109 -3.78357 -4.16263 -3.91029 -4.32396 -4.33981 -3.95062 -4.57851 -4.5361 -4.12391 -4.45565 -4.4407 -4.04711 -4.66837 -4.51357 -4.32787 -4.67874 -3.41899 -4.39176 -4.50332 -4.62508 -4.36494 -4.65301 -4.48323 -4.44287 -3.69876 -3.81101 -4.30609 -4.34829 -3.78292 -4.09487 -3.84899 -4.26835 -4.14971 -4.48668 -4.5141 -3.12247 -3.18927 -4.46685 -3.09013 -4.59719 -4.51524 -4.38683 -4.55129 -3.88733 -4.36032 -4.09279 -4.50188 -4.4945 -4.55389 -4.61299 -4.47044 -4.45576 -4.03267 -4.33377 -4.23013 -3.76588 -4.10911 -3.81127 -4.09849 -4.16914 -4.66852 -4.25607 -4.51827 -4.49152 -3.95651 -4.69663 -4.65532 -4.57144 -4.52834 -4.66368 -4.4068 -4.51321 -4.61482 -4.43321 -4.93094 -4.62584 -4.52719 -4.6659 -4.17627 -4.25815 -4.45385 -3.78186 -4.06229 -3.93664 -4.20655 -4.52332 -4.25771 -4.49241 -4.55395 -4.11651 -4.72178 -4.61949 -4.58014 -4.57681 -4.25946 -4.32603 -4.62874 -4.74322 -4.35016 -4.66342 -4.65426 -4.51659 -4.66594 -4.04894 -4.21421 -4.23713 -3.7516 -4.2802 -3.88445 -4.31782 -4.51918 -1.76823 -4.18657 -3.23866 -4.26928 -4.23541 -4.11642 -4.23409 -3.94664 -4.17796 -4.40095 -4.24011 -4.09641 -4.22645 -4.22028 -4.18535 -4.13659 -3.7283 -3.93568 -3.91246 -3.6414 -3.85118 -3.6017 -3.90794 -4.00742 -4.40914 -4.21962 -4.45977 -4.48254 -4.42178 -4.44099 -4.51413 -4.2748 -4.42291 -4.48169 -4.36283 -4.44305 -4.44096 -4.31674 -4.366 -3.89375 -3.75462 -4.16695 -3.58768 -4.08666 -3.83647 -4.11843 -4.11516 -3.74326 -4.49051 -4.60856 -3.80053 -4.52679 -4.43728 -4.26155 -4.29868 -4.53863 -4.2911 -4.56139 -4.55489 -4.39621 -3.98494 -3.37652 -4.25262 -4.02864 -3.62802 -3.88049 -3.82494 -4.10504 -3.81783 -4.006 -3.94147 -3.76893 -4.06402 -3.97473 -4.04795 -4.07158 -4.08266 -3.96322 -3.82947 -3.98203 -4.01043 -3.71992 -3.60614 -3.72227 -3.75251 -3.46842 -3.39262 -3.5549 -3.71431 -3.63022 -4.51215 -4.50184 -4.73371 -4.89726 -4.3328 -4.54689 -4.73115 -4.45356 -4.85007 -4.75879 -4.53953 -4.75015 -4.15127 -4.21243 -4.2262 -3.75589 -4.07146 -3.86428 -4.21504 -4.17332 -4.43094 -4.61668 -4.60207 -4.34189 -4.52951 -4.27669 -4.36907 -4.65616 -4.38724 -4.44763 -4.61057 -4.2076 -4.2782 -4.32732 -3.8212 -4.20475 -3.92905 -4.25096 -4.16403 -4.45228 -3.72936 -4.31279 -4.47131 -4.43237 -4.28255 -4.50968 -4.45541 -4.34237 -4.41437 -3.73953 -4.19365 -4.15623 -3.53444 -3.77046 -3.69032 -4.11018 -3.15079 -4.64942 -4.40607 -4.51593 -4.38954 -4.44797 -4.67278 -4.60085 -4.4767 -4.54563 -4.12929 -4.24585 -4.21403 -3.75983 -4.2977 -3.95631 -4.18369 -4.31697 -4.32288 -4.76261 -4.66728 -4.40369 -4.77925 -4.52502 -4.50459 -4.6529 -3.9436 -4.26541 -4.33542 -3.74065 -4.10854 -3.85825 -4.07795 -4.30658 -4.17266 -4.28016 -3.91275 -4.30398 -4.40534 -4.01819 -4.40332 -4.08501 -4.20569 -3.68718 -3.73639 -4.09193 -3.9079 -4.00934 -4.18207 -4.50484 -3.75621 -4.53605 -4.56682 -4.06277 -4.48204 -4.23016 -4.18009 -4.30389 -3.81509 -4.19448 -3.84259 -4.13669 -4.16457 -4.3281 -3.23434 -4.06162 -4.43211 -4.5451 -4.26035 -4.22307 -3.33104 -3.74855 -4.09734 -3.95056 -4.18386 -4.16804 -4.32395 -4.32688 -3.56558 -3.89913 -3.30697 -4.07334 -4.2004 -3.58737 -3.88673 -3.82319 -3.94474 -4.0918 -4.71325 -4.45405 -4.68072 -4.11913 -4.37438 -4.26591 -3.75038 -4.13323 -3.86108 -4.18062 -4.31474 -4.48876 -4.46956 -4.16134 -4.35264 -4.27486 -3.73232 -4.22734 -3.88076 -4.20609 -4.07744 -4.32756 -4.03906 -4.14189 -3.48023 -3.62012 -3.73662 -3.75184 -4.08138 -4.05728 -3.70385 -4.25018 -3.34248 -3.65425 -3.60283 -3.69792 -4.13917 -3.71983 -3.53379 -3.69982 -3.15548 -3.53147 -3.20084 -3.57508 -3.38238 -4.01933 -3.04026 -3.88286 -3.5806 -3.81928 -2.98016 -3.21119 -3.59852 -3.64952 -3.48964 -3.63842 -3.40268 -3.39659 -3.41833 -3.16271 -3.52292 -2.7999 -3.37116 -3.5416 -3.62981 -3.68396
probB 0.355917 0.518938 0.0498056 0.360068 0.171092 0.198545 0.641157 0.128646 0.144371 0.0516759 0.38327 0.134489 0.224417 0.264228 0.0928805 0.166701 0.397504 0.110924 0.229754 0.208085 -0.0166262 0.734349 0.187527 0.528203 0.26092 0.175709 0.450248 0.0833815 0.156529 -0.143093 -0.144534 0.670728 0.226124 -0.134004 0.267661 0.166587 -0.22582 -0.106594 0.152776 -0.0103825 -0.232954 0.236863 -0.178063 -0.156757 0.0732353 -0.0725339 -0.0589045 -0.0237382 -0.256333 -0.19447 0.0345758 -0.0973236 0.0916718 -0.0728872 -0.152366 -0.108918 0.00193332 0.25613 -0.119354 0.0587465 -0.29811 -0.44286 0.0231831 -0.165391 -0.389084 -0.204277 -0.184928 -0.591266 0.213929 -0.0215706 -0.366229 0.280811 -0.0656043 -0.505013 -0.269236 -0.281661 0.0709892 -0.573059 -0.363765 -0.581459 -0.366062 -0.272974 -0.20102 -0.399901 0.0255468 -0.0251377 -0.123963 0.556557 -0.219239 -0.422805 -0.0907058 -0.654668 -0.102417 0.194804 0.0126036 0.189092 -0.243425 0.0611168 -0.0434943 0.110785 0.236782 0.0511396 0.0154209 0.119614 -0.222942 -0.258414 -0.0447734 -0.048665 0.0277013 -0.20094 -0.0430809 0.161513 -0.300898 0.0657234 0.00143514 -0.0452753 0.191687 -0.0957539 -0.0560285 -0.199591 -0.153706 0.30787 -0.0281967 -0.277198 -1.1306 -0.25084 -0.184972 -0.341669 0.115963 -0.32452 -0.202845 0.00976793 -0.410945 -0.294452 -0.143864 -0.171811 -0.366654 -0.306032 -0.368192 0.0414482 -0.197141 0.205199 -0.0350227 0.0365396 0.166891 -0.107041 0.0248062 -0.254178 -0.463843 0.158011 -0.273564 -0.124953 -0.0536728 -0.018329 0.0614023 -0.0755344 0.0401203 0.0250495 0.72081 -0.0182729 0.126524 -0.0530835 -0.069536 -0.155793 0.0139111 -0.0789193 0.0461573 -0.200388 0.1982 0.175912 0.0589132 0.0816429 -0.0686323 0.0383004 -0.13798 -0.238009 0.227192 -0.376159 0.032155 -0.0191583 0.0170761 0.220361 0.0495415 -0.0231092 0.379264 -0.181064 0.0357491 -0.0990878 -0.0011337 -0.226866 -0.111277 0.568685 0.194521 -0.058542 0.15912 0.0240803 -0.117456 0.576531 -0.124676 -0.0610015 -0.202985 -0.193458 0.438706 0.201902 0.208568 -0.0998643 0.379168 0.168344 0.164088 0.465002 0.0357072 0.0439245 0.0724984 -0.355279 0.340165 0.0449992 0.10067 0.412072 0.0473445 0.42292 0.191029 0.0915174 0.858103 -0.0253978 0.184367 -0.17265 0.0379909 0.631 0.0104168 -0.246433 -0.0919214 -0.116069 -0.075098 -0.170643 -0.121664 0.151807 -0.201044 -0.864745 -0.134371 -0.443019 -0.127035 -0.0445614 -0.362893 -0.0645352 -0.0774787 -0.235575 -0.0604264 -0.0330212 -0.00064158 -0.14092 -0.246346 -0.0426512 -0.0411105 0.50522 0.0394644 0.0290817 -0.121639 -0.0769054 0.544061 -0.0927568 -0.258464 -0.169041 -0.0456304 -0.0242141 0.084291 -0.144029 -0.124489 -0.273958 -0.374497 -0.107394 -0.305403 -0.148701 -0.263768 -0.342856 -0.280291 0.0361189 0.100646 -0.0619825 0.16455 -0.0871014 -0.0936964 0.196184 0.053625 -0.199434 -0.200215 0.0533144 0.059172 -0.0891934 0.138 0.0195587 0.0749582 0.39292 0.0197518 0.0140276 -0.239558 0.0164659 0.0105617 -0.199259 -0.1966 -0.160898 -0.236406 -0.330397 -0.37302 -0.477635 -0.350373 -0.169046 -0.18905 -0.171879 -0.369724 -0.204437 -0.155087 -0.0933041 -0.0423955 0.0581258 -0.058361 -0.305843 -0.328244 -0.0944603 0.244528 0.0116187 0.0213375 -0.14552 -0.0578529 -0.0878133 -0.225666 0.232063 0.0528723 -0.0226601 -0.172419 -0.343347 0.0461354 -0.00709571 0.123201 -0.0526441 0.00285171 -0.234271 -0.182462 0.196521 0.160679 0.0080309 -0.0926137 0.00655403 -0.158167 0.0848274 -0.046106 -0.0300352 0.301979 -0.10265 0.275079 0.216941 0.0157511 0.851176 0.0139848 0.052559 -0.21067 -0.18427 0.247484 -0.21754 0.0559393 -0.0784485 -0.0925045 -0.219725 0.0602817 -0.262805 0.0999027 -0.0880493 0.515651 0.161261 0.105478 0.182775 -0.153704 0.0442506 -0.171253 -0.462481 0.155106 0.124038 -0.178284 0.0124201 0.235796 0.263434 0.0398987 0.293328 -0.0387178 0.0209596 0.0735 -0.0464867 0.154798 -0.0758493 0.310899 -0.182273 -0.119834 0.295042 -0.0636964 -0.0564202 -0.117208 -0.0242022 -0.146411 0.00841681 -0.0616565 0.557183 0.128669 -0.017588 0.447759 -0.0870185 -0.0549194 -0.25492 -0.116065 0.360674 -0.0297663 0.0417839 0.0624746 -0.0428504 0.372629 0.0352599 0.26152 0.108963 0.42009 0.331218 0.281621 0.0531855 -0.203026 -0.206006 -0.0285412 -0.195759 0.127645 0.0226796 0.183392 0.0975192 0.108799 0.0759376 -0.0995882 0.34339 -0.103066 0.101862 -0.212234 -0.258342 -0.0747135 0.0623477 0.035897 0.149696 0.035145 0.367999 0.254819 -0.101162 0.136891 -0.0378 0.23962 -0.157321 -0.244978 0.155892 0.0655215 0.205054 0.111676 0.299567 0.00321283 0.0107873 0.499878 0.0354168 0.0970553 -0.131748 -0.293126 0.330177 -0.233415 -0.0622405 0.268201 0.0780921 0.18441 0.242872 -0.0936575 0.224954 -0.202522 -0.0330113 0.490255 -0.283079 0.0790729 0.104921 0.0938391 0.457223 -0.132045 -0.0500063 -0.176793 -0.216374 0.0642624 0.29194 0.21194 0.0724485 0.26506 -0.0642084 -0.308893 -0.127377 -0.197869 -0.00514979 -0.142917 0.146515 -0.23712 -0.057812 -0.377464 -0.120656 -0.490083 -0.156657 -0.34583 0.0856706 -0.166109 -0.331055 -0.23087 -0.557956 -0.235507 0.233551 -0.055245 -0.129385 -0.11142 -0.156075 -0.396141 -0.12647 -0.137476 -0.294879 -0.405344 -0.227826 -0.142129 -0.20111 -0.241261 -0.0394029 -0.0779274 -0.165094 0.583667 -0.00625635 0.190438 0.471067
nr_sv 45 40 47 51 62 50 49 48 41 58 49 22 39 60 46 51 55 40 62 61 41 51 56 49 47 24 24 21 23 25 13 25 29
SV
0.2282150900800037 0.1335285417429468 0 0 0 0 0.1802483683931786 0 0 0.3536170779302327 0 0 5.815755624119034 0.4895455490289983 0 0 0 0 4.310959140590929 0 1.485313139658983 0 0 0 0 0 0 0 1.129776161492405 0 1.835428648832215 0 5:0.083333 6:0.458333 7:0.5 9:0.125 10:0.375 11:0.5 16:0.041667 17:0.130208 
0.3284719615893886 0.1744304128065821 0.7285899295779205 0.2149857702933309 0.2617803574609277 0.4075803002747954 0.3686529227055107 0.2115996742587288 0.2283825393452385 0.2790753900142918 0.321757106930082 0.2413655817410328 0 0.1605820137604168 0.8972424750950542 0.2637209384218304 0 0.2670016669050987 0.8135622032089329 0.1893908489388504 0.3679287243876816 0 0.1430422713198809 0.01278233463802485 0.1947327572559071 0 0 0 0.1499098267043585 0.1136978783604284 0 0 3:0.208333 6:0.25 7:0.458333 9:0.333333 10:0.25 11:0.625 17:0.132812 
0 0 0 0 0 0 0 0.05773771551361716 0 0.2702475665766088 0.5079292816375177 0.1268620425831911 0 0 0.03582189619128914 0 1.543346318528137 0.5808220419603064 0 0.4208249549934877 0 1.463489952537703 0.6814175715516664 0 0.6295211357881504 0 0.5285602636225283 0.9629720887716104 0.4472610584874033 0.2800813061139285 0.02040594401093856 0.2630144886496532 3:0.208333 6:0.25 7:0.458333 9:0.208333 10:0.125 11:0.416667 17:0.104167 
0.473130586171869 0.5675411603860844 0.4205065890523977 0.3589173372497362 0.3737514236968826 0.6951525138192761 0.3938979021469849 0.236360142325563 0.2821642814628119 0 0 0.1594579535973332 0.7280358649866109 0.6135900438918817 0.1514180753795905 0.4297077826310906 0 0 0.01742040457112317 0.2778682118043467 0.347791043209064 0.6704598348149616 0 0.9119259284580151 0.132787851927659 0 0 0 0 0.2184647490852029 0.2855860236238633 0 3:0.208333 6:0.25 7:0.458333 9:0.291667 10:0.125 11:0.416667 17:0.109375 
0.5797400629425177 0.06223075017151546 1.012033280257698 0.8721355763415435 0.2140943573472182 0.2830758744432791 0.2688290747327542 0.1642646937708066 0.1637034674017533 0.9458862946842135 1.198430090417196 2.571341843180293 0 0.2980647542967755 0.1841083798464808 0.4348577600023237 0.2529707924442466 0.2163215191364588 0.1931946940911715 0.03163791347484115 0.7249765816623698 0.4771083606122039 0.009310911116920314 1.209099265076007 0.8730995292392121 0.9130416515152227 0.8558231410191335 0.1924127150484805 0.1039970441935299 0.005800766793317105 0.05486486933537866 0.8915137400758297 3:0.208333 6:0.125 7:0.541667 8:0.083333 9:0.083333 10:0.416667 11:0.291667 12:0.291667 17:0.127604 
0.824693949340396 0.3576731197833165 0.6547266553516927 0.5612470469232819 0.4899933699740415 0.6417161002511501 1.012895179276179 0.3431398164815099 0.3619779020012219 0.9797523423921514 0.592344045728629 0.6367509579368847 2.152043479382295 0.7732681203030998 0.6292915162220895 0.6530259304036797 0.3846642027540561 0.3928606267525144 3.31013791086305 0.2661976312900108 2.752975891600642 0.3945748760561353 0.1235354111213462 0.6850000914411676 0.3408905316671772 0.03129803388925649 0 0.5440403693074575 0.385532820812907 0.1981881796665134 0.6273347476821007 0.6354198448889653 5:0.166667 6:0.375 7:0.166667 9:0.5 10:0.5 11:0.208333 12:0.166667 17:0.130208 
0 0 0 0 0 0 0 0 0 0 0 0 0 0 0 0 0 0 0 0 0 0 0.757537155811998 0 0 0.3450993513260924 0.07413251794493904 0 0 0 0 0 5:0.041667 6:0.541667 7:0.041667 9:0.25 10:0.583333 14:0.208333 17:0.104167 
0 0 0 0 0 0 0 0 0 0 0 0 0 0 1.878432883177257 0 0 0 0 0 0 4.545880903939995 0 0 0 0 0 0 0 0 0 0 6:0.375 7:0.5 9:0.125 10:0.333333 11:0.458333 16:0.041667 17:0.114583 
0.4903756077334907 0.1774380948951142 0.9999035378916197 0.3507336115709871 0.3937993159872118 0.3010760802744593 0.4369369822708577 0.2841943015943623 0.3182992363531776 0.5476529368362488 0.1605743646997451 0.5839986593807673 0.3006135361495154 0.2939963662384845 0.4522298421406047 0.4715032918129859 0 0.4039887557112969 0.5649938463796783 0.228437703115857 0.2078383111402578 0 0.4097358182609399 0.1991454107713618 0 0 0 0 0.1491926937645472 0.1172986966856124 0.4000011134381006 0 3:0.25 6:0.291667 7:0.666667 9:0.25 10:0.166667 11:0.541667 17:0.135417 
0.1619815705042523 0.8180213676258549 0 0 0 0 0.4571999552559863 0 0 0 0 0 0 0 0 0 0 0 0 0 0.1555920180247944 0.9723325170398481 0 0.7724287366770073 0 0 0 0.05961818770809499 0 0 0 0.2587307861299336 2:0.041667 3:0.041667 5:0.041667 6:0.708333 7:0.25 9:0.333333 10:0.333333 11:0.291667 12:0.041667 16:0.041667 17:0.132812 
0 0 0 0 0 0 0 0 0 0 0 0 0 0 0 0 0 0 0 0 0 0 0 0 0 0 0.7845390945958348 0 0 0 0 0 5:0.041667 6:0.458333 9:0.291667 10:0.541667 14:0.166667 17:0.09375 
1.278126392694909 0.9254315654069715 1.354107985551448 0.8631542032849141 0.8737826795324988 1.021112208161345 1.085817442783531 0.6649832136869417 0.7198663484454859 0.8669278150098839 0.417253342167436 0.9633692614984239 1.12203824857006 1.22804057763747 1.593497312702971 1.172104963712819 0.2075421766909803 0.8035591627588266 0.5181289454282826 0.8132208435736712 0.2211295049148091 0 0.3998335559156473 0 0 0 0 0 0.568490149496937 0.4314754465037137 0.7431246626837374 1.034073832902421 6:0.166667 7:0.375 8:0.416667 10:0.333333 11:0.583333 12:0.041667 17:0.119792 
1.02050184679414 0.6254436764631438 1.12036435602841 0.6946310967144306 0.7216703888668098 1.000184958975364 0.8904325685862581 0.5355594918941903 0.5852047843201406 0.7474925320332373 0.5052527417577213 0.8247683135899565 0.2211745250897261 0.9267421230928257 0.7132119306319438 0.9952992790626044 0.1877429682540837 0.7110786177578055 0.5139826447469353 0.6624337515282963 0.622424296718323 0 0.657320879883598 0.1834274883134077 0.3095723880874943 0.19762893977022 0.04738257781436284 0.1790420124902561 0.1370301276372328 0.4516328764769984 0.3661393914607752 0.4964588532926782 5:0.208333 6:0.458333 7:0.625 9:0.166667 10:0.5 11:0.583333 17:0.158854 
0 0 0.1365378137378152 0 0 0 0 0 0 0 0.1086172187728128 0 0 0 2.672333313455984 0 0.4645257779437111 0 1.56709039407117 0 1.375054060231587 0 0 0 0 0 0 0.1535393237102411 0.2265178805984867 0 0 0 6:0.166667 7:0.375 8:0.291667 10:0.333333 11:0.583333 12:0.083333 17:0.114583 
0 0 0 0 0 0 0 0 0 0 0 0 0 0 0.1665571759654277 0 0 0 0.2933494697250504 0 0 0 0 0 0 0 0 0 0 0 0 0 6:0.375 7:0.5 9:0.125 10:0.333333 11:0.458333 17:0.111979 
0.6229088223619239 0.2453221614448887 0.7180469010373502 0.2899521888739518 0.4654829559210102 0.6215717181702431 0.6893523128543777 0.3278381107476099 0.382533317048891 0.6998915213359033 0.5411603843012136 0.6573309574278742 0.2137510859234325 0.5490186859286393 0.952745832320138 0.738302256142056 0 0.4348343197620615 5.342600503682241 0.3924936068678302 1.024226154045109 0.3229658006062284 0.6408066236060995 1.679450259440629 0 0.4894260747916211 1.156055457000503 0.05176770010834061 0.2890630658161359 0.1534634276262902 0.2277544137821281 0.2263921046255377 5:0.166667 6:0.291667 7:0.166667 9:0.5 10:0.666667 11:0.208333 16:0.166667 17:0.135417 
0 0 0 0 0 0.2284776282577508 0.14410555503884 0 0 0.4145535303762518 0 0.488254077088345 0.2264791223363503 0.1382382573877867 0.2330334892328875 0 0.2894521595676625 0 0.1370765427345635 0 1.327888596031912 7.312001823977316 0.3481865130541218 0 0 0 0.5125312200838029 0 0 0 0 0.4778041952719076 6:0.208333 7:0.5 8:0.291667 10:0.333333 11:0.583333 12:0.041667 17:0.122396 
0 0 0 0 0 0 0.4256037301383394 0 0.2711763636188146 0.3598046994912557 0 0 0 0.01373192896011963 0 0 0.04045262821584036 0.165641060184496 0 0 0 0 0.4536481747025761 0 0 0.1672887004284131 1.045321708726435 0.705801864760268 0.6186704240026072 0 0.3697929232898419 0.8859774835520188 5:0.166667 6:0.5 9:0.25 10:0.625 14:0.166667 17:0.106771 
0.4652109787209885 1.155543176360336 0 1.061355179338706 0.1254317082270744 0 0.3644332404949159 0.1621500698144201 0 0 0 0 0.4289207998295427 0 0 0.3881500250275111 2.431110790194071 0.2906595845507338 0 1.369272671133218 0 0 1.302721381673944 0 1.170658933451678 0 0 1.107132491296501 0.8462761735516743 0.4422092038341053 1.264523083910864 1.236387985265563 5:0.166667 6:0.333333 7:0.166667 9:0.458333 10:0.5 11:0.125 17:0.109375 
1.017045148698702 0.3238285477646407 0.8295602090479386 1.053941301323785 0.8701233006974199 0.704768267875676 0.7145019338539355 0.5372944256207903 0.5677783166178351 1.217763602989673 0.7313454497271409 0.6756828825256671 0.2779369977991543 0.8042292316309897 0.6301895519717249 1.513540886918305 1.118999216051473 0.6228733653406852 0.5460842160905859 0.7162549159492981 0.6334696472603916 1.622165544848104 0.6311107805341427 1.036017077861294 0.5045656439048944 0.9300428629113076 0.477690820761892 0.6629973102455187 0.9016155922357956 0.3466435666528609 0.6806019014901238 0.6974930348893182 2:0.041667 3:0.125 4:0.041667 5:0.041667 6:0.708333 7:0.25 9:0.333333 10:0.333333 11:0.291667 16:0.125 17:0.143229 
0 0 0 0 0 0 0 0 0 0 0 0 0 0 0 0 0 0 0 0 0 0 0 0 0 0 0.01736341877576789 0 0 0 0 0 5:0.041667 6:0.375 9:0.25 10:0.5 14:0.166667 17:0.083333 
0 0 0 0 0 0 0 0 0 0 0 0 0 0 0 0 0 0 0 0 0 0 0 0 0 1.425180861715001 1.130615855858608 0 0 0 0 0.9496709668314959 3:0.208333 6:0.25 7:0.541667 9:0.208333 10:0.125 11:0.416667 17:0.109375 
0.03927469682846855 0 0.3641176515889699 0.5768269572306022 0.0972928683653676 0.6458502230491059 0 0.1004423865933267 0.06743299170964294 0.1723819256040407 0.4617480697570668 0 0 0.7148961867709013 0.1090587538856522 0 0 0.01187810288062203 0.5297970521213249 0 0.2223595936512547 0 0 3.805148306105369 0.3011123410115548 0 0.6951681331292057 0.1148600611115838 0 0 0 0 6:0.375 7:0.5 9:0.125 10:0.458333 11:0.5 17:0.122396 
1.438140081559901 0.9990757212717689 0.4858762149379581 1.717307681858697 0.6291689071000598 1.510715148844937 0.6244148808698455 0.3661485063331362 0.7513706792940184 0.4402298808338578 0.4678200093167695 0.3654473854317794 0 1.289058636843082 1.20427744098968 0.9225109764323376 1.198845616060959 0.5753241188626167 2.297610523952267 1.342044265943965 0.9032831822305207 0.498617979324574 1.58822430229556 0.9804047108719884 0.8037540918019426 0.4524848537361711 2.636403673820821 0.818729815718033 1.424950522048189 0.404600650801272 1.274790438611272 1.754566852255021 5:0.083333 6:0.166667 9:0.458333 10:0.541667 13:0.25 14:0.208333 17:0.106771 
0 0 0.5193388143565778 0 0.2114720473046845 0.3835529912506515 1.264642897486133 0.1343246608730679 0 0.4541431691034154 0.1816695073003556 0.6455858157137171 4.293391583016935 0.1480317976981401 0.5752668106298346 0.2945533420733525 0 0.1956243315509469 0.6106043727937566 0 0.6284200940238236 0 0 0 0 0.0489729998823351 0 0 0 0.0721251990184654 0.5905502940637871 0 5:0.083333 6:0.166667 9:0.5 10:0.666667 13:0.208333 14:0.25 17:0.117188 
0 0 0.08419892075013181 0 0 0 0 0 0 0 0 0.04385894248814886 0 0 0.3657105055736843 0 0 0 0 0 0 0 0 0 0 0 0 0 0 0 0 0 5:0.041667 6:0.375 9:0.333333 10:0.541667 14:0.291667 17:0.098958 
0 0 0 0 0 0 0 0 0 1.021339987962446 0 0 1.493750556834465 0 0 0 2.196413884645663 0 0 0 0 3.735757733507306 0 6.496347630465626 0.2646113292331176 1.549971283534418 1.919544423878743 0 0 0 0 0 5:0.125 6:0.416667 7:0.166667 9:0.458333 10:0.5 11:0.125 17:0.111979 
0.3572915888201006 1.250011478306936 0.1634734651924178 0.5876797252320578 0.1422029599983518 0 0.2026710798586799 0.1057697744490197 0.09662722713337636 0.2325478048322215 0 0.3757584998153111 0 0 0 0.8380392480851608 2.924867140237219 0.3065587381762371 4.462357773705501 0.6595654706084538 0 8 0.9952557795374677 0 0.4651848137275701 0.6947101579238304 2.787360632500267 1.13252507287865 0.1225379640707387 0.07032263930865353 0 2.745113715166095 1:0.041667 6:0.375 7:0.5 9:0.125 10:0.333333 11:0.416667 17:0.111979 
0 0 0 0 0 0 0 0 0 0 0 0 3.827363534792243 0.3174438021193578 0.2141293133508579 0 0 0 3.230260860397407 0 0.756366696531463 2.442018864362881 0 0 0.1916329969836668 0.1749718776481791 0 0 0 0 0 0 5:0.125 6:0.291667 7:0.166667 9:0.458333 10:0.5 11:0.208333 17:0.109375 
0.2089173897835206 0 0.04478869902899928 0 0 0.2420831378764627 0 0 0 0 0 0.06218190858420333 0 0.2323782617036318 0.05845955398879526 0 0 0 0 0 0.2164618861865699 0 0 0 0 0 0 0 0 0 0 0 5:0.041667 6:0.458333 9:0.25 10:0.541667 14:0.25 17:0.096354 
0 0 0 0 0 0 0 0 0 0 0 0 0 0 0 0 0 0 0 0 0 0 0 0 0 0 0.00112174785159639 0 0 0 0 0 3:0.208333 6:0.125 7:0.541667 8:0.083333 10:0.333333 11:0.208333 12:0.291667 17:0.111979 
0.8242827086848704 1.063873156823547 0.7226633698699754 0.8229288168342801 0.8739132700276374 0.8452885771082422 1.49325106054026 0.694834877418637 0.7101360739313776 0.8233144913802017 0.7467131905292307 4.126572297501971 1.601136790304475 0.8495009461836591 0.7922533453960223 1.234616088387597 1.635559897979546 1.004296101734204 0.9349521608351702 0.9810489822912076 0.5922550808504694 2.589957669350822 1.04649660194871 0.6388545518664335 0.4700862776476736 0.9281936894427778 0.9842347224803855 0.6805871103147568 0.6136672008461018 0.7568822266001917 0.6403724579590072 1.304590936430596 3:0.208333 6:0.125 7:0.541667 8:0.083333 10:0.333333 11:0.208333 12:0.291667 17:0.111979 
0 0 0 0 0 0 0 0 0 0 0 0 0 0 0 0 0 0 0 0 0 0 0 0 0 0 0.0008898767309875722 0 0 0 0 0 6:0.166667 7:0.375 8:0.291667 10:0.333333 11:0.583333 12:0.041667 17:0.111979 
0 0 0 0 0 0 0 0 0 0 0 0 0.2802638393117001 0 0 0 0 0 0 0 0 3.191952258577928 0 0 0 0 0 0 0 0 0 0 5:0.083333 6:0.166667 9:0.458333 10:0.541667 13:0.208333 14:0.208333 17:0.104167 
0.5863407476494583 0 0.04282169465687012 0.4748994767803892 0.1884187978866099 0.1273522995579741 1.138951417892917 0.005624691328556959 0 0.7582654659807749 0.2304226256693683 0.1005555211482625 0 0.01675748249635247 0 0.2882786757479327 0 0 0 0 0 0.9837130611128598 0 2.004118142544467 0 0 2.1099693788012 0 0 0.01619920560495428 0.4428317029658003 0 5:0.041667 6:0.375 9:0.541667 10:0.5 14:0.166667 17:0.101562 
0 0 0 0 0 0 0 0 0 0 0 0.04601845175206383 0.8824119635801488 0 0 0 0 0 0 0 0.5975039760945899 0 0 0 0 0 0 0 0 0 0 0 6:0.375 7:0.5 9:0.125 10:0.333333 11:0.458333 12:0.041667 17:0.114583 
0 0 0 0 0 0 0 0 0 0 0 0 0 0 0 0 0.3171117372351237 0 0 0.5067206109986671 0 0 0.8343128288893483 0 0 0 0.9124901826837023 0.03930644234535501 0 0 0 0 6:0.166667 7:0.375 8:0.291667 10:0.333333 11:0.583333 12:0.041667 17:0.111979 
0 0 0 0 0 0 0 0 0 0 0 0 0 0 0.9660643258862769 0 0 0 0.07797833917527414 0 0 0 0 0 0 0 0 0 0 0 0 0 5:0.041667 6:0.375 7:0.541667 9:0.125 10:0.458333 11:0.541667 17:0.130208 
0 0 0 0.2656604134917372 0.06040120483149305 0.04343249111944334 0 0.0245539765922976 0 0 0.3841507925401288 0 0 0.04095109321298894 0 0 0.01687303508227509 0.1358023687574263 0 0 0 0 0 2.238162422557333 1.382827651523699 1.644471917075292 0 0.5821029566902395 0.1012152295050752 0.1715209316654538 0 0.151108947507022 6:0.166667 7:0.375 8:0.291667 10:0.375 11:0.583333 12:0.041667 17:0.114583 
0 0 0 0 0 0 0 0 0 0 0 0 0 0 0.1543624780548957 0 0 0 0.2712384245681912 0 0 0 0 0 0 0 0.3821584911056561 0 0 0 0 0 3:0.208333 6:0.25 7:0.458333 9:0.208333 10:0.125 11:0.5 17:0.109375 
0 0 1.136711992257315 0 0 0 0.2929960590998953 0 0 0.1255260916494587 0 0.1503943647727909 0 0 0.3164922708567623 0 0 0 2.520113076127264 0 0 0 0 0 0 0.6417479554868571 1.54142560922849 0 0 0 0.3548362758822788 0 6:0.375 7:0.625 9:0.125 10:0.333333 11:0.458333 17:0.119792 
0.6603704255644489 0.5034610566719023 0.69322668229156 0.7843793416550758 0.7316347839639146 0.7777058396539269 0.4500495579970022 0.6566571277775956 0.6494601045492155 0.8370152835029759 0.5258881249528877 0.7234920094556625 0.5592479728370062 0.7051204843639528 0.7253489212193054 0.71173638557872 0.2250168848141725 0.8801587326777024 0.6602611258311293 0.6876908474243982 0.5821274013995528 0.6011689609725088 0.526190484919039 1.52870938972569 0.3490705170968181 0.350861675760394 0.6973465109336365 0 0.1991331062695649 0.291625336663671 0.245144967350537 0.2234556386854262 5:0.083333 6:0.666667 9:0.291667 10:0.625 14:0.166667 17:0.114583 
0.1181111346015144 0 0.2287104189424884 0 0 0.1948103022418793 0.1175718390760545 0 0 1.855405211314121 0.08038561922194615 0.163450762787384 0.8288348024887127 0.1912489839313986 0.1490088709319338 1.117979335122586 0.8992822318482014 0 0.6681510372533851 0 0.2682560291190298 0 0 0.2888941245695435 0 0.5797209845917017 0.06624902351241375 0 0 0 0 0 2:0.041667 3:0.041667 5:0.041667 6:0.708333 7:0.25 9:0.375 10:0.458333 11:0.333333 17:0.140625 
0.9107070988616357 1.164247957023647 0.1140155269454734 0.9302875691516193 0.3386477262030705 0.2649450341225261 0.9090432334279456 0.3737827246678108 0.4057392688153739 0.4156556868893233 0.3362337537515614 0.157261260894298 1.694670752886682 0.763003149909846 0.1305940453212777 0.5445713366303777 0.5224232334311886 0.70806054230684 0 0.4230601804840213 0 2.312172958510762 0.520153125278895 0 0.3985096870827963 0 0 0.1503818785165945 1.200296796312213 0.309985873594954 1.204607373984897 0.1297193086741326 2:0.041667 3:0.041667 5:0.041667 6:0.708333 7:0.25 9:0.333333 10:0.333333 11:0.291667 17:0.127604 
0 0.9537530894660259 0.2323894016508097 0.2993496450800546 0.4292823243106085 0 0 1.319345165848546 1.331940750997366 0 0.4584263789352722 0.2160793013661843 0 0.08304083099619688 0 0.5092635220772124 6.03512320847623 0.8657203398701696 0 0.5712683000107632 0 3.522098999851388 0.2434130816238213 1.696843395645721 0.8374924760740103 0.9418210602900198 0.3017290050202355 0.9194255569262082 0.1247227026135654 0.4728227436127738 0 0 5:0.041667 6:0.375 9:0.25 10:0.5 14:0.166667 17:0.083333 
-0 0 0 0 0 0 0 0 0 0 0 0 0.1328601252943767 0 0 4.643263516247872 0 0 0 0 0 0 0 0 0 0 0 0 0 0 2.030925415555933 0 2:0.125 3:0.083333 5:0.041667 6:0.666667 7:0.541667 9:0.458333 10:0.291667 11:0.375 12:0.083333 17:0.166667 
-0.376991923827066 0 0 0 0.4487498302850931 0.1626304156465241 0 0.1692820284333935 0.2369234427197651 0 0 0 0 1.053102067783438 0.4926719609412453 0 0 0.2535958196994378 0 0.4443179016604621 0 0.3189878348232075 0.5337259474328628 0.133310445237171 0.3894639247282735 0.09753790307986995 0.07719284167951582 0 0 0.2187648760111918 2.306402123900621 0 2:0.166667 3:0.125 6:0.416667 7:0.458333 8:0.416667 10:0.5 11:0.333333 12:0.125 17:0.158854 
-0.3452725794626586 0.490866062089 0.2293581275584635 0.3244386489848662 0.2847447679260539 0.149879493359995 0.5894421198566836 0.1842492561618617 0.2642899402798459 0.2208862822622057 0.1650310967565146 0.1955798106029917 0.4745092156233724 0.6243710121792523 0.1543160068912879 0.4559943757576534 0.3651530275239003 0.4604543411248959 0.3736430396765174 0.5835875793278313 0.3699761276275171 0.4111541217467482 0.370969928481531 0.5071065260020107 0.23628193096581 0.2640319343940669 0.3441024013285907 0.2395058741826549 0.3237268962177349 0.08327333047535539 0.4548580436437286 0.6985783045999082 1:0.125 2:0.25 5:0.041667 6:0.541667 7:0.5 10:0.458333 11:0.25 17:0.135417 
-0.1244046158694825 0.226792316931068 1.396092474978015 0.3511895352451835 0.3202491537211287 0.1156207927348282 0.02434686502778942 0.06127488127765871 0.0611722299774601 0 0.314060282401826 0.3262921418829928 0.8003649791192046 1.198243906819411 0.4547945073707177 2.810791981056089 0.07259635921028298 0.4779016560356501 0.4514580945950948 0.3280518345019576 0.3344169301453743 0.3670042891744797 0.5769037357475739 1.211242436450392 0 0.09115788965042465 0 0.02214217520885517 0.07566123605252224 0.01201498224946752 0.2736279996817143 0.770124812061301 5:0.25 6:0.5 7:0.5 9:0.541667 10:0.458333 11:0.208333 13:0.291667 14:0.208333 17:0.184896 
-0.4051082826085367 0.2186668018776646 0.4813866832532933 0.1709681174702083 0 0.2450161960502192 0.7117314864305183 0.07354014863853083 0.0847285174567618 0.5873951343747643 0.1178958442181198 0.2228873602582402 0.8402376221110269 0.3140834464105394 0.3224725413459262 1.429446990878719 0.3350055685271432 0.2062635207801803 0.5605541628680066 0.3475600704030268 0.3594315249007526 0.5664051788388528 0.3652973353409696 0.4587073420619756 0.5295237373109722 0.3108484085962397 0.2306201132657407 0.2655928304937035 0.7155026953489645 0.03530988583189929 3.849676887099595 1.192551372304481 2:0.25 5:0.375 6:0.541667 7:0.5 9:0.416667 10:0.458333 11:0.25 17:0.174479 
-0 0.4309165655397214 0 0 0 0 1.693960317557702 0 0 0.8904540465576216 0 0 0.06529793820116894 0.5317548231809974 0 0.5158912817648537 0.1984076848869987 0 0 0.00785167552355737 0 0 0.7145452133420819 0 0 0.08781010872136458 0.1396903042378906 0.3290262101592581 0.3041319156823264 0 0.8473676946291223 0.01629137545211553 2:0.25 6:0.541667 7:0.5 10:0.458333 11:0.25 14:0.041667 17:0.127604 
-0.3099414140691282 0 0 0 0 0 5.868456578696251 0 0 1.286369058184643 0 0 0.09745227173675203 0 0 0 0.8303848819639188 0 0 0.0110535918013786 0 0 0 1.205691483625395 2.613075628814042 0.441070486278363 0 0 0 0 1.096199800897897 0 2:0.166667 5:0.166667 6:0.5 7:0.25 9:0.583333 10:0.25 11:0.166667 16:0.041667 17:0.132812 
-0.6841849316095668 0.8091866535528899 0.9397759137132695 0.8782400432002571 0.7778206977008068 0.9013535302407687 0.6870347876784789 0.6096398939617071 0.6413510756933767 0.9098228221979426 0.7368795001811644 1.011040873519707 0.7696765497404542 0.9402131935628905 0.9513292882210543 1.060204012100748 0.6159023407496725 0.798783598168227 0.8747996382807812 0.7244183927571824 0.9488306886342081 0.9211523559571789 0.806640670868955 0.9325697245855872 0.5615174248535829 0.4977039362950801 0.5329323473798581 0.9283095585153109 0.7453977891262479 0.4434305213568062 0 1.102547065328254 1:0.208333 2:0.375 5:0.708333 6:0.541667 7:0.5 9:0.5 10:0.458333 11:0.25 17:0.221354 
-0.4958799104747514 0.4828204566887069 0.5504800626917977 0.7245986452334596 0.5167462078761266 2.09145919768538 0.4025717026705126 0.4358403336189308 0.4555428735054514 0.4106698806456781 0.4781262111557075 0.7472336195610517 0.3798590618588574 0.2776846124763112 0.8691417702468107 0 0.4067991795491974 0.4175029669747548 0.5187710618220207 0.3888575119474371 0.7294207418505464 0.5548958639535931 0.4403963445764871 0.1300915753809846 0.3393098881960639 0.3617953794067443 0.2122314434307782 0.2729904445809839 0.3518403092461769 0.259673723261775 0 0 5:0.208333 6:0.5 7:0.333333 9:0.708333 10:0.5 11:0.208333 13:0.416667 14:0.333333 17:0.200521 
-0.510840814987338 0.4963098238085199 0.353238177221811 0.4866214197315329 0.3611626959293585 0.3169986917981877 0.7044266835320818 0.2812601938554592 0.2543869889069021 0.7854263333628614 0.2829479930022885 0.3887476741667033 0.5603770159301733 0.4153723041805774 0.4009547798537086 0.7016397458800901 0.6457740327290087 0.5086261159672926 0.4095830026541317 0.6774297104871825 0.5126256351959795 0.6692144246632734 0.436604596961415 0.4293776026324707 0.3220093838533712 0.6417859326958785 0.5168389783201042 0.3076961394366526 0.2870562321669895 0.2125218141009909 0.3318296496132978 0.5129903856437685 2:0.25 6:0.541667 7:0.5 10:0.458333 11:0.25 16:0.125 17:0.132812 
-0 0.6135026788964674 0 0.5773124130089822 0.569735682615823 0.2524569068759063 0 0.3114669251220478 0.3419329381838029 0.4104542060687742 0.3773856101564761 0.5539005906803467 0 0 0.4145948232119593 0.9206695848997929 0 0.4984306934209352 0.2097557491514681 0.3682777013730226 0.367089578490225 0 0.509769167107044 0 0.1506047324047977 0.0786800672356396 0.2818666703881241 0 0.26889473835074 0.2623427498095255 0 0 2:0.125 3:0.083333 5:0.041667 6:0.75 7:0.541667 9:0.458333 10:0.166667 11:0.375 17:0.158854 
-0.2137547441168509 0.4488764134188525 0.8571782569550399 0.8755411404068844 0.05356830593701827 0.5181706796544375 2.607986859569104 0.1416851479725501 0.1213191228586968 0.8497842353173809 0.314236048034741 2.458592533363201 1.504319706706591 0.798367591526725 0.2103327872324689 2.202743896693049 0.564706756204808 0.1860853802488696 1.67933351630658 0 2.087522600358018 0.2265116573966798 0.1248141929044401 0.4956640956415251 0.01078315020562269 0.01925929364330498 0.2558129658969448 0.2161929953124029 0.3022517035898978 0.04388356226598777 0 0 2:0.166667 3:0.125 6:0.416667 7:0.458333 8:0.375 10:0.5 11:0.333333 12:0.208333 17:0.161458 
-0.6350431095305578 0.6364822423722457 0.7081465510427312 0.6864837920769508 0.5652377514082332 0.8451360559320782 0.5927654941698279 0.446812454521234 0.5428679249124501 0.6875083741496869 0.552301646096225 0.7417716662652265 0.8171562319802416 1.110551192979264 0.7501094156179118 0.5020346087493069 0.540057037189493 0.6629779942499591 0.7583169382053849 0.5487323835693337 0.7868293212164295 0.8293320121904449 0.7859883607820903 0.7528069325243399 0.4413276896100435 0.4142846159919895 0.4423601537692552 0.337294256851931 0.4079560705944759 0.3312995527020613 0.2576073902438555 0.5678165091250946 2:0.25 5:0.25 6:0.541667 7:0.5 10:0.458333 11:0.333333 13:0.25 14:0.208333 16:0.041667 17:0.177083 
-0.1403328020190381 0 0.5268665874024655 0 0 0.8809345362419031 1.645041747887941 0.1970081865020147 0 2.477901268089609 0.1209815043475227 0.6384374095689445 0.7852069978638803 0 0.4891712638350603 0.2728787547305468 0 0.2260160652339965 0.513993938767538 0 0.7280560152029868 0.4330178091396907 0 0 0 0.09583270760242286 0 0 0 0 0 0 5:0.375 6:0.208333 9:0.75 10:0.5 11:0.041667 13:0.25 14:0.125 17:0.140625 
-0.8639414311370489 0 0.04982720672923619 0.4493736290188501 0 0 0 0 0 0 0 0 0.8807579733083389 1.570075148550681 0 0.1509437250444095 0.4472301037422375 0 0 0.07705316184833215 0 0.8766685822717908 0 0.5317865247544378 0 0.1909428891188261 0.02289595438963663 0.2753502275810698 0.03743512943111817 0 0 0.2289293568483864 2:0.125 3:0.125 5:0.041667 6:0.666667 7:0.5 9:0.458333 10:0.166667 11:0.375 17:0.153646 
-0.1265319781426464 0 0.06774906770940223 0.3375097085623993 0.05336138079808823 0.05221687765368098 6.30425405057776 0 0 0.7127066778780216 0 0.2918705691606262 0.09232517260311458 0.8216003293470391 0.1349818739237793 4.038973104589341 0 0.155340190443962 0 0 0.0975713934606795 0 0.07060728484116799 0 0.6023309399373435 0 0.1081860465502862 0 0.1034241974272765 0 3.930621277153227 0.0005951242645023481 2:0.166667 5:0.333333 6:0.666667 7:0.333333 9:0.583333 10:0.25 11:0.166667 17:0.15625 
-0 0 0 0 0 0 0.3900390864268911 0 0 0 0 0 0 0 0 0 0 0 0 0 0 0 0 0 0 0 0.5693153679350633 0 0 0 0.4060654582398128 0.4681190127554884 2:0.166667 3:0.25 4:0.083333 6:0.5 7:0.416667 8:0.208333 9:0.041667 10:0.5 11:0.416667 17:0.161458 
-0.5400266727575644 0.4396428759718182 0.5752296914722133 0.3396967364709105 0.3609957033894181 0.6015184489841815 1.003284393808191 0.2786517272810919 0.2625120623932822 0.8256057879051452 0.3605037551077852 0.5832180171732768 0.7024405639325729 0.360029416967876 0.6310511271976866 0.683112851583467 0.4465437558496599 0.3161545775630059 0.6263889105499028 0.460437876596315 0.6175901845008966 0.8651785848364238 0.4491869025993772 0.6196858043467295 0.3915552813269075 0.4829214784228996 0.3695595043614479 0.281794096733587 0.1989009497426855 0.1543682630444174 0.467841139615659 0.3701052052026097 2:0.166667 5:0.166667 6:0.5 7:0.25 9:0.583333 10:0.333333 11:0.166667 14:0.083333 15:0.291667 16:0.166667 17:0.169271 
-1.491440515971227 1.41139276223936 0.5907766380499988 3.412771396045458 2.051618283286433 1.806444017222887 0.3697383138234336 0.6486403451466262 0.8394138624229737 1.801458891149466 0.7370657629451022 0.4799350876011149 1.638103345711655 1.654041691730725 0.8135569329902482 1.922097951410852 1.077992614573337 1.850364231269293 0.7043253723070768 1.300302197696775 0.5358253533257186 1.374614304111503 1.013878789302301 8 1.850606384043394 0.8220451926311114 1.359703350568358 0.7509807078937922 1.570881411061912 1.222393932308447 1.993162064383025 1.522010578832178 5:0.083333 6:0.458333 7:0.25 9:0.5 10:0.333333 11:0.041667 13:0.166667 14:0.166667 17:0.125 
-0 0 0.6296699031419987 0 0.1405266118303552 0 0 0 0.3957252890219231 0.04522901533669429 0.6531047038732604 0.5695433539064192 0 0 0.2384195625202806 0 0 0.8582042011859474 0 0 0 0 0 0 0.1458522805450139 0.5514972447803153 0 0 0 0.3654803367348773 0 0 5:0.416667 6:0.208333 9:0.583333 10:0.458333 11:0.041667 13:0.25 14:0.083333 17:0.127604 
-0 1.702020665086649 0.2538785791988281 1.639901333199486 1.900957002168867 0.2403780399009115 0 0.5191392407838603 0.3269249721128357 0 0.3027388988433302 0.1649755933480831 0 1.717618586782088 0.1834742556403054 0 0 0.6658276153098234 0.04432909780537914 1.172373243366579 0.2592480357055001 0 0.2586652704483242 0.7948290758006614 0 0 0 0.6518888490319203 1.125491790253796 0.8654224548992294 0.9120672233609504 3.018099985409596 2:0.166667 5:0.291667 6:0.5 7:0.25 9:0.583333 10:0.208333 11:0.166667 12:0.041667 16:0.041667 17:0.140625 
-0 0.002924871776765834 0.3282688718922361 0 0.07637237531779029 0.07224119358199016 0 0.07175547786529157 0.06716644233732334 0 0.00429051168055047 0.01776232058711938 0.1848899779666273 0.1752864617874256 0.07663071380496397 7.61895355901165 0 0.06505470656918445 0.01508242260167143 0.1067346028869017 0 0 0.00956104220406424 0.3850473326681239 0.1589476875586401 0.09513434430405632 0.06008320955916691 0 0 0.06127244609711796 0 0.0489933617391094 2:0.125 3:0.083333 5:0.041667 6:0.708333 7:0.583333 9:0.458333 10:0.25 11:0.375 12:0.041667 16:0.125 17:0.174479 
-0 0 0 1.259675359755559 0.1602440333984991 0.1391810301033676 0 0.09906297725033746 0.07455926164351709 0 0 0 0 0 0 0 0 0.09706346033311092 0 0 0 0 0 0.4086726265161126 0 0 0.1352578569950241 0 0 0 0 0 2:0.25 6:0.541667 7:0.5 10:0.5 11:0.25 17:0.127604 
-0.7191679389460603 0.4666063910204832 0.7440806835350395 0.4159520003065608 0.403920200047372 0.6210663090994911 1.49933813070634 0.3534642346372002 0.3677569513672939 1.11185100198035 0.7531223586902395 0.76060696019277 0.7244374981353167 0.5735850776342198 0.7358240137629459 0.9700987614614032 0.451842392237198 0.4900132090710977 1.158643034198752 0.4674539268330083 0.8780373642811266 0.8480460428667208 0.6129252914199959 0.9986611259365097 0.353401778397162 0.4988165473913768 0.5228701556569121 0.2911058355100254 0.539333464634343 0.2134563888933876 0.5052729395705504 0.5210080769101197 2:0.166667 5:0.208333 6:0.5 7:0.25 9:0.75 10:0.458333 11:0.25 16:0.333333 17:0.182292 
-0.8989945094968878 0.3977804792842091 0.5595313124277291 0.1287928735550516 0.03252169874106811 0.3163382730012656 2.126169911049602 0.1186716338717642 0.1248808324503505 0.9054851527474111 0.2246291426488889 0.5303427966679055 0.7862242985253628 0.1654684213916127 0.3635078688348413 0.002308884060057321 0.4048499588324007 0.1881547423243677 0.6183837915447085 0.1797821137386788 0.842177310769197 1.39877750472556 0.234832411265698 0.2532128823418009 0.09090739117362891 0.29642577193267 0.2462247841746077 0.1758267632909584 0.2007925493034304 0.07431703125727931 0 0.3011385273526819 2:0.125 3:0.083333 5:0.041667 6:0.666667 7:0.5 9:0.458333 10:0.291667 11:0.416667 12:0.166667 16:0.041667 17:0.174479 
-0.02563755932811428 0 0 0 0 0 0.7558129336738515 0 0 1.75368015869428 0 0.2981848262081634 0.2003842120128004 0.873002779755538 0 3.014476243163377 0 0 0 0 0 0 0 0 0 0 0 0 0 0 0.6932873437366142 0 2:0.166667 3:0.25 4:0.083333 6:0.583333 7:0.375 8:0.208333 9:0.041667 10:0.5 11:0.416667 17:0.164062 
-0.262959277121268 0.08044712265090047 0.3828935455475706 0.2607569522035792 0.2582395038412433 0.3650913711364546 1.038177919658209 0.2414000025166458 0.2197325308913669 0.8564158958418684 0.3450458051005748 0.4373469595145819 0.1753189220417511 0.07325759700474146 0.4243256125439817 0.2892601724836818 0.06679781715164765 0.1808014715351019 0.4228294400003856 0.08460645714922918 0.4639963622516116 0.3206751468923204 0.1194767871484143 0.2297585766465823 0.1973336093257327 0.1033760159005902 0 0.02290719259676247 0 0.1999244340005217 0 0 1:0.041667 2:0.458333 5:0.166667 6:0.583333 7:0.5 9:0.083333 10:0.5 11:0.375 17:0.169271 
-0 0 0 0 0 0 0.001156862832366447 0 0 0 0 0 0 0 0 0 0 0 0 0 0 0 0 0 0 0 0 0 0 0 0 0 2:0.333333 6:0.541667 7:0.5 10:0.458333 11:0.25 17:0.130208 
-1.378181655716032 2.244928655855096 0 1.444834618499591 0.7109843593490324 0.4243167276215811 2.225677351816348 0.7039664957573051 0.6698315797139132 0 0 0 1.485007490267093 1.058792597430284 0.5069750934671982 1.792613809787226 1.912556380869681 0 1.787887853438746 2.863886328357365 1.06466322521829 1.165292431601666 2.854464375427201 2.150643194303234 0.6968198190452094 0 1.928642597745481 0.8328395608588136 3.082528657708635 0.2454006294351201 2.002098182793733 2.120195627532676 5:0.375 6:0.208333 9:0.583333 10:0.458333 11:0.041667 13:0.25 14:0.083333 17:0.125 
-0 0 0 2.252756493215347 0.1643021964982643 0 1.948441738163933 0.4537906613314731 0.6152176947842977 0 0.6990642833598897 0 0 0 0 0.9630812444332245 0 0 0 0 0 0 0 0 0 0 0 0 0 0 0 0 2:0.166667 5:0.166667 6:0.541667 7:0.25 9:0.583333 10:0.208333 11:0.166667 16:0.041667 17:0.132812 
-0.1244445165446002 0 0.2017776856371176 0 0 0.08672525466082068 0 0 0 0 0.1019315934714765 0 2.242183311685014 0.362072649079218 0 0 0 0 0.4470042872015231 0 0.02028817146722842 0.8241601895721147 0 0 0 0 0 0 0 0 0 0 2:0.166667 5:0.208333 6:0.5 7:0.25 9:0.583333 10:0.208333 11:0.208333 17:0.132812 
-0 0.3318075395070187 0 0 0 0.6358490448979927 0 0 0.03855966159700074 0 0 0.05701960830014035 0.4369114205897284 3.19024364231998 0 5.497051530874923 0 0 0.0105504195519486 0 0.6496310700063588 0 0 0 0 0 0 0 1.723408063103024 0 0 0 2:0.166667 3:0.25 4:0.083333 6:0.541667 7:0.333333 8:0.208333 9:0.041667 10:0.5 11:0.416667 17:0.158854 
-0 0 0 3.305284441551386 0.9624287935996146 0.7952115212805845 0.03684655089405783 0 0.03916133005739682 0.1044233804051402 0.2107442576087306 0 0 1.402896433692362 0 0 0 0 0 0 0 0 0 0 0 0 0.217947222128065 0 0 0 1.093245387119769 0.009831667607490996 5:0.375 6:0.291667 9:0.666667 10:0.458333 11:0.083333 13:0.25 14:0.083333 17:0.138021 
-1.029352470355741 0.1197410225421061 1.222264201649414 1.19381450990837 0.2666606948227301 0.09105202367386332 2.673710709129502 0.1503194917093321 0.1245321639686355 0.04041622343807688 0.5509468922149554 1.539398632695616 0.4899522817943608 0.5432732371370935 0.3017883169771246 4.381872459213125 0.2205282524422142 0.1076641937098157 1.164163079912478 0.1090892864002716 0.3418531426663951 0.3051552982557885 0.1182849275827228 1.049917455634018 0.4949890578513072 0.4080953865338405 0.1715913028154233 0.2055571088168621 0.1443789149284739 0.1584394341676577 0 0.4247312381253905 3:0.25 4:0.166667 6:0.166667 7:0.416667 8:0.416667 10:0.458333 11:0.333333 12:0.333333 17:0.158854 
-0.0961668374367257 0.8294907943797519 1.876739306876752 0.7330079203093662 0.6544790226471262 0.9293744045478977 0 0.466361442960169 0.5108448263576129 0.8624307951179073 0.3385756869600018 0.1884437005221867 0.7747246321656615 0.4816300518578742 0.8526201139976298 0.9379880252177701 0.6662866866896114 0.7733910307821459 0.3536912147273551 0.6566016646596176 0.7329051999701853 0.8422175196208812 0.7389516495379855 0.6743268518244453 0.2486153207253305 0.2540766077046366 0.4183444722400874 0.265456400062742 0.3703596404124562 0.3453022733364456 0.2458974122504223 0.4675564532383122 3:0.291667 4:0.25 6:0.166667 7:0.416667 8:0.416667 10:0.416667 11:0.333333 12:0.333333 17:0.164062 
-0 0 0.5606946585269348 0 0 0.3463088971143453 1.030925629071387 0 0 0 0 0 0 0 0.1578499365874353 0 0 0 0.3596595944528144 0 0 0.2452153581022081 0 0 0 0 0 0 0 0 0 0.1907799829529731 2:0.125 3:0.083333 5:0.041667 6:0.666667 7:0.5 9:0.5 10:0.166667 11:0.416667 17:0.15625 
-0.01055556725566983 0 0 2.169490483117185 0.0995159035054273 0.0928392155225599 0.5892582777629822 0 0 1.48891211899379 0 0 0 0.2758056702576329 0 2.049031701298173 0 0 0.2072029727838927 0 0 0 0 0 0 0 0.3414357424737876 0 0.1334119266206187 0 1.130397950446309 0.5062264745768105 5:0.25 6:0.5 7:0.333333 9:0.708333 10:0.541667 11:0.208333 13:0.291667 14:0.208333 17:0.190104 
-0.8246818312019396 0.6579938060123033 1.10820572729753 2.98329599087961 1.134423663536781 0.3662393537619998 0 0.634477410018369 0.480576985107376 1.740226020368178 1.14656061360388 0 0 0 0.7742394267515866 0 1.121721466567713 0.8069496896445674 0.8931740446349812 0.8164970317500182 0.1091730713931364 1.177885762741567 0.9338989269385556 1.103801065621106 0.6031651037332728 0.6361236446851188 0.1470413802900652 1.085923339408494 0 0.3353247543035013 0 0.5949491891887845 2:0.166667 3:0.25 4:0.083333 6:0.5 7:0.333333 8:0.208333 9:0.041667 10:0.5 11:0.416667 17:0.15625 
-0 0 0 0 0 0 0 0 0 0.01758951632085843 0 0 0 0 0 0 0 0 0 0 0 0 0 0 0 0 0 0 0 0 0 0 2:0.208333 3:0.125 6:0.416667 7:0.458333 8:0.375 10:0.5 11:0.333333 12:0.125 17:0.158854 
-0 0 0 0 0 0 0 0 0 0 0 0 0 0 0 0 0 0 0 0.382568668075553 0 0 0 0 0 0.2545355733822534 0 0 0 0 0 1.928877829604583 2:0.166667 3:0.125 6:0.416667 7:0.458333 8:0.375 10:0.5 11:0.333333 12:0.125 17:0.15625 
-0.1452051330482013 -0.1590195753146547 0 0 0.4342702082078946 0.3135036357948855 0.1654436713873077 0.2599404989783188 0.3898802377002656 0.6541051934700615 0 0.08848214872448013 0 0.60272442868737 0.02482718859977517 1.060298124995969 0.6235556923329244 0.509038402797218 0 0 0 0 0.6572115091352859 0 0 0.1564711926382881 0.07858524345735385 0 1.954367774668255 0 0 0 2:0.125 3:0.166667 4:0.166667 6:0.541667 8:0.083333 10:0.333333 11:0.333333 12:0.041667 17:0.111979 
-0 -0 0 0.2821221354467096 0 0 0 0 0 0 0 0 0 0 0 5.713687042624921 0 0 0 0 0 0 0 0 0 0 0 0 0 0 0 0 5:0.208333 6:0.375 7:0.041667 9:0.458333 10:0.041667 16:0.041667 17:0.072917 
-0 -0 0 0 0 0.5652458916043468 0 0.05864543341624619 0 0 0 0 0 0 0 0 0 0.2893987486696818 0 0.9297963101363255 0 0 0.0478671394741135 0 0 0 0 0 0.4401356005899878 0 0 0 3:0.166667 4:0.208333 6:0.375 7:0.083333 8:0.083333 10:0.25 11:0.208333 12:0.208333 17:0.098958 
-0.5337115647186133 -0.779552937282705 0.8862493133070005 8 1.22429456612093 0.8386043285325541 0.5006155889728707 1.951828637018423 1.702667158095565 0.671327804153759 1.043669715753169 0.4257766834590901 0.062905364231544 0.8590929585946094 0.8202740253230365 0 0.08338835613066027 3.13500159420446 0.8503882902062687 0 0.7193177679371089 0.1609678913285957 1.207315157798402 1.717005941436566 0.7671893123245475 0.7866963792370556 1.556135620976446 0 0 0 0 0.132492781448033 6:0.291667 7:0.375 10:0.458333 11:0.083333 17:0.075521 
-2.370158253702016 -1.738250540735509 0.8845099865581776 4.636352639784587 0.7522958193705773 0.9618015273171449 1.401939403693717 0.2868103170037799 0.3048699392592785 1.920496796484958 0.7229082775253278 0.8470608494717435 2.33278846288311 1.866665529743967 0.9218169655078803 3.586476396105462 2.176086705350612 0.8244583644369509 1.437885856231121 2.487272211773887 1.167320374458966 2.959543035593722 1.725255414352402 2.790882228639813 0.308883145542804 0.7416840735388421 1.27439832840798 0.6882890742844847 4.921500435023458 0.02236676129772885 2.682053060835629 1.055250112912032 5:0.041667 6:0.625 7:0.375 9:0.125 10:0.333333 11:0.25 12:0.041667 15:0.041667 17:0.114583 
-0 -0 0 0 1.570428216577031 0 0 8 8 0 3.36366085815625 0 0 0 0 8 0 0 0 1.122034527604268 0 0 0 0 0 0 0 0 0 0.9932143109708027 0 0 5:0.208333 6:0.375 7:0.041667 9:0.458333 10:0.041667 17:0.070312 
-0 -0 0 5.863443337577083 0 0 0 0 0 0 0 0 0 0 0 0 0 0 0 0 0 0 0 0 0 0 0 0 0 0 0 0 6:0.291667 7:0.375 10:0.416667 11:0.083333 17:0.072917 
-0 -0.498389850673014 0 1.700287774106055 1.26815572414456 0 0 0 0 0 0 0 0.3334356903020571 1.423525375874472 0 1.034525763507746 0 0 0 0 0 0 0 0.9897684904252291 0.009299152339046974 0 0 0 0 2.324872922318008 0.0775218152827398 0.4455924934715124 5:0.208333 6:0.416667 7:0.333333 9:0.5 11:0.041667 13:0.166667 14:0.125 15:0.083333 17:0.117188 
-0 -0 0 0 0 0.8812762986800553 0 0 0 0 0 0 0 0 0 0 0 0 0 0 0 0 0 0 0 0 0 0 0 0 0 0 2:0.125 3:0.166667 4:0.166667 6:0.416667 8:0.083333 10:0.333333 11:0.416667 12:0.125 17:0.114583 
-0.3475188405299744 -0.05214736735759908 0.3069226949490986 0.5481463738192829 0 0.4356404733009471 0.2643929040239095 0 0 0.2742195724325746 0.2408501667966022 0.3448892453198289 0.3658589639470348 0.1587956141661773 0.3899797648172104 0.2371542132969179 0.04094740615999042 0 0.5702500058170348 0 0.3544013798264655 0.8558554998820982 0 1.893453953926104 0.09412442724076468 0.1447770311850454 0.1032643276698719 0 0 0 0.1499152731452532 0.002231513129537792 5:0.083333 6:0.083333 9:0.458333 10:0.125 13:0.25 14:0.166667 15:0.083333 16:0.041667 17:0.080729 
-0.7190830851141659 -1.82379579338848 0.1467913250703269 8 3.279124507089071 0.4831781718374487 0.705303932026205 3.254411120111559 3.986911843738267 0.7095575523045436 1.07736848040528 0.183871686239565 0.8464959235657959 1.084868781355615 0.2310049266663615 8 3.925982237664234 1.796851219547193 0.8137176173803089 6.123363766656543 0.3983179643055013 1.697577680252352 8 4.13297820320711 0.4151131084632453 0.1935886286282057 0.7055255066601417 0.4521653914027109 1.844509128745143 0.6591609846217876 0.7244742856638313 0.5697950927522484 5:0.208333 6:0.166667 9:0.541667 10:0.25 13:0.25 14:0.041667 17:0.091146 
-0.1345972583425451 -0.142220733517344 0.09856207385472648 0 0.04948632125823799 0.07080731502345705 0.194624863445787 0 0.03592370718913004 0.09224963365544654 0 0.2248743995058012 0.2107369808040238 0.177794518531813 0.2464442611867001 0.08398492935524808 0.1948898127288746 0 0.1440772997757079 0 0.1793654739399275 0.2333248032584935 0.3321150911843151 0.1168066592806866 0.233834578905519 0.2668567865256506 0.1142495886016595 0.1097793392573162 0 0.02642069717114771 0.1336665607168298 0.2177693987772842 2:0.125 3:0.166667 4:0.166667 6:0.416667 8:0.083333 10:0.333333 11:0.416667 12:0.083333 13:0.125 17:0.119792 
-0 -0.1608980042886086 0.131817663305805 0 0.1686728785453926 0.2383315802760863 0.09570215977509934 0.1930784303917195 0.3947842162122936 0.1069794685158353 0.1200452558408677 0.04376068691218254 0.1014976617231705 0.3049478394624358 0 0 0 0 0 0 0 0 0 0.5865354967712362 0 0 0 0 0 0 0.114586070063831 0 2:0.125 3:0.166667 5:0.375 6:0.25 7:0.166667 8:0.083333 9:0.291667 10:0.083333 11:0.25 17:0.111979 
-0.1043457689725559 -0.06211600056445202 0.1453990038547207 0 0 0.7442064671534787 0.08555676009801094 0.02965599502539414 0 0.06899426689766605 0 0.2289065083108893 0.1856949185702572 0.01347993375866522 0.1272565884076495 0 0.06228742204162289 0 0.0995825817561434 0.4006446856750294 0.1150416194964533 0.1424263361176731 0.6184994982732502 0.02366145697010725 0 0.09312729191926603 0.06862871899163199 0 0 0 0 0 2:0.125 3:0.166667 5:0.333333 6:0.208333 7:0.166667 8:0.083333 9:0.291667 10:0.083333 11:0.25 12:0.083333 16:0.083333 17:0.117188 
-0 -0 0 0.1334514480731163 0 0.5070208740462494 0 0 0 0 0 0 0 0 0 0 0 0 0 1.651489168806202 0 0 0 0.6095238328498019 0 0 0 0 0 0 0 0 5:0.208333 6:0.291667 7:0.333333 9:0.5 10:0.041667 11:0.041667 13:0.166667 14:0.166667 15:0.083333 17:0.114583 
-0 -0 0 0 0 6.442756699205312 0 0 0 0 0 0 0 0 0 0 0 0 0 0 0 0 0 0 0 0 0 0 0.2245596751647559 0 0 0 3:0.208333 4:0.25 6:0.458333 7:0.083333 8:0.083333 10:0.291667 11:0.291667 12:0.208333 17:0.117188 
-0.2471477098242508 -0.3115966450937263 0.2706724709762207 0 0.3398497199656662 0.7930341327877126 0.3398427644030765 0.3335965159672527 0.3887787118174929 0.3729671994805678 0.2191947434810854 0.3810119521730699 0.3922287289933815 0.4172717551234477 0.3620681967433143 0.4116137938677298 0.5794889291588872 0.457538996220234 0.4066776150172624 0.4620994249147828 0.3649208489608674 0.4091168570268688 0.3656331075338131 0.1151869726417735 0.1197166088652977 0.271776563707236 0.2131210940678473 0.3804749734036612 0.4350600522686955 0.009503364014012951 0.2005073975925194 0.2992385429599066 2:0.125 3:0.083333 4:0.166667 5:0.25 6:0.416667 8:0.083333 10:0.333333 11:0.333333 17:0.111979 
-0 -0 0 0 0 0 0 0.2893558456630921 0 0 0 0 0 0 0 0 0 0 0 0.8204159643031631 0 0 0 0 0 0 0 0 0 0 0 0 2:0.125 3:0.166667 4:0.166667 6:0.458333 8:0.083333 10:0.333333 11:0.333333 17:0.104167 
-0 -0 0 8 0 0 0 0 0 0 0 0 0 0 0 6.951398499033193 0 8 0 8 0 0 1.575086666839804 0 0 0 0 0 0 0 0 0 6:0.375 7:0.375 10:0.375 11:0.083333 17:0.075521 
-0 -0 0 0 0 0 0 0 0 0 0 0 0 0 0 0 0 0 0 0 0 0 0 0 0.2948267632836954 0 0 0 0 1.819163228999306 0 0 5:0.041667 6:0.291667 7:0.208333 9:0.125 10:0.333333 11:0.041667 17:0.065104 
-0 -0 0 1.161395620559531 0.5506426219301473 0 0 0 0.2779610586661195 0 0 0 0 0.03144695826587107 0 0.3668452913188649 0.7778892436460128 1.744761392835109 0 0 0 0 5.966917953909033 0 0 0 0 0 0 0 0 0 5:0.125 6:0.083333 7:0.083333 8:0.041667 9:0.5 10:0.125 13:0.291667 14:0.125 17:0.085938 
-0.3504558871600825 -0.4887378828149447 0.9983723455158882 1.205275714669867 0 0.206481578199164 0.2702817090185642 0 0 0.4483713931169062 1.530727697947334 0.2805230878617196 0.3528994840264235 0.0676449249185507 0.5828712024202296 0.0145329653340928 0 0 0.7293519280783511 0 0.501933099023377 0.5116100102348804 0 0.7071074048688141 0.1774243170912145 0.07105121529418018 0.3057328420767418 0 0 0 0.1946833595998624 0.2474402500119168 2:0.125 3:0.166667 4:0.166667 6:0.416667 8:0.083333 10:0.375 11:0.458333 12:0.083333 17:0.117188 
-0 -0 0 0 1.588790280445989 0 0 0.04437439676836304 0.7590257995365866 0 0.7070822504130181 0 0 0 0 0 0 0.03814687707776895 0 0 0 0 0 0 0 0 0 0 0 0.3536132635413445 0 0 5:0.25 6:0.333333 7:0.333333 9:0.5 11:0.041667 13:0.208333 14:0.125 15:0.083333 17:0.117188 
-1.108098359062248 -0 0 5.416221224071414 0 0 0 1.071283099457209 0.136432624511555 0.1311624479361927 0 0 0.3691926520641438 0 0 0 6.013537400504802 3.054592075326279 0 2.901974625464888 0 4.099038269418656 2.60384642911586 4.440170072403665 1.554973712071338 1.751412125830582 1.128771986917399 2.149963241146805 0.7488678718889861 0 0 0.1623149325700632 5:0.041667 6:0.375 7:0.208333 9:0.166667 10:0.375 11:0.083333 17:0.078125 
-0 -0 0 0 0 0 0 0 0 0 0 0 0 0 0 0 0 0 0 0.4858276300520195 0 0 0 0 0 0 0 0 0 0.2709780245434595 0 0 2:0.125 3:0.166667 5:0.333333 6:0.208333 7:0.166667 8:0.083333 9:0.291667 10:0.083333 11:0.25 12:0.041667 16:0.083333 17:0.114583 
-0 -0 0 0 0 0 0 2.069557740352006 0 0 0 0 0 0 0 0 0 0 0 1.39460367301434 0 0 0 0 0 0 0 0 0 0 0 0 5:0.208333 6:0.375 7:0.041667 9:0.458333 10:0.041667 12:0.083333 16:0.041667 17:0.078125 
-0.4076248823861354 -0.5882242421587811 0.5794059056154034 0.1416922957765502 0.6959709757221442 0.922972197087836 0.5381422440143931 0.782952935841581 0.7712770669336932 0.3758342475652632 1.428580918845958 0.455552670722969 0.7716959720103657 0.8017303490386065 0.4104012034723393 0.4386430582214336 0.413450344518447 0.555686250149002 0.4594923739175442 0.1799158703749551 0.540807056981882 0.5585172859442294 0.2890198519231938 0.2761973152549912 0.187776464456034 0.2552289289809618 0.2282916680396141 0.1600622905806014 0.2546034305736428 0.2184679068852625 0.2795330169597233 0.4937571128620548 5:0.208333 6:0.375 7:0.041667 9:0.458333 10:0.041667 11:0.208333 12:0.166667 13:0.083333 15:0.125 16:0.166667 17:0.117188 
-0 -0 0 0 0 0 0 0 0 0 0 0 0 0 0 0 0 0 0 0 0 0 0 0 0 0 0 0.6813623893263407 0 0.1677883486178724 0 0 2:0.125 3:0.166667 4:0.166667 5:0.041667 6:0.416667 8:0.083333 10:0.333333 11:0.333333 17:0.104167 
-0 -0 0.05813242982290986 0 0 0.2285065098876288 0 0.2162265716578948 0 0 0 0 0 0 0 0.1528559031235086 0 0 0 0.3703536825771001 0 0 0 0.625348536702742 0.5163134403318081 0 0 0 0 0 0 0 1:0.083333 2:0.041667 5:0.208333 6:0.291667 7:0.333333 9:0.5 11:0.041667 13:0.166667 14:0.125 15:0.083333 17:0.117188 
-0.8503769506509754 -1.036347287053735 1.80699465390899 0.6555996727882659 0.604771016308844 3.919868271238166 1.20589953563429 0.406157711561185 0.505747363960526 0.9201109215138815 0.8279007229456807 1.231025255911006 1.203457684832218 0.9063700865771074 1.307316430073755 1.29857631346487 0.8741092903087806 0.6717329127968815 1.632381452502909 0.2891829196298517 1.107590146738446 0.9593610712344977 0.8335205041914517 0.8648036647092288 0.4991362705590613 0.5826010932431768 0.6529064908261744 0.2760076396228271 0.4109486986329864 0.1789561514837379 0.5439893038111893 0.7533146013794408 2:0.041667 3:0.208333 4:0.208333 6:0.375 7:0.166667 8:0.125 10:0.25 11:0.25 12:0.458333 17:0.130208 
-0 -0 0 0 0.03007561101104936 0 0 0.1001828677662975 0.2032939385140866 0.01526929015726356 0 0 0 0 0 1.038059288409381 0 0.6451508459870577 0 7.491262289882895 0 0 0.3850180834060524 0 0 0 0 0 0 0 0 0 1:0.125 5:0.041667 6:0.375 7:0.25 9:0.125 10:0.333333 11:0.041667 17:0.080729 
-0 -0 0 0 0 0 0 0 0 0 0 0 0 0.344171595099549 0 0 0 0 0 0 0 0 0.102706527019479 0 0 0 0 0 0 0 0 0.2188944787716546 5:0.291667 6:0.375 7:0.375 9:0.5 11:0.041667 13:0.166667 14:0.166667 15:0.083333 17:0.125 
-0.8208922658010566 -0.7395142786553819 0.7396068322229187 0.4232389181179318 0.350953428210826 1.945974749108323 0.8300260081334538 0.2500820443581204 0.103032842073428 0.6845233443707015 0.5881998038424417 0.6587352854037679 1.037491503126471 0.7446421176275392 1.238049912809476 0.7285139550808855 0.8564498492543925 0.2692177489573044 1.112991790667158 0 1.113035049882319 1.264216808004651 0.3700854087791196 0.7613304610820755 0.5652924717827235 0.6151959086076167 0.4818001150826002 0.3038693619317195 0.5071525696598125 0.01581571623722693 0.5055141609431076 0.8212744462160706 2:0.125 3:0.166667 5:0.333333 6:0.208333 7:0.166667 8:0.083333 9:0.291667 10:0.25 11:0.375 15:0.125 16:0.041667 17:0.135417 
-0 -0 0 6.896451636617102 0 0 0 0 0.1928710207612666 0 1.280433708782567 0 0 0 0 8 0 7.157102450803594 0 0 0 0 0 0 0 0 0 0 0 0 0 0 5:0.208333 6:0.416667 7:0.041667 9:0.458333 10:0.041667 12:0.041667 17:0.075521 
-0 -0 0 0 0 0 0 0 0 0 0 0 0 0 0 0 0.1178762797191923 0 0 1.031327023403897 0 0 0 0.4961354812126485 0.7529270862774496 0 0 1.239527099394344 0.8664216121543266 0.5091727434535057 0.1959385012803282 0.3053326832454111 2:0.125 3:0.166667 5:0.333333 6:0.25 7:0.166667 8:0.083333 9:0.291667 10:0.166667 11:0.25 16:0.125 17:0.122396 
-0.1703004261461657 -0.2594047551715349 0.2555365800329632 0 0.4276303195443942 0 0.2661986920972489 0.3578656820831659 0.3506483444317333 0.1441692375496144 0.710588805281512 0.258554174991414 0.2000246119246254 0.3546722487093947 0.1694326771114215 0.2299329718735819 0.5258035375224585 0.5533427910776573 0.195821614030707 0.6287684593413391 0.2339602256182622 0.3479144137108682 0.2270728427279169 0.136871598225914 0.2803620000546649 0.30377288623065 0.1593555475902753 0.3536626866144833 0 0.2179677498783522 0.1569424215113795 0.2499960009099488 1:0.125 2:0.125 3:0.166667 4:0.166667 6:0.416667 8:0.083333 10:0.333333 11:0.333333 17:0.109375 
-0.2322796836790148 -0.2771249328831651 0.3160097284096258 3.951216102672328 0.9570489497090275 0.120251724453658 0.3494461941833509 1.699682960468885 0.4467304817183863 0.3599169586408087 0.4949889997398095 0.3917144777762872 0.3344288303907035 0.1241397239247764 0.3805942837780707 5.017064678835578 0.3157423007212172 1.786691785406412 0.3198796303494424 0.9740151505072528 0.3622115896611076 0.494659168874119 0.3387423617235998 0.6069947701048353 0.4799734624442604 0.2665528326194156 0.2292195368889302 0.1448255501105716 0.05073755504908332 0.1394948392072807 0.08254776403475453 0.0865699821452023 5:0.208333 6:0.375 7:0.041667 9:0.5 10:0.041667 16:0.25 17:0.088542 
-0.6583555426856594 -0.8250228588375618 1.068208508699527 0.09141732266753623 0 1.028485967684257 0.8974910649629728 0.3284615174446893 0.08527122105652613 0.7732786150652035 0.504556672258441 0.8914128440412359 0.6967492536114526 0.2627150081381717 1.048684128160273 0.5253721699175773 0.5813384975767135 0.7146200853873467 0.8565133349159999 0 0.8295307468395759 0.7507558454224222 0.4679029682897947 0.9972193744742621 0.2810592426052342 0.5179626966694342 0.5295312814276059 0.2666187286057418 0.4182787877023067 0 0.5606738319732116 0.4904469960475354 3:0.041667 5:0.291667 6:0.375 7:0.375 9:0.5 11:0.041667 13:0.208333 14:0.291667 15:0.083333 17:0.138021 
-1.025564905068664 -1.909232069583027 0.9137405501416488 2.813378714639521 2.69054500416763 0.8291828372178043 1.195015950261815 0.2928630659901369 0 1.650678215564053 0.1861600908464411 0.7866152752608061 1.560896081438243 2.650502571710059 0.9098516604085989 2.107842546812968 0.7333209336508649 0.2136721558092974 1.282899305143275 4.278211563771269 0.9692662870462696 0.9078637755040684 1.184970040519471 1.934735025287462 1.203375303670431 0.4603197238855825 0.7180002744499675 0.5632596422832784 2.405799919807933 0.4761782230870629 1.406726871405408 2.78950199780602 5:0.416667 6:0.291667 7:0.25 9:0.625 10:0.333333 11:0.041667 17:0.122396 
-0.3104015241703415 -0.1384250464119315 0.6082773572903143 0.1592388143926037 0.05274641674461529 0.4045050167377383 0.404657648113084 0 0 0.3121979934492674 0.7521627034135298 0.6172132297148023 0.3018553794186613 0.3616560821598712 0.5662352965090488 0 0.159353464031708 0.1746028785160595 0.3981779431925141 0 0.4996727284674223 0 4.49973913547193 1.23800134036852 0.8265608444581568 0.4108466248256935 0.2275249210719826 0.3703822129714236 0.1215493463436217 0 0.1323770207324052 0.4493417140678959 5:0.083333 6:0.083333 9:0.375 10:0.125 13:0.333333 14:0.041667 17:0.065104 
-0.4553621000665373 -0.4832197443504346 0.4704022386150321 0.03574188874507867 0.2488739995847039 0.2974309514141086 0.4785236379700589 0.2422898859606 0.4751292147439621 0.6149877710958226 0.3352197060237683 0.4917965524800231 0.6548640289693476 0.5166813193566857 0.5450200100070822 0.1167010549678599 1.848559227621714 0.2501226214581959 0.5111315517262919 1.423351113218088 0.5873242480390228 0.5385280347958243 4.488667131103758 0.7658320278009735 0.6128012294966469 0.4208730810105885 0.4665485169173552 1.610023258111208 1.367851391444791 0.1628413204853277 0.5272133014517227 1.467659736182272 5:0.375 6:0.291667 7:0.208333 9:0.125 10:0.375 11:0.041667 16:0.041667 17:0.091146 
-0 -0 0 0 0 0 0 0 0 0 0 0 0 0 0 0 0 0 0 0 0 0 0 0 0 0 0 0.6597982531903959 0 0.179681121405454 0 0 6:0.291667 7:0.375 10:0.375 11:0.083333 17:0.070312 
-0 -0 0 0 0 0 0 1.378177695116767 2.271129290883639 0 0.5823127754014281 0 0 0 0 1.112704224390216 0 2.355871761461988 0 2.014002964000541 0 0.8676669127257224 0 0 0 0 0 0 0 0.6392532205130969 0 0 5:0.083333 6:0.083333 9:0.375 10:0.125 13:0.25 14:0.041667 17:0.059896 
-0 -0 0.3162615421137749 0 0.4302484073923126 0.2020587728378228 0 0.3077545568473966 0.07364736860301353 0 0 0 0 0.07030158347696053 0.3039301096675148 0 0.1609018775390595 0 0 0 0 0 0 0 0.02916152225401308 0 0 0.382253650839099 0 0.3222024761029493 0 0 3:0.25 4:0.208333 6:0.375 7:0.083333 8:0.083333 10:0.25 11:0.25 12:0.208333 17:0.106771 
-0 -0 0 3.085161373728473 0 0 0 0 0 0 0 0 0 0 0 0 0 0 0 0.6694017422912506 0 0 0 0 0 0 0 0 0 0 0 0 5:0.208333 6:0.375 7:0.041667 9:0.458333 10:0.041667 16:0.083333 17:0.075521 
-0.5093748932860194 -0.8267798306685212 0.4220456053826492 4.825757651439491 2.534201062259726 0.3772467161186441 0.6160331861570817 0 0.1300885368045514 0.6655983412811257 0.2636057215396508 0.4479940553198927 0.7405795064338621 0.6061973129829301 0.3889694532472917 3.971689174386847 0.7227371608271143 3.404601694770585 0.3361453701681321 0 0.3709747175028393 0.5008986052520441 0.4062439736277961 1.155688596049581 0.957231310951382 0.2690160129204018 0.26030173080592 0.504570812662777 0.415704577461421 2.834470405246078 0.5432556196468954 0.5871088520422759 1:0.041667 5:0.25 6:0.541667 7:0.083333 9:0.458333 10:0.041667 17:0.088542 
-0 -0.2391766246964864 0.07822324985295992 3.77491607836409 0.2310512936490843 0 0.3309918201340084 0 0 0.05745122632264214 0 0.6128458310325934 0.7250323124362956 0.5139840352362341 0.05985510899309997 4.949311167620916 1.663965268670887 0 0.0762430191673534 4.227825120197959 0.1575818012653101 0 0 0 0 0.02299855374043846 0 0 0.2817532429702879 0 0.6876856979647674 1.389562707122858 6:0.333333 7:0.416667 8:0.041667 10:0.375 11:0.083333 17:0.078125 
-0.2608201718211516 -0.5632810317030077 -0.244420871855035 0.435985518507793 0.3901595865172713 0 0.2286878954583732 0.2437405095460283 0.2509843438882161 0.3890331181471332 0.2914955688489779 0.4081532191559582 0.2518288456941469 0.1135454155423166 0.349317494098729 0.4685275353724627 0.2525642477161401 0.3269144342487639 0 0.2818324407714232 0.3665605253490903 0.3351088299110629 0.3215241828390198 0.3787166771782583 0.2055010690308716 0.2283513965185922 0.240082254670527 0.1573252599314484 0.2089198969829599 0.153368491830251 0.2272099797972961 0.1597273721449235 5:0.25 6:0.5 7:0.333333 9:0.666667 10:0.083333 11:0.458333 13:0.333333 14:0.25 15:0.166667 17:0.190104 
-1.828697242855954 -0 -0 0 0 0.3418668791588855 0 0 0 0 0 0 0 0 1.042262569290517 0 0 0 0.02335340651018902 0 0.1293474349523826 0 0 0 0 0 0 0 0 0 0 0 3:0.125 4:0.208333 6:0.375 7:0.583333 8:0.041667 9:0.166667 10:0.333333 11:0.541667 17:0.148438 
-0 -0.1063404296590532 -0.3342276434680855 0 0 0.5008547008496186 0.3982256181004391 0.115579040428395 0.1189946034251957 0.06358466750847716 0 0.156070343513207 0.1933764065798519 0 0.7081864246796831 0 0 0.06580396536270731 1.214622162856463 0 0.62518262612007 0 0 0 0 0 0 0.01010915048324656 0 0.02689064187588717 0 0 4:0.25 6:0.208333 7:0.333333 8:0.458333 10:0.333333 11:0.416667 12:0.333333 15:0.041667 16:0.041667 17:0.151042 
-0.4505462249136659 -0.5140003199031944 -0.4273950117701797 0.4373890365770519 0.4035007816977656 0.4536371365661827 0.6200863442493014 0.2544963586922355 0.2425445840523835 0.4747734806783291 0.3839938045256135 0.500558569587863 0.5164536762743582 0.5151589437295362 0.4705906838300572 0.6338884762242787 0.3260692151264891 0.4609238449428119 1.030665000484852 0.4022587975625944 0.7600766870594842 0.7109084029299514 0.4395972852403966 0.5431190715234934 0.2765585531643719 0.3637678241601002 0.2917594086113663 0.2454988330860113 0.3105902304447498 0.1907508185981498 0.3045819751255494 0.6701098459289124 1:0.125 3:0.125 4:0.208333 6:0.375 7:0.583333 8:0.041667 9:0.125 10:0.333333 11:0.5 17:0.151042 
-0.09134746079282603 -0.06992088054208759 -0.5293644816647262 0.03496417562650618 0.06285043007925441 2.708457928547025 0 0 0.03133756447263532 0 0.1059783587266508 0 0.4485615197034358 0.8433384349805274 0 0 0 0.07487110797508692 0 0.00410287001126736 0 0.01720640395836745 0 0.1149183189906117 0 0 0 0 0.0279966458716255 0.1906196477710491 0.03869764770062323 0.7567736474731167 5:0.25 6:0.458333 7:0.291667 9:0.541667 10:0.041667 11:0.458333 13:0.208333 14:0.166667 15:0.125 17:0.158854 
-0.3017972505319349 -0 -0.1572028968779082 0.2677983136982431 0.08079835494567283 0.06368547826111814 0 0.05976181743185321 0.1227231748761251 0 0.0276189889358465 0 0 0.1873213293146936 0 0 0.2322251323952865 0.2988445471556853 0.6718182391068871 0.555937789195463 0.01610692814997322 0.06150905461258269 1.133414437779284 0.413176629827439 0.5156145298770549 0.3659249846105211 0.6563249419151935 0.1519372259389175 0 0.09790109692775072 0 0.3339580890498215 5:0.041667 6:0.208333 7:0.5 9:0.416667 10:0.583333 11:0.125 13:0.25 14:0.166667 17:0.143229 
-0 -0.2234399253077883 -0 0 0 0 0 0 0 0.02712244976711559 0 0 0 0 0 0 0 0 0 0 0 0 0 0 0 0 0 0 0 0 0.01467537184848611 0 3:0.333333 4:0.333333 6:0.166667 7:0.291667 8:0.125 10:0.458333 11:0.291667 12:0.333333 17:0.145833 
-0.1464951571226091 -0.1339838948591226 -0 0.4456143125491497 0.0440032103657238 0 0.2035939849677171 0.05766724011811218 0.0736653359525944 0.2041267145981643 0.2303599885783405 0.1690221359265638 0.0611096250756704 0.129564682173515 0 0.5077723776888428 0 0.02654278075799038 0 0.0399046462361796 0.2324663838619855 0.05055893198135708 0.04717197100983714 1.155227126776995 0 0.004110141278303094 0.04040090956070336 0 0 0 0.0839008469421843 0.01173395738655987 3:0.25 4:0.208333 6:0.166667 7:0.291667 8:0.125 9:0.041667 10:0.625 11:0.333333 12:0.416667 16:0.041667 17:0.15625 
-0.1769372162437088 -0 -0 0.02095662626710865 0.06580516871447935 0.7744186624682926 0.6039331400916462 0.1161798598461527 0.11151375689299 0.2088705532714552 0.07280212855491923 0.3179147371869735 0.06958704762382405 0 0.6045593418604743 0.05028261600428297 0.1660315740313761 0.1373321984528312 1.288942283355476 0.160361885275602 0.3120119973835627 0.1744690604654904 0.234633031363391 0.01949881243870201 0.09148221932333456 0.166920824173645 0.1816910279403763 0.1105456789472238 0.1187793923382591 0.01256266496057528 0.03622406327969942 0 5:0.333333 6:0.458333 7:0.291667 9:0.541667 10:0.041667 11:0.583333 13:0.291667 14:0.25 15:0.166667 17:0.184896 
-0.1785020810553838 -0.4471187579985784 -0.4262739545155892 0.3006386084579131 0.5072420158592608 0.5262716271708111 0.5570025324276505 0.3175431891355333 0.3196030586758041 0.4589494565221102 0.351961419574586 0.5044731126538718 0.4501189627378122 0.6014707173901052 0.6318951518325167 0.4411754041016061 0.2529060045144533 0.3788095547608697 0.8480040231044182 0.4127893532236717 0.493474660734959 0.5471870173824387 0.3205735019150099 0.62612386239486 0.2170195809824276 0 0.1982388908412307 0.2229457763694137 0.3073844517560065 0.243946254427992 0.03742651907822096 0.174071432803836 3:0.125 5:0.125 6:0.291667 7:0.625 9:0.666667 10:0.458333 11:0.25 16:0.083333 17:0.164062 
-0 -0 -0 0 0 0 0 0.0551530013167013 0.061417160919539 0 0 0 0 0 0 0 0 0.02436974368739827 0 0 0 0 0 0 0 0 0 0 0 0.05254721577879382 0 0 3:0.125 4:0.291667 6:0.375 7:0.583333 8:0.041667 9:0.125 10:0.333333 11:0.541667 17:0.151042 
-0 -0.6132374358922471 -0.3897033245482783 0.2981947736889578 0.4512401861462014 0.5154855261096887 0.6996443479270699 0.3438270631742356 0.3633646185680592 0.6252869318257618 0.2478312323866761 0.7171002775461179 0.5194551655089268 0.5062332348535172 0.1942300401225384 0.7032969001370933 0.06835384506756691 0.2929069994130206 0.03251770174281436 0.3484023396415642 0.5515359033536965 0.09605933884105551 0.2755649465675217 0.1851766869953661 0.1607446322921388 0.1207465858786626 0 0 0.1547441270666668 0.2566058391518157 0.9314039865231629 0.1890952892577197 3:0.166667 4:0.25 6:0.458333 7:0.75 8:0.166667 9:0.125 10:0.333333 11:0.5 17:0.171875 
-0.3839263660482039 -0.4093302705608864 -0 0.0239691332558512 0.09308318877953066 0.9215363684504707 0.4198256434579137 0.0995908911153779 0.1577674981289937 0.34209418066106 0.4088604099737165 0.5144062273409101 0.439827274842835 0.07948129942926589 0.5118333981655827 0.3162395061397019 0.1745403540443823 0.2868560019530597 0.8221089281015649 0.05291235239986061 0.5447998761637353 0.4456770592742267 0.2499540400631231 0.3480024746471677 0.178134695777575 0.1876253011793351 0.2463931990713856 0 0.001761635131981183 0.1478035670040955 0.2254364583390537 0.1983381261923229 2:0.166667 3:0.25 4:0.166667 6:0.416667 7:0.041667 8:0.375 9:0.041667 10:0.583333 11:0.458333 12:0.291667 17:0.174479 
-0.5272483943716104 -0.7066427012845565 -0.4866590730926595 0.487663913195872 0.4975576161715644 0.2503371712603417 0.6973880433392161 0.3635090106319597 0.3739853837639855 0.5446572804827802 0.4305423163866267 0.65886830227425 0.7137576433063573 0.5509854654584478 0.6151460361525097 0.8092325580914083 0.3944897770010637 0.4919573885705752 0.5690902852774202 0.4738423024492914 0.6090639579931607 0.6354213151421686 0.5072915078136477 0.564710481892375 0.3368610154412567 0.3543509823951383 0.3660012334125327 0.317900212637054 0.3826024280618908 0.2781374569783412 0.4257297367629771 0.500486391234425 5:0.416667 6:0.583333 7:0.541667 9:0.541667 10:0.041667 11:0.5 13:0.208333 14:0.166667 15:0.125 17:0.195312 
-0 -0 -0.154564998171147 0.0330103837948893 0.09189127645211578 0.0969281530849213 0 0.06991048596850011 0.06799639364849415 0 0.08975169308270717 0.09606165786381828 0 0 0.2384589240064085 0 0.1255718422175819 0.1496087027799395 0.1395934014903022 0.239166304576385 0.04456931079927196 0.08335977948231089 0.0909437164221983 0.3983556610604107 0.2392740895626244 0.2535914781578659 0.06007385589186484 0.08439824997049108 0 0.0858530279854042 0 0.317017808511232 1:0.125 3:0.125 4:0.041667 5:0.125 6:0.291667 7:0.625 9:0.458333 10:0.458333 11:0.208333 12:0.041667 17:0.15625 
-0.06085409800788272 -0 -0 0 0 0.3325982756046912 0.9566394116476168 0 0 0 0 0.2817545369313643 1.544592770166166 0 0.2545695702765939 0 0 0.005972753993813909 0.7853467154102678 0.01318881517772204 0 0 0.09143079576055814 0 0 0 0.0660027283439293 0 0.03372688698501539 0 0 0 2:0.166667 3:0.083333 5:0.041667 6:0.458333 7:0.208333 8:0.416667 9:0.458333 10:0.083333 11:0.5 12:0.166667 16:0.166667 17:0.171875 
-0.6978216838885759 -0.8112616190511179 -0.7546595048718524 0.7735662608415408 0.7483731268796333 0.985384268187966 0.9118778988445725 0.573856975644423 0.5641764721560517 0.7854388399340424 0.6334579856564321 0.9715921276358656 1.472118581738744 0.8412518346223428 0.8629795456800587 1.02878831477487 0.568280211409565 0.7197425163447684 0.9365119498922184 0.6736046983505233 0.8679190223108891 0.8485771682492838 0.7170112229554786 0.8594905408303828 0.516555889674144 0.4950236528072213 0.5196904897917971 0.5135779270489356 0.5488450816997089 0.4107260805228916 0.5224938980848726 0.6778759592566025 1:0.25 2:0.208333 3:0.083333 5:0.416667 6:0.5 7:0.166667 8:0.416667 9:0.625 10:0.083333 11:0.375 12:0.125 16:0.083333 17:0.208333 
-0 -0 -0.3140730563960141 0 0 0.8905399453872611 0 0 0 0 0 0 0 0 0 0 0 0 0 0 0 0 0 0 0 0 0 0 0 0 0 0 1:0.125 2:0.166667 3:0.25 4:0.166667 6:0.416667 7:0.041667 8:0.333333 9:0.041667 10:0.5 11:0.333333 12:0.25 17:0.164062 
-0.3140356302631078 -0.5711702145013928 -0.3611401994982582 0.4612834979002847 0.3703840226329492 0.3966205547808583 0.4855262007758696 0.2802429192326023 0.281017626829501 0.277009926075363 0.331648840518413 0.2159905312523106 0.4395533997708331 0.3419133673896015 0.3380752493007415 0.5049272491215306 0.2382493999559225 0.3045623561559826 0.1414754145225847 0.3381587483314072 0.3043606074412276 0.5468726565031532 0.2491257734626937 0.5469043477570518 0.2860244371429918 0.152549900920553 0.147718267673537 0.2294971236946342 0.2559764674492616 0.1762938712027275 0.3169859673525385 0.3115626212133208 1:0.083333 2:0.041667 5:0.25 6:0.458333 7:0.291667 9:0.541667 10:0.041667 11:0.458333 13:0.208333 14:0.166667 15:0.125 17:0.166667 
-0 -0 -0 0 0 0 0 0 0 0 0 0 0 0 0 0 0 0 0 0 0 0 0 0 0 0 0 0 0 0 0 0.3659424847597823 3:0.125 5:0.166667 6:0.333333 7:0.625 9:0.458333 10:0.458333 11:0.25 16:0.041667 17:0.153646 
-0 -0 -0 0 0 0.05849734278963499 0 0 0 0 0 0 0 0 0 0 0 0 0 0 0 0 0 0 0 0 0 0 0 0 0 0 4:0.25 6:0.208333 7:0.333333 8:0.458333 10:0.375 11:0.458333 12:0.291667 17:0.148438 
-0 -0 -0 0 0.1611531447625204 0.3315557306130243 0 0.1774620044259212 0.2026218624893537 0 0.04711078363309111 0 0 0 0.4988391144719668 0 0 0.3120186372512387 1.558217009406587 0 0 0 0.2532605802730869 0 0 0.06191513854343803 0.2716802847825104 0 0 0.04654111530573551 0 0 2:0.166667 3:0.083333 5:0.041667 6:0.458333 7:0.166667 8:0.458333 9:0.458333 10:0.083333 11:0.375 12:0.166667 17:0.153646 
-0.2297961874037396 -0.002739604698402209 -0.3348471112551565 0.3268191989970812 0.4534380120437486 0.4617137280558426 0.3899048633787236 0.3541700539971327 0.3667290528610215 0.4526971509455597 0.439421244598887 0.6386205657229669 0 0.2157639018864455 0.3682346597320966 0.1818157179328976 0.3161286584118881 0.4604149933874992 0 0.2669613507467893 0.3577397891530554 0.2530247119957268 0.4329975771102211 0.2181790441968479 0.06697281595984735 0.2451878957024374 0.2577638279642759 0.2393815222433226 0.2805262916145789 0.2460247245264285 0 0.1302137779593665 3:0.291667 5:0.166667 6:0.375 7:0.708333 9:0.458333 10:0.458333 11:0.25 12:0.083333 17:0.174479 
-0.410347985795612 -0 -0 0 0 0 0 0 0 0 0 0 0 0 0 0 0 0 0.3901212250030689 0 0 0 0 0 0 0 0 0 0 0 0 0 3:0.125 5:0.125 6:0.291667 7:0.625 9:0.458333 10:0.458333 11:0.25 12:0.083333 17:0.151042 
-0 -0 -0.323842722176461 0 0.141095528545443 0.1388753459276599 0 0.107711706927732 0.1384311611788999 0 0 0 0 0 0 0 0 0.1688990617807643 0 0 0 0 0 0 0 0 0 0 0 0.1336677352403444 0 0 4:0.291667 6:0.208333 7:0.333333 8:0.458333 10:0.333333 11:0.416667 12:0.25 17:0.143229 
-0 -0 -0 0 0 0 0 0 0 0 0 0 0 0.3507363619364722 0 0 0 0 0 0 0 0 0 0 0 0 0 0 0 0 0 0.0211008387825544 5:0.25 6:0.458333 7:0.291667 9:0.583333 10:0.041667 11:0.458333 13:0.208333 14:0.166667 15:0.125 17:0.161458 
-0.8867645504277005 -0.1817517666185555 -0.9217038770256865 2.024014448817923 0.8145612302416375 0.1497857660660605 0.2877999973992173 0.5022618127628987 0.3998466976257889 0.2952011270987027 1.444447126342495 0.77521082959334 0.5515753679541033 0.4353033665632093 0.3723297367619542 0.1569608035550742 0.9878870325434499 0.8130482146149181 0 0.4860069969334201 0.1801889353750249 0.6980863626578548 0.4905808027971726 1.509781037596617 0.8512606356160827 0.6213576651690749 0.4577601387341076 0.5747696879085453 0.189950139634894 0.7190999173655385 0.171216828230552 0.6177270163586801 3:0.25 4:0.208333 6:0.166667 7:0.291667 8:0.125 10:0.416667 11:0.25 12:0.291667 17:0.125 
-1.094871665451501 -1.060341028235212 -0 0.1062503747201544 0.3902392652565292 0 0.7166976950678097 0.2058695385615654 0.2025433133850404 0.6645455128631799 0.3687323230661132 1.147288186576654 1.104201577225631 0.7400957917104853 0 0.8275625426256485 0.7384236361396245 0.350008585190335 0 0.5762875724220718 1.063990975307052 0.9620862689904524 0.801432620820785 0.3549103068345555 0.3701111155115554 0.5036957741463491 0.4954943953450407 0.3581684614842232 0.3654705970958582 0.1764295487543591 0.6889021583477032 0.9405658712526066 4:0.25 6:0.208333 7:0.375 8:0.458333 10:0.333333 11:0.416667 12:0.25 17:0.143229 
-0.4137129156919077 -0.3333689531852804 -0.4218408240144753 0 0.3015633422721019 0.5138136515310283 0.4557450246947293 0.2428624668694921 0.2803859673742031 0.4404277398836285 0.256048354977942 0.5638551615686216 0.5242376451163288 0.4349340194376748 0.6792677611802815 0.3489432133489085 0.2402599429076623 0.3204161075787828 0.4191727551486865 0.3430229111012545 0.5074137322190757 0.5633405525235429 0.399737252203157 0.2752638943053843 0.1754307995324748 0.2373978578433487 0.2699600950445176 0.1702673579265139 0.2484226554250416 0.1449809826215604 0.2818413363409256 0.2991610670856999 3:0.25 4:0.208333 6:0.166667 7:0.291667 8:0.125 10:0.458333 11:0.333333 12:0.458333 14:0.125 15:0.166667 16:0.166667 17:0.171875 
-0 -0.03614398527050609 -0.1097825839314182 0.1153343965415163 0.2411352155274029 0.04592022634929285 0 0.09006747009388234 0.09249046005314057 0.2636026132345444 0.02334324099088203 0.2120390425597029 0 0.01258683772296617 0 0.2190902082356041 0 0.3537963731615996 0 0.1572382675222511 0.1537768816789412 0 0.08029037932527221 0.01625365968853268 0 0 0 0 0 0.05899101088636568 0 0 3:0.125 4:0.291667 6:0.375 7:0.583333 8:0.041667 9:0.125 10:0.333333 11:0.5 12:0.041667 16:0.083333 17:0.15625 
-0.7212357414173405 -1.264385681069295 -0.2011022784977543 0.4432485813047695 0 0.1663099896709729 0.3727378956152505 0 0 0.2353350968019244 0 0.0824304570414827 1.303000585130262 0.61410757401764 0.1113954788231005 1.174885239662385 0.1725751520929229 0.001811699786860941 0.7142002120372769 0.1489262128582256 0.453334409042116 0.6498853599077935 0 0.4239666261593316 0.2966957135090313 0.05264290708466783 0.3176643216818794 0.08965163128972806 0.1428733562314479 0 1.260276192969753 0.3762225048920844 3:0.125 5:0.125 6:0.416667 7:0.625 9:0.458333 10:0.458333 11:0.25 12:0.083333 16:0.041667 17:0.161458 
-0.4840493264920104 -0.558764723114586 -0.5527191624984917 0.5342926972992216 0.3000537352937184 0.2278133065979625 0.6990167579482852 0.1947932988366083 0.1749534345200325 0.493710694946191 0.4180671919003306 0.695748681421656 0.6384971607496996 0.6374152503611522 0.03295639917233641 0.5935085694497536 0.4169212152974868 0.1391732879527084 0 0.4941130931218179 0.6126361857610845 0.6208273907410353 0.1909090298829454 0.5577768680805101 0.3696157544500292 0.2510885056787794 0.03347305554044398 0.310674888775631 0.3699213958322347 0.2470541543741427 0.3816960221771665 0.4835678451297237 2:0.166667 3:0.083333 5:0.041667 6:0.458333 7:0.208333 8:0.416667 9:0.458333 10:0.083333 11:0.375 12:0.166667 17:0.153646 
-0 -0 -0 0 0 0 0 0 0 0 0 0 0 0 0.1073529648145686 0 0 0 0 0 0 0 0 0 0 0 0 0 0 0 0 0 5:0.25 6:0.458333 7:0.291667 9:0.541667 10:0.041667 11:0.458333 13:0.25 14:0.208333 15:0.125 17:0.164062 
-0 -0.3108044724043814 -1.020627921450694 1.393903739343904 0.413508581960887 1.236350522738979 0 0.3321939018108264 0.2065628448012986 0.2450459904099375 0.2153065059835914 0 0.01771474168287313 0.6453902817836377 0.8952855160267255 0.283269528668742 0.2085701270641817 0.1039365655327154 0.3358307390223635 0.4581007879462235 0.02293199135212831 0.02235788005531975 0.2729910283249359 0 0.1361487181859959 0.165114307439313 0.0623056196831937 0.4265227133715544 0.5732482151426361 0.1041685468146061 0.1064301598184018 0.2439510911023605 2:0.166667 3:0.25 4:0.166667 6:0.416667 7:0.041667 8:0.333333 9:0.041667 10:0.5 11:0.333333 12:0.208333 17:0.153646 
-0 -0 -0.0544896436435775 0 0.0826256890086645 2.286117154503841 0.4749812137144092 0 0 0 0 0 0 0 0.1121070503195063 0 0 0 0 0 0 0 0 0.05091816515713293 0 0 0 0 0 0 0 0 2:0.166667 3:0.25 4:0.208333 6:0.416667 7:0.041667 8:0.333333 9:0.041667 10:0.5 11:0.333333 12:0.208333 17:0.15625 
-0 -0 -0 0 0 0 0 0 0 0 0 0 0 0 0 0 0.01756325155115874 0 0 0 0 0 0 0 0.09761437075134421 0.4226026246650185 0.04795146124525452 0 0 0 0 0 3:0.125 5:0.125 6:0.291667 7:0.625 9:0.458333 10:0.458333 11:0.208333 16:0.083333 17:0.148438 
-0.5269082264625763 -0.2785064276823388 -0.1886202002988096 0.7253642492787974 0 0 0.2409077642687517 0 0 0.6207821331197511 0.3569078148926894 0 0.9415260462644632 0.3452324546788434 0.1076103810115535 0 1.810968196812249 0.1425322249195193 1.436270221710513 0.1958700162986464 0 1.377740204103861 0.6721117913076647 0.8135928483328591 0.3641212872979279 0.8138762171443045 1.96902915069286 0.714794868552708 0.6338666492426658 0 0.4516934184334596 0.8023064196546263 3:0.125 4:0.208333 6:0.375 7:0.583333 8:0.041667 9:0.125 10:0.333333 11:0.5 17:0.143229 
-0 -0.7270801433196751 -0 0.901536045960508 0.09701066378317237 0 0 0 0 0 0 0 0 0.4565984178034538 0 0.4710968955142932 0 0 0.3613633426609573 0 0 0 0 0.5802825847835652 0.143284782866246 0.005739262559643396 0 0 0 0 0 0 4:0.25 6:0.208333 7:0.333333 8:0.458333 9:0.041667 10:0.416667 11:0.416667 12:0.25 17:0.148438 
-0 -0 -0 0 0 0 0 0 0 0 0 0 0 0 0 0 0 0 0 0 0 0 0 0 0.04157401017970011 0.07789590403946337 0 0 0 0 0 0 3:0.125 5:0.125 6:0.291667 7:0.625 9:0.458333 10:0.458333 11:0.208333 17:0.143229 
-0 -0 -0.4999995151312079 5.788991931938181 0 0.7194234963606737 0 0 0 0.1863020798109866 0.6680228417441135 0 0 0 0 0 0.07638588632624811 0 0 0 0.2392685987054197 0 0 0 0 0 0 0.1425308259699466 0.3803212167323698 0 0 0 3:0.25 4:0.208333 6:0.291667 7:0.291667 8:0.125 10:0.458333 11:0.375 12:0.333333 17:0.145833 
-0.6277495950206069 -1.220102783990548 -0.767785842478126 0.9465179606332361 0.7308690468060833 0.8483584898894188 0.8053517313476205 0.4391503137506151 0.4586969915655388 0.8822603121318031 0.6349499942383844 0.7485198164375584 0.8645182466425834 0.8462224364568706 1.038436356686558 1.656002781114736 0.6189589755522799 0.6277914987825515 0.9499252203716244 1.663633266989775 0.8604813078549296 0.7430305554065587 3.464547275996354 0.7534332345280963 0.449903557273764 0.3800178683735758 0.4796288088156404 0.4247881463940271 0.7664555127690066 0.3496579585224753 0.7656501048298945 0.855241956431841 5:0.416667 6:0.208333 7:0.5 9:0.5 10:0.583333 11:0.125 13:0.25 14:0.166667 17:0.171875 
-0 -0 -0 0 0 0.4594617404363797 0 0 0 0 0 0 0 0 0.672633481609252 0 0 0 0.3836321872579865 0.2018895374097235 0 0 0 0 0 0 0 0 0.2202874801947988 0 0 0 4:0.25 6:0.208333 7:0.333333 8:0.458333 10:0.333333 11:0.416667 12:0.25 17:0.140625 
-0 -0 -0 0 0 0 0 0 0 0 0 0 0 0 0 0 0 0 0.09370326787463346 0 0 0 0 0 0 0 0 0 0 0 0 0 5:0.041667 6:0.208333 7:0.5 9:0.458333 10:0.583333 11:0.125 13:0.25 14:0.166667 17:0.145833 
-0.4284658510579962 -0.5414476109560509 -0.07993191430421691 0.2791489450024111 0.4032017477520529 0.1203698955182316 0.757629581059318 0.2831702923473962 0.346070459498415 0.4429085351336572 0.2897458842071676 0.5764425000979382 0.5596366638460598 0.5239165049980109 0.9763182928534523 0.7131716779526633 0.3332975807165814 0.4748532193553309 1.067710188034469 0.4591654880798991 0.6256262809821926 0.5413083437739983 0.4203153406598468 0.5212659328582124 0.2992064025342712 0.2874036602679905 0.3184417983239725 0.2074970769443743 0.2554925513544566 0.2409023278804587 0.3364186543969169 0.415069147523982 1:0.125 2:0.166667 3:0.25 4:0.166667 5:0.083333 6:0.416667 7:0.041667 8:0.375 9:0.041667 10:0.5 11:0.333333 12:0.208333 17:0.169271 
-0.4481728099323096 -0.5345852185591856 -0.4624120537991123 0.4196830115818531 0.4327157463450179 0.3847266058224827 0.03051450606322802 0.3189863422013114 0.335172981926399 0.5650070198141445 0.4480599466355775 0.312715118120426 0 0.4782352927958958 0.3891948039148173 0.5596575010968065 0.3695125947721654 0.4194523417597939 1.231447717507108 0.3987381397155753 0.7108563268395701 0.7111767373047871 0.3771789768058506 0.5870429925687261 0.2928612623732344 0.3513329640331073 0.272666672322723 0.260703928619388 0.2975330588349546 0.2417481602746072 0.3109275978775021 0.4044559706103556 2:0.166667 3:0.083333 5:0.041667 6:0.458333 7:0.166667 8:0.416667 9:0.5 10:0.125 11:0.458333 12:0.125 16:0.208333 17:0.171875 
-0.4012354517990779 -0.7814037625385215 -0.4891511348179079 0 0.3952165821508608 0.6062895425477663 0.5566079746021199 0.3100494297327135 0.3321342788455173 0.4711292875917288 0.0965259083621937 0.6056163538548105 0.6013365671696347 0.4578308047921787 0.533160278829188 0.4838090189489982 0.2725715518054521 0.4022800674644278 0.7275945596755357 0.4141770705121477 0.4719279604504416 0.6149932129358917 0.4497197997009565 0.13256030819954 0.2290733791697173 0.2788097779802928 0.307876937296059 0.1936206825813643 0.249557422148671 0.1874367669314584 0.3218463410970787 0.3553866024240334 3:0.375 4:0.25 6:0.166667 7:0.291667 8:0.208333 10:0.458333 11:0.458333 12:0.583333 17:0.174479 
-0.5046569104715948 -0 -0.4936002574478522 0.485127770754346 0.5256827532609473 1.010424156190229 0.678085931925993 0.4077751498787192 0.4419628497340556 0.4938987294863293 0.488184642395065 0.7217447868931504 0.7506386961949864 0.5236648088617244 1.039975220935496 0.2314443944731432 0.3789229885337757 0.411084737527488 0 0.01240151911049998 0.7108515893047137 1.054099351161768 0 0.5124247332462055 0.08930462932668058 0.1998964356962805 0.03967597465413975 0.2588885320479395 0.4554868354805995 0.2736278053805685 0.2211423128517663 0.2408624044559846 5:0.041667 6:0.208333 7:0.5 9:0.416667 10:0.583333 11:0.125 13:0.25 14:0.25 17:0.148438 
-0 -1.225164750767014 -0 0 0 0 0.4293680805369745 0 0 0 0 0 0 0 0 1.55003668717659 0 0 0.943591056409713 0 0 0 0 0 0 0 0 0 0 0 0 0 3:0.25 4:0.208333 6:0.25 7:0.291667 8:0.208333 10:0.416667 11:0.291667 12:0.375 17:0.143229 
-0 -0.9677915208363013 -0 0 0 0 0 0 0 0.1925148258222409 0 0 0 0 0.408574747988506 0.7081448849602739 0 0 0.2072114259869533 0 0 0 0 0 0 0 0 0 0 0 0.2250221020531142 0 5:0.041667 6:0.208333 7:0.5 9:0.458333 10:0.583333 11:0.125 13:0.25 14:0.25 17:0.151042 
-0 -0 -0 0 0 0 1.206820029138773 0 0 0 0 0 0 0 0 0 0 0 1.372295665425222 0 0 0 0 0 0 0 0 0 0 0 0 0 5:0.25 6:0.458333 7:0.291667 9:0.541667 10:0.041667 11:0.5 13:0.208333 14:0.166667 15:0.125 17:0.161458 
-0.2097139146632495 -0 -0 0 0 0 0 0 0 0 0 0 0 0 0 0 0 0 0 0 0 0.566968567917054 0 0 0 0 0 0 0 0 0 0 3:0.125 4:0.208333 6:0.375 7:0.583333 8:0.041667 9:0.166667 10:0.333333 11:0.5 17:0.145833 
-0 -0 -0 -0 0 0 0 0 0 0 0.308962381011454 0 0 0 0 0 0 0 0 0 0 0 0 0 0 0 0 0 0 0 0 0 2:0.25 3:0.208333 4:0.166667 6:0.583333 7:0.208333 9:0.125 10:0.541667 11:0.375 17:0.153646 
-0 -2.162541078705734 -0 -0 0.3376882869076425 0 0.1828734067695085 0 0 2.529883348852703 0 0 0 0.3820394670150973 0 0 0 0 0 0 0 0 0 0 0 0 0 0.3866515682752031 0 0 0.604371121352236 0.02919440887414727 2:0.25 3:0.208333 4:0.166667 6:0.541667 7:0.25 9:0.083333 10:0.458333 11:0.375 17:0.145833 
-0 -0 -1.970550016257393 -0.2428124389542479 0 1.917396414200077 0 0.2926683578644974 0.7427257601643252 0.2340983051142852 1.216744025953618 0.2235945459649385 0 0 0.1818004035239174 0 0 0.8009135701273402 0 0 0.01063595206549576 0 0.4502422963126929 3.70646798177568 0.2165974758573201 0.04949658541949355 0 0.01069025461333414 0.7045623327488011 0 0.1120604457553896 0 5:0.291667 6:0.375 7:0.208333 9:0.583333 10:0.25 13:0.291667 14:0.208333 15:0.041667 17:0.140625 
-0 -0 -0.7178128972477704 -6.302015165933423 0 0.4466686550224216 0 0 0 0 0 0 0 0 0 0 0 0 0 0 0 0 0 0 0 0 0 0 0 0 0 0 2:0.041667 3:0.25 4:0.166667 6:0.291667 7:0.333333 8:0.166667 10:0.5 11:0.291667 12:0.25 17:0.143229 
-0.8414822037330211 -1.155026592493308 -1.376332929138669 -1.165822286379708 0.7750705754295022 1.022347616710946 1.112397878801365 0.6366823389530442 0.6020148455247424 1.067067410911155 0.8440152271710837 1.105320397717513 1.044954593347895 1.153912015569149 1.067182377758611 1.652157864766217 0.8057325467386539 0.919611933894004 1.075724979765736 0.8241909716713246 1.055347006493293 1.063256147485127 0.9204069609416762 1.053065905715237 0.5400917426226183 0.5901726075087071 0.6731695873652115 0.5622156920647086 0.7238047424301842 0.4209256889258499 0.5596506626990881 0.9644352644766925 1:0.208333 2:0.166667 3:0.166667 5:0.625 6:0.791667 7:0.333333 8:0.041667 9:0.666667 10:0.25 11:0.291667 12:0.041667 16:0.375 17:0.247396 
-0.5708330493281782 -2.241193098587216 -0 -0 2.115479846637009 0 1.118241658631467 0 0 0.2171250575712885 0 0 0.7291895238578783 0.4224934267134653 0 0 0 0 0 0 0 0 0 0.0352029560275577 0.6039325798709823 0.06713947672313611 0 0 0 0 0.8741607757406678 0.6345017586594757 1:0.041667 2:0.125 3:0.125 5:0.125 6:0.666667 7:0.25 9:0.541667 10:0.125 11:0.125 17:0.132812 
-0 -0.001553717949370981 -0.003054179334507915 -0 0 0 0 0 0 0 0 0 0 0 0 0 0 0 0 0 0 0 0 0 0 0 0 0 0 0 0 0 5:0.041667 6:0.458333 7:0.375 9:0.125 10:0.375 11:0.041667 17:0.088542 
-0.7378931270957766 -0 -0 -0 0.03612427578294154 0 0 0.7359340585630816 0.1745817390136071 0 3.018634246694407 1.305011468210255 0.3647422096587368 0 0 0 1.649286234004256 0.5342466932486369 0 0.2848822670627951 0.2235595721708225 0.231286279821792 0.1874088158445478 1.050453950703395 1.016971364883918 0.6149243206146182 0.6693846847965534 1.503347508895293 1.06708187038314 0.7458355282553787 0.06542833924712181 0.8769227587003003 2:0.041667 3:0.208333 4:0.125 6:0.291667 7:0.333333 8:0.125 10:0.458333 11:0.291667 12:0.208333 17:0.130208 
-0 -0 -0 -0 0.3344315821105149 0 0 0 1.721602757853711 0 0.9994856977625368 0 0 0 0 0 0 3.265643334156166 0 0 0 0 0 0 0 0 0 0 0 2.569606217678689 0 0 5:0.208333 6:0.458333 7:0.083333 9:0.5 10:0.125 17:0.085938 
-0 -0 -0.006113687280858226 -0 0 0 0 0 0 0 0 0 0 0 0 0 0 0 0 0 0 0 0 0 0 0 0 0 0 0 0 0 6:0.333333 7:0.375 10:0.458333 11:0.166667 17:0.083333 
-0 -0 -0 -0 0.5955954292339211 0 0 0.3161072540839931 0 0 0 0 0 0 0 0.09399526574143226 0 0 0 0 0 0 0 0 0 0 0 0 0 0 0 0 5:0.083333 6:0.166667 9:0.666667 10:0.333333 13:0.25 14:0.041667 17:0.096354 
-0 -0 -7.845666375941914 -0 0.3637560113537229 0 0 2.060935939983562 1.951883071189064 0 0.7012815006079186 0 0 0 0 3.913836853720696 1.192110383600311 0.7792892059252837 0.7293902488838124 6.136697019455772 0.2569041972463573 0.5869035525076145 7.887230078089829 0 0 0 0 0.2387306741668655 0.5472742240701329 0 0 0 5:0.125 6:0.125 9:0.541667 10:0.291667 11:0.041667 13:0.25 14:0.041667 17:0.088542 
-0.2527902522479221 -1.383388242137657 -0.7216431864223459 -0.7072713405710811 2.331557537013522 0.5290176175979596 1.555416834007372 0.5944945901993774 0.9062539835316821 0.91993815940793 0.7862678377907562 0.5948540850455514 0.3907306588420864 0.98895236237942 0.5422508294821738 1.080829355748263 0.5900398338941661 0.5055494895130657 0.5683805888999732 0.4265947041615913 0.5523144501510856 0.5872115284488713 0.4998719783546939 0.4608124908303756 0.835530673497297 0.3747634207493468 0.3124033744909041 0.4440566700765881 0.4404179750916599 0.348278424400142 0.5315637897577435 0.7241662454476192 2:0.25 3:0.125 5:0.166667 6:0.666667 7:0.25 8:0.041667 9:0.541667 10:0.083333 11:0.125 12:0.083333 17:0.145833 
-0 -0.522771042033088 -0 -0 0 0 0 0 0 0 0 0 0 0 0 0 0 0 0 0 0 0 0 0 0 0 0 0 0 0 0 0 6:0.416667 7:0.416667 10:0.5 11:0.208333 17:0.096354 
-0.3396903706685163 -0 -0 -0 0 0 0 0 0 0 0 0 0 0 0 0 0.8167635737599986 0 0 0 0 0.5520202557635631 0 1.400593711820551 0.2664189505459139 0.4648770265353389 0 0.5612449125983875 0 0 0 0 2:0.25 3:0.208333 4:0.166667 6:0.541667 7:0.208333 9:0.125 10:0.458333 11:0.375 17:0.145833 
-0 -0 -0 -0 8 0 0 0 0 0 0 0 0 0 0 0 0 0 0 0 0 0 0.08100051696902319 0 0 0 0 0 0 2.253960664412595 0 0 5:0.291667 6:0.375 7:0.208333 9:0.583333 10:0.25 13:0.208333 14:0.083333 17:0.125 
