svm_type c_svc
kernel_type rbf
gamma 8
nr_class 33
total_sv 1262
rho 0.126618 -0.0342808 0.181112 0.250109 0.0253756 -5.18704 0.133566 -0.21402 -0.242939 0.131558 -0.123852 0.240356 0.455887 0.2702 -4.73941 0.305372 -0.371328 0.0621361 0.358732 0.122547 0.132889 0.438707 -0.00615119 0.0288583 -0.242816 -0.292378 0.311001 -0.591616 -0.254923 -0.4292 -0.279312 -0.0678828 -0.0492073 0.150503 -0.0989093 -0.242639 0.227429 0.271058 -0.339018 -0.331142 0.10171 -0.194698 0.213723 0.21793 -0.083195 -0.00366417 -0.00622781 -0.0835323 -0.0317856 0.17228 -0.0302503 0.0972358 0.00586862 -0.117001 0.253152 -0.277041 -0.418502 -0.403136 -0.517863 -0.533231 -0.500302 -0.948731 -0.446754 0.118822 -0.174915 -0.397195 -0.0819016 0.207789 -0.756031 -0.983072 0.169218 -0.450994 0.188176 0.286113 0.0675303 0.0627253 0.307615 0.516857 -0.268397 0.214324 -0.598711 0.0937819 0.178519 -0.092089 -0.02695 -0.154873 -0.242975 -0.222838 -0.418838 -0.893777 -0.846444 -0.467349 -0.0654018 -0.167018 -0.182443 0.0931273 -0.0407258 -0.330574 -0.377655 -0.114991 -0.286542 0.0332316 0.0997216 -0.0609819 0.000894991 -0.0229944 -0.263009 -0.125856 -0.0479709 -0.160984 -0.0267014 -0.0434648 -0.205671 -0.0725923 -0.389061 -0.432511 -0.459781 -0.449414 -0.430166 -0.544857 -0.487525 -0.227896 -0.255731 0.0477455 0.0931479 -0.629963 -0.610519 0.0299096 -0.316719 0.125386 0.109573 0.0838847 -0.00613504 0.444181 -0.116609 -0.04933 0.164037 -0.273839 0.005144 0.24003 -0.138357 -0.0507732 -0.42644 -0.450844 -0.466746 -0.523304 -0.569665 -0.634495 -0.92019 -0.370438 0.32024 0.209933 0.0403673 -0.122196 0.148798 -0.397553 0.198826 0.262746 0.266304 0.159871 0.418559 -0.0960433 0.561298 0.217321 0.0272233 0.154273 0.0959816 -0.024741 0.1484 -0.407762 -0.414399 -0.330891 -0.467986 -0.458076 -0.509404 -0.40843 -0.121886 -0.110185 -0.516042 -0.536012 -0.19564 -0.37332 -0.00804504 -0.0254627 -0.225022 -0.660189 -0.0792857 -0.423101 -0.180288 -0.0727038 -0.403912 -0.148921 -0.10083 -0.365062 -0.174944 -0.457908 -0.521874 -0.607596 -0.636951 -0.639025 -0.660181 -0.767195 -0.356937 -0.384907 -0.402971 -0.0999751 -0.266102 0.0997589 0.19417 -0.0674129 0.0261041 0.0050912 -0.270606 -0.131541 0.268045 -0.163887 -0.0392212 -0.107826 -0.238477 -0.0497344 -0.384364 -0.476183 -0.468672 -0.532787 -0.496037 -0.551534 -0.703784 -0.269324 22.2672 0.29459 -0.407696 0.359241 0.422562 0.332234 0.3096 0.627128 0.13882 0.890008 0.362545 0.214859 0.316963 0.350924 0.0529855 0.42725 -0.0728687 -0.2069 -0.23931 -0.297439 -0.0954168 -0.247429 -0.0610498 0.136128 0.322874 -4.20477 0.405262 0.452218 0.367886 0.356062 0.572041 0.51176 1.05934 0.399938 0.394521 0.363839 0.446485 0.247289 0.586225 0.119366 -0.00310808 -0.0600832 -0.270682 -0.0317072 -0.163293 -0.0295594 0.288887 -0.238629 0.150024 0.218289 -0.107946 0.0597741 0.133303 -0.143822 -0.0136109 0.16764 0.00557453 0.0456661 0.0678671 -0.0588853 0.0295828 -0.292034 -0.397799 -0.381831 -0.383084 -0.499994 -0.486427 -0.672336 -0.186071 0.302711 0.328864 0.208108 0.218148 0.54509 -0.129395 1.01642 0.306223 0.152326 0.264011 0.200448 0.0770847 0.253976 -0.235658 -0.30708 -0.298219 -0.382921 -0.33428 -0.454607 -0.222221 0.0732444 0.0602376 -0.230237 -0.125604 -0.0238951 -0.306875 -0.164144 -0.120967 -0.217556 -0.00745929 -0.0804225 -0.268742 -0.136859 -0.394653 -0.451002 -0.476292 -0.470581 -0.428994 -0.545332 -0.441504 -0.258459 -0.075443 -0.23347 -0.0542254 -0.372766 -0.199363 0.123578 -0.260486 -0.197132 -0.129493 -0.353457 -0.146267 -0.418073 -0.478486 -0.541599 -0.549748 -0.561718 -0.612132 -0.657341 -0.275287 0.0258436 0.966896 -0.225809 -0.0575125 0.441193 -0.197753 0.273952 -0.075522 -0.258999 -0.0150726 -0.354589 -0.443303 -0.460873 -0.452732 -0.535967 -0.569572 -0.713195 -0.115551 0.12537 -0.174497 -0.0449347 -0.043142 -0.00819635 -0.00131796 0.554176 -0.157527 0.198703 -0.336057 -0.373557 -0.0878197 -0.485105 -0.42424 -0.531086 -0.456638 -0.115005 0.0206662 -0.319637 0.0301839 -0.408746 -0.0578642 -0.105499 -0.309162 -0.331557 -0.43917 -0.507653 -0.537447 -0.665473 -0.788849 -0.758996 -1.07897 -0.31718 -6.28302e-05 0.229365 -0.103779 0.175348 0.137002 0.0496713 0.230345 -0.260785 -0.0303009 -0.650245 -1.14193 -0.361428 -0.442799 -0.33906 -0.183376 0.142516 -0.0389089 0.111652 0.168668 -0.36291 0.166831 -0.404999 -0.510399 -0.52296 -0.557296 -0.466265 -0.720714 -0.358895 -0.0852509 -0.0962606 -0.239321 -0.0851988 -0.462768 -0.145547 -0.384056 -0.435918 -0.460555 -0.499645 -0.518123 -0.571855 -0.498675 -0.271041 0.099389 -0.00631632 -0.234102 0.0834345 -0.307514 -0.399316 -0.429038 -0.498765 -0.5318 -0.591715 -0.384349 -0.103488 0.0366734 -0.193683 -0.0417224 -0.351079 -0.39903 -0.401427 -0.411143 -0.354785 -0.514209 -0.385963 -0.149363 -0.0833445 0.124139 -0.316289 -0.449147 -0.480233 -0.516616 -0.4309 -0.610247 -0.479162 -0.139433 0.103152 -0.245688 -0.370493 -0.451895 -0.401968 -0.43609 -0.484097 -0.273168 -0.154344 -0.502368 -0.433424 -0.686216 -0.76824 -0.575653 -0.994835 -0.550652 -0.209588 0.223605 -0.109788 -0.474175 -0.0903437 -0.569361 -0.116693 0.156862 -0.231599 -0.382489 0.0163861 -0.230644 0.0103692 -0.189868 -0.210723 0.0708816 -0.173894 0.0472594 0.373862 0.0553607 -0.0618035 -0.0511264 0.549163 -0.288167 -0.165744 0.334775 0.196417 0.510039 0.425883
label 10 11 12 13 14 15 16 17 18 19 20 21 22 23 25 26 27 28 29 30 31 32 33 34 35 2 3 4 5 6 7 8 9
probA -4.15679 -4.02206 -4.39253 -4.19996 -4.22878 -1.26588 -4.28402 -4.02495 -4.0038 -4.235 -3.78083 -4.26535 -4.0763 -4.18814 -1.45676 -4.1804 -3.69041 -4.25751 -3.10432 -4.17954 -4.20711 -3.54408 -4.10396 -3.17223 -3.94321 -3.94398 -2.5897 -3.23676 -4.06052 -3.701 -3.94973 -3.9516 -3.0917 -4.3912 -3.62812 -3.60891 -4.20546 -3.49308 -3.69366 -4.14676 -4.28529 -3.57925 -4.27503 -4.29498 -3.71168 -4.2851 -3.69765 -3.67836 -4.24377 -4.33647 -3.67322 -4.32061 -4.15257 -4.05918 -3.71966 -3.87669 -3.94706 -3.92886 -3.37704 -4.03027 -3.63248 -3.8609 -3.21511 -4.35474 -2.95287 -3.5775 -3.01947 -4.14033 -3.87465 -3.7435 -3.68699 -3.35405 -4.31316 -3.83206 -3.6023 -4.24164 -1.33681 -4.01097 -4.15815 -4.11419 -2.77792 -4.29746 -3.5553 -3.13094 -3.88037 -3.99718 -3.98089 -3.63375 -3.53774 -3.29585 -3.62944 -3.66057 -3.28537 -4.42042 -4.34952 -4.31591 -4.41415 -4.18596 -4.35094 -4.45681 -3.92748 -4.4679 -4.42243 -4.35417 -4.31285 -4.6332 -4.30759 -4.38255 -4.27584 -4.31868 -4.53342 -4.35711 -4.26868 -4.44256 -4.06048 -4.08015 -4.11953 -3.76802 -4.08151 -3.80911 -4.12213 -3.97552 -2.45068 -3.73699 -4.51099 -3.74351 -3.92883 -4.51987 -3.48273 -4.46743 -4.31526 -3.95538 -4.36434 -2.68337 -4.29498 -4.10719 -4.41093 -4.18618 -4.43346 -4.1551 -4.23146 -3.80005 -4.02605 -4.18792 -4.14946 -3.69456 -4.07737 -3.79356 -4.00826 -3.63627 -4.19353 -4.37516 -2.3808 -2.76947 -4.28342 -3.28222 -4.34673 -4.32376 -3.33752 -4.32231 -4.11027 -4.07008 -3.63507 -4.31519 -4.0987 -4.33316 -4.35431 -4.16265 -4.21198 -3.98286 -4.03292 -3.99469 -3.69002 -3.95398 -3.76007 -3.89928 -3.89717 -4.39829 -4.03979 -4.29374 -4.42912 -3.68446 -4.50858 -4.4975 -4.08121 -3.37089 -4.48494 -4.1919 -4.26668 -4.08729 -4.39849 -4.60512 -3.32847 -4.23906 -4.23482 -4.03448 -4.10217 -3.89923 -3.69413 -3.97828 -3.76471 -3.83182 -3.74418 -3.98277 -4.29876 -4.20135 -3.84677 -4.54566 -4.52204 -4.5104 -4.42397 -4.53311 -4.15613 -4.4665 -4.18792 -4.20324 -4.52701 -4.42601 -4.24813 -4.46816 -4.12403 -4.06663 -4.34347 -3.56768 -4.17879 -3.81279 -4.02225 -4.07213 -0.369261 -3.8155 -2.23102 -4.09789 -4.06852 -3.95936 -4.13555 -3.94653 -3.96129 -2.13508 -4.06479 -3.80154 -4.06358 -4.13752 -3.91382 -3.96632 -3.69402 -3.7746 -3.66501 -3.47957 -3.70343 -3.61368 -3.68696 -3.90926 -4.17236 -0.882495 -4.22359 -4.24246 -4.20541 -4.19664 -4.01503 -4.04595 -3.53163 -4.23401 -3.79956 -4.23085 -4.14792 -3.89261 -3.9431 -3.8949 -3.84316 -3.80336 -3.21646 -3.81376 -3.75208 -3.91773 -4.03396 -3.42631 -4.38845 -4.37785 -3.86002 -4.3213 -4.37201 -3.98285 -4.3066 -4.36237 -4.13181 -4.40142 -4.32954 -4.11912 -4.07543 -3.99558 -3.93782 -3.8895 -3.54794 -4.02487 -3.67326 -4.0077 -3.7256 -3.88545 -3.72674 -3.43808 -3.9038 -3.53936 -3.80518 -3.01747 -3.97319 -3.444 -3.82298 -3.69966 -3.739 -3.26259 -3.32346 -3.6322 -3.54077 -3.29595 -3.46852 -3.34913 -3.49493 -3.24752 -4.51099 -4.16893 -4.39734 -4.54304 -4.25865 -4.35235 -4.50793 -4.25821 -3.58735 -4.41091 -4.20399 -4.39985 -4.03933 -3.97919 -4.04262 -3.66381 -4.00164 -3.77057 -3.9384 -4.19773 -4.32878 -4.32632 -4.30642 -4.1402 -4.32439 -3.67356 -4.07194 -4.50794 -4.08684 -4.16018 -4.38008 -4.11115 -4.08715 -4.20232 -3.66648 -4.11282 -3.74006 -4.02099 -3.4399 -4.23613 -2.30952 -4.16003 -4.28612 -3.98463 -4.12215 -4.12152 -4.09015 -3.95179 -4.27692 -3.82979 -3.99052 -3.98998 -3.45988 -4.01665 -3.65145 -3.88029 -2.02208 -4.35492 -4.0576 -4.39611 -3.76497 -4.29257 -4.35949 -3.69529 -4.22608 -3.98717 -4.03085 -4.076 -3.32623 -3.46605 -4.08119 -3.77528 -3.88899 -3.61969 -3.8329 -4.19766 -4.48741 -4.19728 -4.58134 -3.9932 -4.22725 -3.77 -4.02998 -4.04273 -4.04974 -3.6253 -3.91807 -3.74189 -3.49105 -3.55409 -4.23608 -4.19571 -4.12663 -4.20723 -3.93185 -3.99233 -4.38794 -3.94069 -4.06761 -3.56099 -2.92222 -3.90624 -3.7459 -3.64203 -3.57616 -4.35251 -3.21161 -4.35524 -4.31597 -3.98344 -4.22107 -4.03171 -3.77513 -3.95079 -3.5882 -3.99593 -3.79075 -4.02241 -4.06551 -4.29374 -4.27754 -3.92261 -3.97945 -4.31529 -4.10515 -4.09642 -3.81577 -3.68538 -4.0858 -3.81974 -4.0976 -4.06645 -4.15531 -4.02092 -2.89181 -3.93355 -3.93648 -3.84701 -3.80323 -3.52925 -3.81551 -3.67947 -3.79394 -4.11353 -4.37892 -4.08963 -4.38447 -3.99782 -4.09847 -4.01288 -3.70529 -4.06569 -3.73471 -4.01578 -4.28638 -4.17341 -4.00929 -3.90416 -4.0573 -2.68785 -3.20455 -4.14304 -3.69395 -3.96994 -3.45618 -4.01408 -3.8275 -3.82876 -3.83894 -3.51304 -3.4537 -3.65319 -3.68542 -3.50852 -3.65952 -4.0312 -2.78746 -3.36622 -3.91225 -3.43485 -3.92598 -4.10727 -3.35867 -3.55526 -2.96223 -3.69643 -3.30602 -3.66654 -3.62704 -3.67076 -3.13856 -3.69808 -3.3823 -3.61315 -3.26528 -3.02078 -3.7769 -3.49208 -3.69932 -3.74583 -3.39868 -3.29648 -3.34409 -2.54664 -3.39848 -2.76501 -3.39321 -3.3679 -3.57539 -3.15792
probB 0.222525 0.497063 0.0598691 0.0800464 0.0386112 0.58014 0.488948 0.0418727 -0.0108313 -0.0688615 0.289843 -0.00392382 0.0358788 0.0898661 0.289989 0.00350703 -0.292661 0.162171 0.0819009 0.193403 -0.0656492 0.443585 0.0977198 0.225662 -0.0971198 -0.134087 0.154224 -0.267359 -0.050687 -0.406604 -0.297652 0.37513 0.147933 -0.0824007 0.2329 0.173464 -0.19949 -0.131368 -0.0823262 -0.132564 -0.31875 0.127221 -0.168802 -0.0742822 -0.122767 -0.181318 0.141401 -0.122666 -0.178608 0.185914 -0.225891 0.0199648 0.248108 -0.0934316 -0.399308 -0.277449 -0.193504 0.0928581 -0.267899 0.0204733 -0.62107 -0.43074 0.124348 -0.385535 -0.489119 0.0885242 -0.317399 -0.642283 0.2664 -0.0377918 -0.485006 0.0645832 -0.168019 -0.527303 -0.352354 -0.401784 0.247736 -0.838655 -0.0240261 -0.462586 -0.406122 -0.423139 -0.103326 -0.260487 0.0812999 -0.0555595 -0.32419 0.277747 -0.332498 -0.558888 -0.443951 -0.802808 -0.193072 0.309191 -0.126428 0.464679 -0.214032 -0.00491452 -0.0525952 0.00873608 0.139019 -0.0945085 0.0856937 -0.0299548 -0.0912588 -0.0481906 -0.0608224 0.07351 0.148226 -0.055109 -0.0613134 0.255964 -0.12683 -0.0329868 -0.159958 -0.250074 0.0369061 -0.101146 -0.25232 -0.543967 -0.277781 0.401358 -0.515113 -0.146853 -1.13329 -0.259703 -0.34785 -0.568862 -0.267205 -0.431663 -0.332925 -0.0213064 -0.180839 0.0181465 -0.444679 -0.129382 -0.121883 0.064751 -0.409806 0.253365 -0.204685 0.0973219 -0.154043 -0.190833 0.0428157 -0.168265 -0.269393 -0.631408 -0.622561 0.00762931 -0.297052 -0.0908673 -0.124034 0.0388149 -3.6993e-05 -0.0703809 0.0381236 0.0418179 0.492552 -0.00461674 -0.144493 -0.134042 -0.140131 -0.0554562 0.0954477 -0.0584497 0.205468 -0.0626635 0.025049 0.0445755 -0.202854 -0.133837 -0.0508944 -0.155907 -0.507019 -0.289663 0.225844 -0.480334 -0.0736026 -0.153887 -0.0514415 0.0260143 -0.0949272 -0.192473 0.205102 -0.177856 0.0560329 -0.187023 -0.153531 -0.139917 -0.00621363 0.0962446 0.538413 -0.117203 -0.0213066 -0.18139 -0.234154 0.599055 -0.0140354 -0.337039 -0.586352 -0.460761 0.27195 0.0737572 0.0577411 -0.356083 0.2508 0.0786147 0.0851834 0.333955 0.289109 0.236926 0.00380252 -0.268502 0.329284 -0.113566 -0.00398453 0.512361 -0.0479426 0.297319 0.0295048 -0.121495 0.565639 -0.117962 -0.0373019 -0.524258 -0.393607 0.589637 0.212457 -0.178171 -0.0547888 -0.0330861 -0.0367333 -0.110106 0.0100654 -0.109535 -0.183112 0.104105 -0.0289706 -0.378461 -0.0451285 -0.055702 -0.213397 -0.0135529 -0.0979093 -0.29653 -0.258115 0.116355 -0.181536 -0.331802 -0.261442 0.0761796 -0.102493 -0.275775 0.00900327 0.0742547 -0.060066 0.033588 0.225037 -0.0733548 0.0369437 0.0167067 0.0710423 -0.00699306 0.105759 -0.0186326 0.0196361 -0.185425 -0.381101 -0.184716 -0.127657 -0.225189 -0.473095 -0.300329 -0.0609131 -0.0167189 -0.00477268 0.0632144 0.172074 0.010646 0.122925 0.252823 0.238812 -0.0501788 -0.145507 0.133513 0.235224 0.123263 0.328713 0.0982373 -0.0901464 0.172573 -0.016898 0.188892 -0.506782 0.0278234 0.320946 -0.239423 -0.140974 -0.13461 -0.236209 -0.0260216 -0.358874 0.362272 -0.283208 0.15024 -0.227803 -0.0445195 -0.24975 0.111829 -0.270561 -0.221365 -0.170562 0.0595795 -0.391338 -0.470092 -0.460747 0.0728669 0.229666 0.174973 -0.050225 0.133781 -0.00898423 0.141721 0.19677 0.271351 0.444023 0.218652 -0.122981 -0.137147 -0.0840757 -0.186246 -0.00886448 -0.0258678 -0.17021 -0.500844 -0.260211 0.425357 0.0289026 0.0391909 0.0524922 0.00579939 0.0459142 0.430092 0.153923 0.0416889 0.483623 0.167425 0.179759 -0.0914292 -0.174797 0.547938 -0.0146707 -0.104204 -0.498748 -0.246155 0.217497 0.064238 0.152809 -0.0133793 0.131448 0.32802 0.243773 -0.113582 0.451784 0.186251 0.200814 0.226662 -0.0593078 0.0600816 -0.0748642 -0.106016 -0.408234 -0.6109 -0.191264 0.0303113 -0.0210872 0.117658 -0.140107 0.244675 -0.270508 0.315333 0.0316944 0.211162 -0.124455 -0.202066 0.184952 -0.235189 -0.0522491 -0.558814 -0.383323 0.23199 -0.24106 0.248079 0.0269326 -0.0526382 -0.350703 -0.0653157 -0.0278462 0.235934 0.0397166 -0.262661 0.0601341 -0.0473734 -0.170246 -0.505228 -0.336894 0.106309 0.257241 0.108796 -0.135448 -0.0334794 0.439062 0.482492 0.166506 0.0379028 0.372238 0.13938 -0.0464107 -0.120348 -0.451215 -0.360346 -0.0495157 -0.180951 0.201896 -0.156974 0.0618123 0.0060523 0.223397 -0.137454 -0.474633 -0.111559 -0.155312 -0.215115 -0.609932 -0.355797 0.122517 0.0574646 0.2556 0.0103534 0.00859103 0.185533 -0.0682582 -0.205256 0.278286 -0.095364 -0.190436 -0.532382 -0.312154 0.505001 -0.037148 0.122214 -0.0683202 -0.0580989 -0.00291652 -0.157892 0.409844 0.0508402 -0.219192 -0.377183 -0.304484 0.636956 0.275785 0.250497 0.214987 -0.11913 -0.10068 0.0400178 0.0145664 -0.0983252 -0.478708 -0.248204 0.599304 0.0156635 0.00105699 -0.260035 -0.237186 -0.221581 -0.37319 -0.37548 -0.497758 -0.594598 -0.0180753 0.0224124 -0.0698104 -0.0698414 0.392333 0.0487966 -0.290109 -0.403433 -0.364509 0.153872 -0.422054 0.00651957 -0.220302 -0.20366 -0.470193 -0.588738 -0.490356 0.173692 -0.141877 0.0939915 0.153113 -0.217774 -0.186813 -0.373159 -0.136266 0.00882788 -0.0747584 -0.1273 -0.266007 -0.129893 -0.464708 -0.0674311 -0.146425 -0.391684 -0.355712 0.0119057 -0.266771 -0.325157 -0.335726 0.249863 -0.209036 -0.138035 0.431471 0.205592 0.5376 0.474376
nr_sv 47 38 40 44 48 42 50 50 34 52 41 21 39 60 43 47 51 39 46 51 39 50 47 37 44 18 23 20 21 17 12 23 28
SV
0.1283325574190876 0.5996285753718811 0.2542162121539477 0 0 0 0 0 0 0 0 0.1099525621603646 5.519285764250847 2.006689545702285 0 0 0 0 0 0 0.5776470882053066 0 0.1984085398707682 0 0 0 0 0 1.063500861910226 0 0.225770458583068 0 6:0.041667 7:0.166667 9:0.083333 10:0.416667 11:0.333333 13:0.125 14:0.375 15:0.458333 17:0.125 
0.134643856695027 0 1.005190547684081 0 0.1069612180253972 0 0.395912007940756 0.1188226405426258 0.1065469236928369 0.03728880687589907 0.2439482881564392 0.4622224717335854 0 0 0 0.2207681085015804 0 0 0 0.04986822308538118 0 0 0 0 0.1818449129655918 0 0 0 0 0.01861819572630661 0 0.01333596973201735 6:0.041667 7:0.375 10:0.208333 11:0.291667 13:0.333333 14:0.208333 15:0.458333 17:0.119792 
0 0 0 0 0 0 0 0.3415824541862219 0.4709499398172979 0 0.6896344662510494 0 0 0 6.272178577145422 0 0.909281567691213 0.7122589044377033 0 0 0 0 0.1632445088004208 0 0.9223935929773716 0.6858847068565173 2.192544792017369 0.6647393214057583 0.4799453000548487 0.5197089611884793 0.04001718747190219 0.8418727173731385 6:0.041667 7:0.375 10:0.208333 11:0.291667 13:0.208333 14:0.125 15:0.291667 17:0.096354 
0 0 0 0 0 0 0 0 0 0 0 0 0 0 9.318751337386178 0 0 0 0 0 0 0 0 9.564517580260738 0 0 7.413754877278704 0 0 0 0 0 6:0.041667 9:0.041667 10:0.333333 13:0.291667 14:0.333333 17:0.065104 
0 0 1.354384871223774 0 0 0 0 0 0 0 0 0 0 0 0 0 0 0 0 0 0.684480561792681 0 0 0 0 0 0 0 0 0 0 0 7:0.375 10:0.125 11:0.375 12:0.083333 13:0.041667 14:0.25 15:0.166667 16:0.208333 17:0.101562 
0.5184606176452579 0.0467230396918644 0.3807643527820546 0.4740333759758535 0.1848325750645341 0 0.8313500108322623 0 0 0 0.2008155560469714 1.035356919351522 3.265282047148727 0.793148834843369 0 0.2498063089108286 0 0.1478466905500097 2.724033570635596 0.1985554777790186 3.496902873345592 0 0 0 0 0 0 0 0.006212956937782004 0.02723037808039733 0.5828657259865757 0.1169379310511731 9:0.166667 10:0.375 11:0.166667 13:0.416667 14:0.416667 15:0.166667 16:0.125 17:0.114583 
0 0 0 0 0 0 0 0 0 0 0 0 0 0 0 0.3586578711815229 0 0 0 0.1042865037404215 0 13.4078508011005 0 5.742170187325213 0 0 11.40762976265299 0 0 0 0 0 6:0.041667 9:0.041667 10:0.5 11:0.041667 13:0.208333 14:0.416667 17:0.078125 
0.6356782915647812 0 0 0.3918486523632054 0 0 0 0 0 0 0 0 0.1567593337768142 0.5097577348200408 0 0 0 0 0 0 0.1329904841363046 0 0 0 0 0 0 0 0 0 0 0 6:0.041667 7:0.375 10:0.208333 11:0.291667 13:0.291667 14:0.125 15:0.333333 17:0.104167 
0.5163122702576878 0 0.7153853859175683 0.4152434600699407 0.3547780932309969 0 0.4941615790101492 0.1975691732012151 0.1585373183647652 0.8435289451384337 0 0.6955605287351454 0.3521670064410015 0.2707183469698937 0 0.5017034145542382 0 0.493875622799685 0 0.3050509689996607 0.2807433276939852 0.2435271369349553 0.3274338723297903 0 0 0.8337729297033938 0.3781111352280546 0.1083301924658324 0.2494811293882737 0.07486211199985797 0.7548198568564368 0.591436294841952 6:0.083333 7:0.458333 10:0.208333 11:0.458333 13:0.25 14:0.166667 15:0.416667 17:0.127604 
0 0 0 0 0 0 0 0 0 0 0 0 0 0 8192 0 0 0 0 0 0 0 0 0 0 0 0 0 0 0 0 0 7:0.125 8:0.083333 10:0.166667 11:0.25 12:0.25 14:0.25 15:0.5 16:0.041667 17:0.104167 
0 0 0 0 0 3.147560348208333 0 0 0 0 0 0 0 0 4.850645662361155 0 0 0 0 0 0 0 0 0 0 0 0 0 0 0 0 0 6:0.041667 7:0.166667 10:0.333333 11:0.416667 13:0.125 14:0.333333 15:0.416667 17:0.114583 
0 0 0 0 0 0 0 0 0 0 0 0 0 0 0 0 0 0 0 0 0 0 0 0 0 0 51.86855483464647 0 0 0 0 0 6:0.041667 9:0.041667 10:0.416667 13:0.25 14:0.375 17:0.070312 
1.193845828860325 0.6945970749843331 1.160193380405676 1.103865256898054 0.9025270410468326 0 1.160771410376954 0.6197928055234324 0.6043059122695711 0.7478223385664141 0.5028531585705486 1.453944527115343 0.7924531350004184 1.203621831338152 479.6924272523767 1.118868595525286 0 0.6742247697972801 0 0.7716287570222794 0.6316790278795315 0 0 0 0.3070410857231084 0.07022906366179998 0.106264373240305 0 0.4157721253819782 0.3752113311402459 0.6844452812546893 0.5276693636355257 7:0.125 8:0.083333 10:0.166667 11:0.25 12:0.333333 14:0.25 15:0.5 16:0.041667 17:0.109375 
1.291387687306026 0.5361825338599122 1.009008785936436 0.8653524902462745 0.7962560715055632 0 1.22645804902532 0.5503373366864852 0.5832645416880342 1.076490438809117 0.5566399223442742 0.9672972947083577 0.5733540084678523 1.028158667532978 0 1.128422869421939 0.1209623292791295 0.761938575281624 2.022875324909921 0.7881252970031835 1.168371309244265 0.6705992316895228 0.5719438824638664 0.1290216750353431 0.581705360075123 0.5587669216008351 0.5354269160871746 0.3305425389035068 0.3549219699563395 0.4332600861940138 0.8452187677787462 0.8845702506918902 6:0.125 7:0.166667 9:0.208333 10:0.333333 11:0.458333 13:0.166667 14:0.5 15:0.541667 17:0.15625 
0 1.257222797517011 0 0 0 1.569654808509899 0 0 0 0 0 0 0 0 0 0 0.8767641903336277 0 0 0 0 2.305522818011079 1.190878231106113 0 0 0 0 0 0 0 0 0 6:0.041667 7:0.166667 10:0.333333 11:0.333333 13:0.125 14:0.333333 15:0.416667 17:0.109375 
0 0 0 0 0 0 0 0 0 0 0 0 0 0 30.65823432924026 0 0 0 0 0 0 0 0 0 0 0 0 0 0 0 0 0 6:0.041667 7:0.166667 10:0.333333 11:0.333333 13:0.166667 14:0.333333 15:0.416667 17:0.111979 
0.1788180167849792 0 0.5447195676463964 0 0.4803658783752847 0 0.883974123860214 0.2345129377107966 0.08911206587672971 0.3799512576927262 0.6917276229097558 0.6192586140751259 0 0.1926756077610016 0 0.7132922661253294 0 0.4584430923103178 3.821643628475002 0 0.1497624754797606 0 0.1081920761439711 0 0.2514141129807834 0.2198917328464989 1.223748608584231 0 0 0 0 0.2059599530645702 9:0.166667 10:0.291667 11:0.166667 13:0.416667 14:0.583333 15:0.166667 17:0.111979 
0 0 0.03706006933863053 0 0 0 0.2791465011385286 0 0 0.4343508638532244 0 0.1620053939882133 1.288309110290165 0.4692391985627706 0 0.02796171206717616 0.2930678735493131 0 3.00609258017574 0 2.295367606378245 4.202896237084331 0.9627399740095557 0 0 0 0 0 0 0 0.03401229882175527 0.1770769605427536 7:0.125 8:0.083333 10:0.208333 11:0.375 12:0.208333 14:0.25 15:0.5 16:0.041667 17:0.111979 
0 0 0 0 0 0 0.9214059910161653 0 0 0 0.02511312346959378 0 0 0.2599000318742509 0 0 7.025492156929124 0 0 0 0.1013563020275545 0 0.9176444485148393 0 2.144266293327186 1.626577679594873 0 3.733089245995859 0.975410827670977 0.03425179610686707 0.2968178455056813 4.510284600757004 6:0.041667 9:0.166667 10:0.458333 13:0.208333 14:0.458333 17:0.083333 
2.364718963922849 1.041764394008234 0 2.126014980060924 0.1035682485259466 23.96118146870003 0.3568264126809303 0 0 1.7785127441014 0 0 2.139492352322228 0 16.79958891236643 1.083731704265204 3.966264725261689 0 5.751745644888367 1.744797247623326 0 0 1.24716190821983 0 0 0 0 0.6912103706021213 1.743531592552893 0.6902115770000852 4.571478044599788 1.707239863209587 9:0.166667 10:0.333333 11:0.166667 13:0.375 14:0.416667 15:0.083333 17:0.096354 
0.6912571316563231 0.4845609514253639 0.9168582953468061 0.8161643244258028 1.110726265519568 0 0.8219685243889218 0.5687012455428802 0.4636988964508426 0.5677924630409552 0.6613397150257101 0.654537790227634 0.7696997676668588 0.7909625577051328 0 0.9589938256661128 0.3204330344123122 0.5453270492685146 0 0.565997290267126 0.5982837347250196 0.7428488162773563 0.5206507573069723 0.5104329681966813 0.3874362307769896 0.7594647070614075 0.6169611324666173 0.2169774640620789 0.4052281497427951 0.2816895846441743 0.4182770922512589 0.5025190328656371 3:0.083333 4:0.041667 6:0.208333 7:0.125 9:0.041667 10:0.541667 11:0.166667 13:0.25 14:0.208333 15:0.166667 17:0.114583 
0 0 0 0 0 0 0 0 0 0 0 0 0 0 0 0 0 0 0 0 0 0 0 0 0 0 1.31158497170952 0 0 0 0 0 6:0.041667 9:0.041667 10:0.333333 13:0.208333 14:0.333333 17:0.059896 
0 0 0 0 0 0 0 0 0 0 0 0.09839208771862275 0 0 0 0 0 0 0 0 0 0 0 0 0 0 0 0 0 0 0 0 6:0.041667 7:0.416667 10:0.208333 11:0.333333 13:0.208333 14:0.125 15:0.291667 17:0.101562 
0 0 0.0385510721323369 0.954880600957695 0.008975570406346547 0 0 0.2173777776509151 0.004584106372407493 0.2112118538150326 0.4558837151619898 0 0 0.84193275572857 0 0 0 0.07813499191930107 0 0 0 0 0 2.817024519851953 0.151044220376338 0.1052099635901524 0 0 0 0 0 0 6:0.041667 7:0.166667 10:0.333333 11:0.333333 13:0.125 14:0.416667 15:0.458333 17:0.117188 
0 0 0 0 0 2827.858968403814 0 0 0 0 0 0.3480430936342547 0.0300483610813965 0 16.57167926246616 0 0 0 0 0 0 6.658548862086034 0 0 0 0 0 0 0 0 0 0.724422233742422 9:0.083333 10:0.166667 13:0.333333 14:0.458333 17:0.065104 
0 0 0 0 0 0 0 0 0 0 0 0 0 0 16.44905538810331 0 0 0 0 0 0 0 0 0 0 0 0 0 0 0 0 0 6:0.041667 9:0.041667 10:0.333333 13:0.291667 14:0.375 17:0.067708 
0 0 0 0 0 0 0 0 0 0 0 0 0 0 0 0 0 0 0 0 0 0 0 0 0 0 0.03985302281116182 0 0 0 0 0 6:0.208333 7:0.125 9:0.041667 10:0.541667 11:0.166667 13:0.25 14:0.208333 15:0.166667 17:0.106771 
0 0 0 0 0 0 0 0 0 0 0 0 0 0 0 0 0 0 0 0 0 0 0 16.59531001855679 0 0 -0 0 0 0 0 0 9:0.125 10:0.416667 11:0.166667 13:0.375 14:0.416667 15:0.083333 17:0.098958 
0 0.5241779703352945 0 0 0 0 0 0 0 0 0 0 0 0 0 0 0.9832870557980732 0 76.04088586908709 0.1600980819599877 0 1.570076138677037 0.7872547549155726 0 0 0 0 0.7384363330268442 0 0 0 0.2759322966998899 5:0.041667 6:0.041667 7:0.166667 10:0.333333 11:0.333333 13:0.125 14:0.333333 15:0.416667 17:0.111979 
0 0.6553458620374796 1.003967357961293 0 0 4.534024690655071 0 0 0 0 0 0 2.565335509838929 1.932051183012004 33.2066463572877 0 0 0 0 0 0.6137304759998805 6.236487043467967 0 2.352989544810253 0 0 0 0 0 0 0 0 9:0.125 10:0.291667 11:0.166667 13:0.375 14:0.416667 15:0.166667 17:0.096354 
0 0 0 0 0 0 0 0 0 0 0 0 0 0 0 0 0 0 0 0 0 0 0 0 0 0 0.5465779957027816 0 0 0 0 0 6:0.041667 9:0.041667 10:0.416667 13:0.208333 14:0.375 17:0.067708 
1.313309881899011 1.061275366833821 0.1517107763969815 1.869261986617192 1.209069201458458 0 1.683065830272031 0.9736273235744362 0.9715551233520134 1.571425902904859 1.985614724126522 3.468111662251276 1.460270908258267 1.17117755386653 0 1.600425882741026 1.207390698360312 1.360076472028421 0.6432143656200142 1.089978986866882 0.4987627905788037 2.1289931011901 1.014989517904563 1.427845866414796 1.195122471063522 1.357999856497878 2.511466984549037 0.7834295251552668 0.765130721334967 0.6833723078222983 0.7849081549649616 1.63253362044646 7:0.375 10:0.125 11:0.375 12:0.083333 14:0.25 15:0.166667 16:0.208333 17:0.098958 
1.296609653867838 2.672055639401785 0.7277236695761587 6.954913030385393 1.049664698391898 2875.860529173675 1.635132203456749 0.8624820686687781 0.0885171550583491 0.5026063973750277 0.4396208456032785 1.023755905128952 4.837310091828541 1.814074198315717 41.66439549683159 2.297280182456113 12.39841191166445 0.4074133570270514 1.821361617860175 3.12853360275302 1.447937002841486 16.65767289474044 2.422801489887382 0 0 0 0 1.638637968535189 0.8729758547859315 0 0.4517894196025006 0.9911128930708478 9:0.083333 10:0.166667 13:0.333333 14:0.375 17:0.059896 
1.126159885637656 0 0 3.861431510034554 0.6245019936318807 0 1.4193813841167 0.8739818089106598 0.3863321927516012 0.5669735576711317 0.4342118330831745 0 0 0 0 0 1.19705646593634 0 0 0 0 0 0 7.848341140159995 0 0 4.097875655863022 0 0 0 1.525839741051169 0 6:0.041667 9:0.041667 10:0.333333 13:0.458333 14:0.333333 17:0.075521 
0 0 0 0 0 0 0 0 0 0 0 0 0 0 25.62130345539718 0 0 0 0 0 0 0 0 0 0 0 0 0 0 0 0 0.4314022323312686 7:0.125 8:0.083333 10:0.166667 11:0.333333 12:0.25 14:0.25 15:0.5 16:0.041667 17:0.109375 
0 0 0 0 0 0.3864732708616413 0 0 0 0 0 0 0 0 0 0 0 0 0 0 1.276737422095434 0 0 0 0 0 0 0.04095801462035095 0.3102200023888751 0 0 0 6:0.041667 7:0.166667 10:0.333333 11:0.333333 13:0.125 14:0.333333 15:0.416667 16:0.041667 17:0.111979 
0 0.6224298342463538 0.5970767776645356 0.1200523254007927 0.4913670476527505 0 0 0.04517629163526164 0 0 0 0 0 0 0 0.4137457557844815 0 0 0 0.5824168654766189 0 0.980925359923824 0 1.497565303721229 0 0 0 0 0 0 0.153319496570983 0 6:0.041667 7:0.375 10:0.208333 11:0.291667 13:0.25 14:0.125 15:0.291667 17:0.098958 
0 0 0 0 0 0 0 0 0 0 0 0 0 0 958.1297592217878 0 0.775291353767349 0.3149264658398931 0 0.792725967127575 0 0.01831016739484744 0.5223695326499411 0 0 0 1.513665057387368 0.8799014067862315 0.537139417419093 0.03667398945379008 0 0.2672867265602429 7:0.125 8:0.083333 10:0.166667 11:0.25 12:0.208333 14:0.25 15:0.5 16:0.041667 17:0.101562 
0 0 0 0 0 0 0 0 0.03095323669381361 0 0 0 0 0 0 0 0 0 0 0 0.04825415963380865 0 0 0 0 0 0 0 0 0 0 0 6:0.041667 7:0.166667 9:0.041667 10:0.333333 11:0.375 13:0.125 14:0.458333 15:0.5 17:0.127604 
0 0 0.2726409736485066 0.2312641429660183 0.04221023424593569 0 0 0 0 0.1112484118532007 0.2680353388295348 0 0 0.3433660887256346 74.46977771752985 0 0 0 0 0 0.2570870025096056 0 0.8512443132430415 1.593443160564304 0.5540162905846405 0.8904361192092118 0 0 0 0.1149827625809861 0 0.308692021407698 7:0.125 8:0.083333 10:0.166667 11:0.25 12:0.208333 14:0.291667 15:0.5 16:0.041667 17:0.104167 
0 0 0.5196723684979234 0 0 0 0 0 0 0 0 0 0 0 0 0 0 0 0 0 0 0 0 0 0 0 3.707650580801658 0 0 0 0 0 6:0.041667 7:0.208333 10:0.333333 11:0.333333 13:0.125 14:0.333333 15:0.416667 17:0.111979 
0.5464252995443623 0 1.656844051434862 0.2791577429655487 0.07118271859847798 0 0.5319284392200823 0 0 0.3630868899746706 0 0 2.047117361238779 0 2.948358088942262 0.5500988046773929 0 0.1684956348523964 99.2474121018124 0.315588325258076 0 0.6316248789580501 0 0 0 0.2268707612926424 0 0 0 0 0.6282845455898844 0.568424294049366 6:0.041667 7:0.166667 10:0.333333 11:0.458333 13:0.125 14:0.333333 15:0.416667 17:0.117188 
0 0 0.3135021043761722 0 0.3214937129443964 0 0 0.5352735483201517 0 1.061011764776029 0.2138776911298719 0.3451790080354686 0 0.08676822958655683 0 0 0 0.4612822366096948 0 0 0.01821852454575346 0 0 0 0 0 0 0 0 0 0 0 6:0.125 9:0.083333 10:0.541667 13:0.25 14:0.458333 17:0.091146 
0.632440106937623 1.06007807124994 0 0 0 0 0.176702427558395 0 0 3.085400695998095 0.3887563529378109 0 0.5108957965553252 0 0 0.1484648196226287 0.6991454765112319 0 0 0 0 0 0 2.73738707673444 0 0.6508642481093369 1.101819430888084 0 0.01640665362541767 0 0 0 6:0.208333 7:0.125 9:0.041667 10:0.541667 11:0.166667 13:0.291667 14:0.333333 15:0.208333 17:0.119792 
0 0 0 0 0 0.007372856030452202 0 0 0 0 0 0 0 0 0.006926915705054484 0 0.0008107388155045096 0 0 0 0 0 0 0 0 0 0.02195945454954306 0 0 0 0 0 6:0.208333 7:0.125 9:0.041667 10:0.541667 11:0.166667 13:0.25 14:0.208333 15:0.166667 17:0.106771 
1.698087473544542 2.107984181833874 0.291478441862303 2.202609921916942 0.7106169078472934 0.4262414756235208 0.6834963684268649 0.5339231681305924 0.7876982502683463 0 0.5284508509240003 0.2190531227454459 1.283434835667582 1.413994192790851 0.498023502000037 3.018371381779651 2.014053424193734 1.483070946476208 0 1.156433548180257 0.301408773787055 2.40368539646532 0.6640793481062408 1.533707517368888 0.8073212486767739 0 0.6355796161611844 0.4023580880312443 1.850506969721887 0.8767565686738529 1.203337805119927 0.51620111896461 6:0.208333 7:0.125 9:0.041667 10:0.541667 11:0.166667 13:0.25 14:0.208333 15:0.166667 17:0.106771 
0 2.298662770553309 0 0 0.1945690108118675 0 0 1.805252043040975 3.90343702053918 0 1.036898384519218 0 0 0 0 1.781469684171781 23.96517638572367 2.304168703213132 0 0.6343938712452204 0 13.4924345067007 0.7285538512826268 0 3.732800869784668 2.269867230421379 23.41796143948993 6.242467961368488 0 1.549913765329933 0 0 6:0.041667 9:0.041667 10:0.333333 13:0.208333 14:0.333333 17:0.059896 
-0 0 1.014807109608511 0 0 0 0.4132004914767063 0 0 0 0 0 0.3365487250043862 1.891403341305434 0.20955355804366 0 0 0 0.06134397515588716 0 0 0 0 0 0 0 0 0 0 0 0 0 6:0.291667 7:0.25 9:0.041667 10:0.5 11:0.375 13:0.333333 14:0.083333 15:0.333333 17:0.138021 
-0 0 0.002502651345188651 1.165507923666762 1.220694421187661 0 0 0 0 0 0 0 0 3.127090892825279 0 1.306604341443162 0 0 0 0 0 0 0 0 0 0 0 0 0 0 2.66412380140344 0.5556758520522127 2:0.083333 3:0.041667 6:0.166667 7:0.208333 8:0.083333 10:0.333333 11:0.333333 12:0.333333 14:0.375 15:0.25 16:0.125 17:0.145833 
-0 0.3808098927430875 0.2893841017512372 0.4607006981114266 0.2572170356482321 0.7203560636759775 0.5732067688565218 0.3519025768634095 0.40265575786681 0 0.7198519651071266 0.2480684763314059 0.2194202815898545 0.8231463913483893 0.1765040469963084 0.4622834328400045 0.3812769069901799 0.9785847098689104 0.2265071528175005 0.6828775436927176 0.5037341509791246 0.8836441771182371 0.707953370328168 1.043614130519265 0.3336472866366467 0.3042344893015904 0.2992642464805175 0.1850616642649006 0 0.2228128397576961 0 0.347195798535634 2:0.083333 5:0.166667 6:0.291667 7:0.125 10:0.416667 11:0.375 14:0.458333 15:0.25 17:0.135417 
-0 0.2989227968931876 2.16146102700572 0.3801049769554032 0.1059154372116134 0.9351459077671816 0 0 0 0.1925536667882405 0 0.5437696755230432 1.97430009103623 1.993052770651224 1.18087717443073 5.621906376715572 0 0.5555738963252657 1.186137993194047 2.20329945235465 0.8653455630728342 0.6018345273574631 0.8899974882905853 2.49909816554944 0 0 0 0 0 0 0 0.89227638974785 5:0.041667 6:0.166667 7:0.041667 9:0.208333 10:0.333333 11:0.458333 13:0.375 14:0.375 15:0.125 17:0.132812 
-0.06433443542457906 0.03864802424934538 0 0.5206938049724673 0 0 0 0 0 0 0.5102322980946034 0 0 0 0 2.361409606533164 0.3074943229631573 0 0 0 0 0.5626719273238833 0 0 0.09180491970318393 0.1497619805157316 0 0.1248723322777152 0.4731661132178471 0.003035270311747445 2.135910778436709 0.424877753522708 2:0.083333 5:0.083333 6:0.291667 7:0.125 9:0.291667 10:0.416667 11:0.375 13:0.333333 14:0.458333 15:0.25 17:0.169271 
-0.7349992822888359 0.897493960990601 1.058857354468933 0.8411660333748237 0.7164546382351515 1.057262416334605 1.139994426721177 0.6051305828636295 0.5984819360228777 1.182205510032824 0.8359231613639486 1.081858503617511 1.067452751577696 1.249362137939859 0.8823764591824745 1.508023478783135 0.793458857874588 0.903582054493498 0.9720724878714764 0.9040135786874082 1.045124945104714 1.002919764071923 0.8112123030520952 1.152368453542004 0.6944813591750143 0.5060985885160252 0.5281341109574803 1.413765701079821 0.4333994386777468 0.4570479204806167 0 1.299329979019646 2:0.125 5:0.458333 6:0.375 7:0.125 9:0.458333 10:0.416667 11:0.375 13:0.375 14:0.458333 15:0.25 17:0.213542 
-1.761227433689716 0 0 0 0 0 1.600725720370548 0 0 2.663763146966141 0 0.187610781462257 0.5367163543744002 0 1.396470492995971 1.464120829101792 0 0 2.498113222638188 0 0.1586235228556129 0.02308585881707067 0 0 0 0 0.9843143467354194 0 0 0 0 0 5:0.041667 6:0.166667 7:0.041667 9:0.166667 10:0.333333 11:0.291667 13:0.458333 14:0.416667 15:0.125 17:0.127604 
-0.1974699428148512 0.7619098805845743 0 0 0 0.2115171604019378 0.2878818204456062 0.3096143153194774 0.2726266500468384 0.3244638480993394 0.1960031022729738 0.4708017699761667 0.8871774185994316 0.3734643067867313 0.09319093866460287 0 0 0.5891805863862898 0.5078273315756929 0.4685669102774127 0.1642676048082041 0 0.4183895543001445 0.218105857400093 0 0 0.07395735853448655 0 0 0.3224710649812533 0 0 6:0.291667 7:0.25 9:0.041667 10:0.583333 11:0.375 13:0.333333 14:0.083333 15:0.333333 17:0.143229 
-0.100698513930574 0.3094841032437813 1.307543082991174 1.207540719532571 0 0.753205004639479 6.796366201812804 0.09842218695058863 0.1454777063135919 0.3316460052133022 0.4503049765318755 4.378726662790277 2.856807727114747 0.7879949624372213 0.2793066173574635 0.5944722719340733 0.221450105394133 0.1675479925513279 3.59540068754715 0 4.261162394434335 0.1277412005085233 0 0.3275024572593631 0.09596117790973013 0 0 0 0.01503763532431762 0.1151307187301021 0 0 2:0.083333 3:0.041667 6:0.166667 7:0.208333 8:0.041667 10:0.333333 11:0.333333 12:0.333333 14:0.375 15:0.25 16:0.208333 17:0.148438 
-0.8638780553559239 0.6062900355948683 0 0 0 0.1853215444940837 0.8147473421890878 0 0 1.104121806036054 0 0 1.305191975369511 1.279174563899054 0.2738886146147423 0 0.1523065995224252 0 0.8129815158919472 0 0.8176922161401623 0.2254607367291604 0.1359806269836964 0 0 0 0.08366215355858085 0.09117430039672932 0.9554054509513807 0.0626554247637566 0.6334099965638067 0.5297087211882039 2:0.083333 5:0.083333 6:0.291667 7:0.125 9:0.166667 10:0.416667 11:0.375 14:0.458333 15:0.333333 17:0.145833 
-0 2.323871628302476 0.3043273200452414 0.9696739826528951 1.303706380900345 0 0 0.01937852712612667 0 10.50784211920264 0 0.7845747106527876 0 0 0 0.1460408396652259 0 0.1101017647591633 0 0 0 0 0 0 0 0 0 0 0 0 0 0 5:0.083333 6:0.041667 9:0.291667 10:0.166667 13:0.5 14:0.291667 15:0.041667 17:0.088542 
-0.6838691800229464 0.04774962663471041 0.03466065912170647 1.328879421912487 0.533946127098343 0.7722220384980492 0 0.04152484626741466 0.2153883325339439 0 0.4265143919131447 0.354602101198255 0 0 0.6078080599826458 0 0.8312714394757336 0.1838680823101552 0.3959286526373463 0.3723889025499537 0 0.8864325863015032 0.03067003417969271 0.9370396178185201 0.5774879205721545 0.3808986236760505 0.5371078077544983 0.1371584800847876 0.168504122643501 0.09553402530188891 0 0.5736937025963403 6:0.291667 7:0.291667 9:0.041667 10:0.5 11:0.333333 13:0.333333 14:0.083333 15:0.333333 17:0.138021 
-0 0 0 0 0 0 7.040937248538736 0 0 0.5587975705177751 0 0.5996244336824498 0.6090110763687134 0 0.02038841029322223 0.1944134697980572 0.1879726669329311 0.5986912742588411 0.1072362833948052 0.1513277505229946 0.3792522689212474 0 0.1636474846935355 0.05203426059716066 0.4061561685610314 0 0 0.1698360130491904 0 0.2082319764724435 1.291908088717366 0 5:0.041667 6:0.416667 9:0.291667 10:0.416667 11:0.333333 13:0.458333 14:0.166667 15:0.166667 17:0.143229 
-0.07204393475398757 0 0.4258619339312745 0 0 0.1870309557273682 1.474931898010778 0 0 0 0 0 0.6925886902565039 0 0 1.873831844076881 0 0 0 0 0.3123337387428052 0 0 0 0 0 0 0 0 0 1.656382469055435 0 2:0.083333 3:0.041667 6:0.208333 7:0.25 8:0.25 10:0.375 11:0.375 12:0.041667 13:0.041667 14:0.458333 15:0.333333 17:0.153646 
-0 0 0 0 0 0 0 0 0 0 0 0 0 0 0 0 0 0 0 0 0 0 0 0 0.2327463429863589 0 0 0 0 0 0 0 6:0.333333 9:0.166667 10:0.333333 11:0.25 13:0.458333 14:0.166667 15:0.166667 17:0.117188 
-2.730495939694022 4.911942755365862 0.9125328232632166 11.3726919760554 5.484582099585516 4.027515197066997 1.456430177639225 2.855634029279578 2.121355775484583 3.234521711517485 1.754239469641694 0.3350097245062683 1.552113899113569 1.890894268466743 2.287311164966898 6.527555760323997 3.341880716806896 3.866833059870686 1.011030224188195 5.298290932522041 0.4533219380556176 3.248031657155 2.029132772250606 11.94665350451026 2.747522798459103 1.761377664518023 1.503063118072576 2.02610085769932 2.001350243463542 2.073120659359079 2.563550834684392 1.969117604988738 6:0.166667 7:0.041667 9:0.083333 10:0.291667 11:0.208333 13:0.333333 14:0.25 17:0.085938 
-0 0 0.6558003773554051 0 1.026045290382444 0 0 0 0 0 0.03654496752793138 0.3024999530202129 0 1.428448444013632 0 0 0 1.6526091501062 0 0 0 0 3.307400477433821 0 0.056433234048114 0.5219451028390578 0 0 1.634126653816947 0.3850461018984103 0 2.757518165032069 5:0.083333 6:0.041667 9:0.333333 10:0.166667 13:0.416667 14:0.291667 15:0.041667 17:0.085938 
-0 0.6166679919946981 0 3.130809924773831 3.076507133850034 0.8148081730038745 0 0.5038197138086844 0.6028208308630791 1.470599218694037 0.6143381355715126 0 0 2.675366609076478 0.198143299210099 2.403670097105716 0 0 0 0.4988927957758468 0 0 0 0 0 0 0 0 1.241575399889096 0 1.859523820673115 3.123523703253081 6:0.333333 9:0.291667 10:0.333333 11:0.25 13:0.458333 14:0.166667 15:0.166667 17:0.125 
-0 0 0 0 0 0 0.2723512729266452 0.07075675775695882 0 0.2828268298804389 0 0.0656703992553245 0 0 0 3.251282987814907 0 0 0 0 0.0720614222448371 0 0.1741890646204962 0 0.1124387323810494 0.04662522977203767 0 0.3073680765881845 0 0 0.1360707316356156 0 6:0.333333 7:0.291667 9:0.041667 10:0.5 11:0.375 13:0.333333 14:0.083333 15:0.333333 17:0.143229 
-0.3177317013941355 1.677380127797365 0 3.501764042873628 0 0.8901337892038982 0.781297948426807 0.3868730980093069 0.2308788646723997 0.2839194186212193 0.03430099714625457 0 0.1255219833553122 0.7595669272319729 0 0 0.8125554681667868 0.4585792298080687 0 0.3991853347673987 0.263066725491379 0.6777041161189037 0.9331804941003993 0.538015178060621 0.1630137287399931 0.3440702100569121 0.6144793955419231 0 1.203272201188755 0 0 0 2:0.083333 6:0.291667 7:0.125 10:0.416667 11:0.375 14:0.458333 15:0.25 17:0.125 
-0.2468593619901429 0 1.518056598062413 0 1.21970638857002 0.4265107133644602 0 0.5434604908149432 0.5021374747913253 0 0.5242241258294876 0.7481288678227827 0.09547931374502672 0 0.2705131841886099 0 0.580177922855706 1.313880816324194 0.3139627234655934 0.2149033624449778 0.5403984615698294 0.5963236241199478 0 1.361629470920745 0.5899366662337499 0.3635604379349702 0.598083720123377 0.04220852458077828 0 0.4063396888565443 0 0.4233352019171387 2:0.083333 3:0.041667 5:0.041667 6:0.208333 7:0.333333 8:0.291667 10:0.375 11:0.291667 12:0.041667 13:0.041667 14:0.458333 15:0.333333 17:0.158854 
-0 0 0 0 0 0 4.345947253426338 0 0 0 0 0 0 0 0 0 0 0 0 0 0 0.7358753744412913 0 0 0 0.5108334191285389 0 0.3397808664908812 0 0 0.5188094586954325 0 6:0.333333 9:0.208333 10:0.333333 11:0.25 13:0.458333 14:0.291667 15:0.208333 17:0.130208 
-1.242736625729286 0.516620825388399 0 0 0 0 1.96042829088757 0 0 0.8297406556177104 0 0.1903332968217591 0.4314225667909334 0 0 1.42573160120048 0.4960786151049842 0 0.1682542672134454 0 0.8790925885430471 1.252214076576665 0 0 0 0.308125274465267 0 0.2994256483020574 1.160310012131385 0 4.199951502481121 0 6:0.291667 7:0.25 9:0.041667 10:0.5 11:0.333333 13:0.333333 14:0.166667 15:0.333333 16:0.083333 17:0.145833 
-0.02326876775527341 0 0 0 0 0 0 0 0 2.142847309449341 0 0 0.6693969178961067 2.053363939693042 0 2.539638286126601 0 0 0 0 0 0 0 0 0 0 0 0 0 0 0 0 2:0.083333 3:0.041667 6:0.208333 7:0.25 8:0.25 10:0.458333 11:0.333333 12:0.041667 13:0.041667 14:0.458333 15:0.333333 17:0.15625 
-0.1381831665142302 0 0.4762845543598172 0.306813348523523 0.09695890056652176 0.1644119913466401 1.278480329951443 0.2491775171998171 0.254349460872733 1.467324528199532 0.3109463486163627 0.6874254766741336 0.03164640652708221 0 0.3927088312399645 0.1131710521938173 0.3774011897497875 0.1559033723741569 0.4927950401023721 0.1983875530134137 0.4448829757778353 0.2039737821575573 0 0.3310812216971405 0.3490811516968527 0.1565209543168112 0 0.1174941142165088 0 0.2155028094139648 0 0.07296816978642652 2:0.125 5:0.083333 6:0.5 7:0.125 9:0.125 10:0.416667 11:0.375 13:0.083333 14:0.5 15:0.375 17:0.169271 
-0 0 0 0 0.8911815619551097 0 2.932416619102867 0 0 1.16247737305671 0 0 0 0 0 2.288238874775473 0 0 0 0 0 0 0 0 0 0.4287798671464248 0 1.006268894850515 0.0684606010329103 0 0.8986358894009072 0.170953943583549 2:0.083333 6:0.375 7:0.125 10:0.416667 11:0.375 14:0.458333 15:0.25 17:0.130208 
-0.2808727597199897 8.010641738834545 0 8.52727690091489 2.119092865639194 1.33866191913243 6.200875704634766 1.841335841039597 1.632921474949403 0 0 0.9436689758474472 5.063986837084816 0.9495939420539622 1.675321622218834 9.183960304798997 4.682642313574878 0 3.962737343112473 3.985978778819178 2.682390128188522 2.102848902649839 0.1631157438421079 1.162787772086325 0.7796591119663528 0.0001729219590570832 0.1873560298634457 1.467904256602689 0 0 0 0 5:0.083333 6:0.041667 9:0.291667 10:0.166667 13:0.416667 14:0.291667 15:0.041667 17:0.083333 
-0 0 0 0 0 0 13.88587674525174 0 0 0 0.3811845057463136 0 0 0 0 0 0 0 0 0 0 0 0 0 0 0 0 0 0 0 0.9910256917450267 0 6:0.333333 9:0.166667 10:0.375 11:0.25 13:0.458333 14:0.166667 15:0.166667 17:0.119792 
-0 0 1.626976266557543 0 0 0.06451872743063622 0 0 0 0 0 0 0.2685193168667516 0 0.1118277213843784 0 0 0 0.07703762127874997 0 0.1095461077659109 0.06868790004203222 0 0 0 0 0 0 0 0 0 0 6:0.333333 9:0.208333 10:0.333333 11:0.25 13:0.458333 14:0.166667 15:0.208333 17:0.122396 
-0 0 0 4.699287558682829 0 0 0 0 0 4.721737525762696 0 0 0 2.987669192364399 0 5.98313629746619 0 0 0 0 0 0 0 0 0 0 0 0.501837118420096 0 0 0 0.4895516420637883 2:0.083333 3:0.041667 6:0.25 7:0.25 8:0.25 10:0.375 11:0.291667 12:0.041667 13:0.041667 14:0.458333 15:0.333333 17:0.151042 
-2.149221692228321 0 0.2444023132329338 0.1449200651344514 0 3.379800570612284 2.995224650593024 1.171299046895782 0.684888830243753 0 2.173839236161887 0.06634410555333743 0 2.798766697704913 1.307593241690204 0 0 0 0 0 0.04840008234052746 0 0 0.8457203358917968 0 0 0.9133576125856636 0.0418356115684762 2.567821812760287 0.3044884930986794 5.960669396702948 1.409675181298966 5:0.083333 6:0.041667 9:0.291667 10:0.25 13:0.458333 14:0.291667 15:0.083333 17:0.09375 
-0.7533937578667839 0.7378154101162196 2.733739904810125 2.472869323967237 0.7911465427718323 0.9753992264726691 2.319140837332741 0.3257274571203363 0.3463687524660504 0.538524927274596 0.4983045907570617 1.268654868378165 1.063343621655498 0.8318678506217978 1.053328831432137 2.929873476286138 0.5160968750800192 0.6616761352280754 1.273845753034126 0.4713908556894983 0.7347990415520691 0.6022140768214103 0.4084055593237685 0.9323772095264 0.445059185504694 0.3439911401783863 0.3926268440313956 0.2466355699339848 0.4025926268687923 0.3205592413431513 0.5067649243541046 0.5128411685794019 7:0.416667 8:0.291667 10:0.166667 11:0.25 12:0.291667 14:0.333333 15:0.166667 16:0.291667 17:0.138021 
-0.383625226625045 0.4302642901707893 1.356441049787685 0.3014104751007035 0.331574753728018 0.5292457206721826 2.051301561027424 0.324819994729426 0.3097547186479316 0.5401797083696694 0.4109643740729079 0.4663039194122355 0.5123729751022503 0.2860909553130397 0.4383270668236383 0.4448991619397529 0.4137106837294133 0.4687307088254647 0.9146915422374742 0.4360114938840933 0.3812185516967918 0.6694461012017071 0.424845022658254 0.6038711480059058 0.3300241581252247 0.2757680197833171 0.2608653270762561 0.2163344769269754 0.183199362591725 0.2277278772252694 0 0.1941494616169661 3:0.041667 4:0.083333 7:0.416667 8:0.291667 10:0.166667 11:0.25 12:0.291667 14:0.333333 15:0.166667 16:0.291667 17:0.145833 
-0 0 0.6024973021224045 0 0 0.103976556198712 0 0 0 0 0 0 0 0 0 0 0 0 0.05159032777767657 0 0 0 0 0 0 0 0 0 0 0 0 0 6:0.291667 7:0.25 9:0.041667 10:0.5 11:0.333333 13:0.375 14:0.083333 15:0.333333 17:0.138021 
-0 1.742859160160561 0 3.931420355762341 1.532026842276282 0.4344248062453226 0 0 0 1.194955415374474 0 0 0 5.288017363528483 0 5.490014508979952 0 0 0 0 0 0 0 0 0 0 0 0 0 0 3.76259572871619 4.75372562513436 5:0.041667 6:0.166667 7:0.041667 9:0.208333 10:0.333333 11:0.291667 13:0.5 14:0.375 15:0.125 17:0.130208 
-0.5248907627757773 1.140215592733261 0 1.919634944503559 0.153375511561955 0.9392654173567936 0 0 0 0 0.2933028598810788 0 0 0 0.7116191771079081 0 0.353776172463806 0 0.5334282223508063 0.8415466975345064 0 1.00797112713397 1.171550234115741 0.4429941664788715 0.02959451371399448 0.3053163366685835 0.2540189071885918 0.03544232953200333 1.278596870203303 0 0 0 2:0.083333 3:0.041667 6:0.208333 7:0.25 8:0.25 10:0.375 11:0.291667 12:0.041667 13:0.041667 14:0.458333 15:0.333333 17:0.148438 
-0 0 0 0 0 0 0 0 0 0.9484281268368536 0 0 0 0 0 0 0.4205319911555125 0 0 0 0 0 0 0 0 0.4179332091003177 0 0.6275357547479719 0 0 0 1.329252944417216 2:0.083333 3:0.041667 6:0.208333 7:0.208333 8:0.041667 10:0.333333 11:0.333333 12:0.333333 14:0.375 15:0.25 16:0.125 17:0.145833 
-0.9966869829689532 0.4762027771579796 0 0 0 0.9375588421186217 0 0.4329360782754748 0.3636804760092925 0 0.21986790712286 0 0 0 0.9690091748174656 0 0.3339224022781476 0.5168260045393928 0 1.248867202521007 0 0.7066739067747758 1.042930550029433 0.6218143457137182 0.4641894649165336 0.1624035374980601 0.6294968727490752 0 0.7462835553728044 0.2353927633596733 0 0 2:0.083333 3:0.041667 6:0.166667 7:0.208333 8:0.041667 10:0.333333 11:0.333333 12:0.333333 14:0.375 15:0.25 16:0.125 17:0.143229 
-0 -0 0 1.196520759066449 0.6428847583112882 0 0 0.8237762099565126 0.4067197642725137 0.8694395167997347 0.118108307621582 0 0 0.4819068106221266 0 0.9470835004695721 1.07679941252943 1.865812430395623 0 2.890349907993725 0 0 1.936938927544592 0 0 0.2122371418764427 0.03051015128391556 0 2.342910007005854 0 0 0 6:0.291667 7:0.166667 8:0.25 10:0.375 14:0.333333 15:0.208333 16:0.041667 17:0.104167 
-0 -0 0 0 0 2.276026133446727 0 0 0 0 0 0 0 0 0 0 0 0 0 0 0 0 0 0 0 0 0 0 0.3096980421914816 0 0 0 6:0.125 7:0.25 8:0.291667 10:0.25 14:0.25 15:0.125 16:0.125 17:0.088542 
-0 -0 0.9393762462522821 31.35470517486511 0 2.890000006471156 0.2310681378085672 0.4470333372811822 0 0.1990180506811214 0.3236355592562756 0.4317514877605603 0.4153736448270919 0.3481026478177117 0.3469231234807302 2.370579246020484 0 2.854007991321674 0.671904827648849 5.346806606014599 0.5588779314235154 3.157502515551158 5.351424298350155 1.043513588233428 0 0 2.483979998090392 0 0 0 0 0 7:0.125 10:0.291667 11:0.25 14:0.375 15:0.041667 17:0.067708 
-4.049262279825276 -3.759812319343076 1.44534279262359 7.102154799535366 0.7349377120270281 2.30049347611838 2.038175553666326 0 0 3.569455260252987 0.8458202211796937 0.8584367290631433 4.481834610442471 4.776171012725519 1.683754757910623 6.806922197597226 3.97396087281771 3.764955714333243 2.63628023764844 5.568568149500833 1.591511862011129 10.06506181682602 5.361794818630327 4.233323778259561 0.3825559597526819 1.374831998394658 1.263178389353243 1.132915216107553 6.824998861807644 0.1899363840621154 3.060967371318513 1.881476476580298 6:0.166667 7:0.083333 9:0.041667 10:0.458333 11:0.291667 13:0.125 14:0.333333 15:0.25 17:0.109375 
-0 -1.717366792757355 0.1320985540313699 2.480688925665685 0 0.6821668754687182 0 0 0 0 0 0 0.2626995921174245 1.32501485248465 0 0 0 0 0 6.729917625365706 0 0 0 1.672664202180871 0 0 0 0 0 1.324600583370066 0.2113547028414209 0 6:0.125 9:0.208333 10:0.291667 11:0.333333 13:0.333333 17:0.080729 
-0 -0 0.4728315656618452 0 2.834210241296189 0 0 1.361824208024555 2.715102831257983 0 1.695690889558157 0.6972730518552955 0.1682188922617664 0.9594148991608465 0.3026734090161083 71.4629870054308 6.59411962581396 9.797791306429325 1.501733799130039 0 0.5663713772021586 0 0 0 0 0.03060329301353791 0 0 0 0 0 0 9:0.083333 10:0.083333 13:0.333333 14:0.125 17:0.039062 
-2.265527065462695 -7.419825661388725 0 11.82414038541196 1.917935936158139 3.851668102374639 3.159373118058636 4.121974043792695 3.168504203183451 2.263055689593251 0.9246582592052955 0.1119066290185486 3.330381195793506 0 2.549617315922577 288.9644150432379 6.549851195789134 2.062701408532825 3.615732671247231 13.47369985604737 0.8475999873822765 2.010863790478459 2.758780066124929 7.482876974146583 0 0 0.3941726351126474 1.593593041197695 3.448455597733975 0 1.495945030164334 0.1924979450772425 9:0.208333 10:0.166667 13:0.375 14:0.208333 17:0.059896 
-0 -0 0 0 0 0 0 0 0 0 0 0 0 0 0 0 0 0 0 0 0 0 0 0.3179358498763827 0 0 0 0 0 0 0 0 6:0.125 9:0.208333 10:0.208333 11:0.333333 13:0.333333 17:0.075521 
-0 -0 0 0 1.614721619369286 0.4957353152249722 0 1.164089282986324 1.141720451876703 0 1.276534529059529 0 0 0 0 2.341973752049991 0 1.067249275788115 0 0 0 0 0 0.6900652566712527 0 0 0 0 0.967296562066749 0 0 0 5:0.041667 6:0.291667 7:0.291667 8:0.083333 9:0.333333 10:0.083333 11:0.041667 13:0.291667 15:0.125 17:0.098958 
-0.3004038982669164 -0.02438761086970358 0.2803320661784203 0 0 21.57121157167795 0 0 0 0 0 0.03724468769778443 0 0.45583874310676 0.3634114302137449 0.07215788714455808 0 0 0 0 0 0.4390132599514181 0 0 0 0 0.3827640657185126 0 0.01522433552553628 0 0.08564527562504727 0 6:0.125 7:0.291667 8:0.333333 10:0.333333 14:0.291667 15:0.166667 16:0.125 17:0.104167 
-0.08338108372049961 -0.2473934097298402 0.2239299145210597 0 0.1868638217142751 1.364777445152879 0.4604414171642726 0 0 0.3379856099457347 0.1929352309894781 0.4181950035606343 0.5130407699651555 0.661742960090676 0.1801289960036265 0 0.9080029851510123 0.1808467203402604 0.3614822377643394 0.7983938559457945 0.3105219184609664 0.1112103563053219 0 0 0.2661368925019563 0.3366781023449776 0.02587624181065759 0.8788826727910833 0 0 0.1000874028726433 0.7755627275229344 5:0.083333 6:0.291667 7:0.083333 8:0.25 9:0.166667 10:0.25 14:0.333333 15:0.208333 17:0.104167 
-0 -0 0 0 0.4868065723813331 0 0 0 0 0 0 0 0 0 0 0 0 0 0 0 0 0 0 0 0.4219746143013847 1.274928436062636 0 0.8594131887064927 0 0.4130208474061828 0.2257347489812633 0 6:0.333333 7:0.166667 8:0.25 10:0.25 14:0.333333 15:0.208333 17:0.096354 
-0 -0 0 0 0 0 0 1.188741184672044 1.581281939902891 0 0 0 0 0 0 6.493517296409701 0.6639159354166044 14.73831464625642 0 17.2326189442035 0 0 10.32768848084434 0 0 0.7464221985115738 0 0.1421342653930808 0 0.2628933561514807 0 0 6:0.083333 7:0.125 10:0.291667 11:0.25 14:0.291667 15:0.041667 17:0.067708 
-0 -0 0 0 0 0 0 0 3.563745064838186 0 0 0 0 0 0 0 0 0 0 0 0 0 0 0 0.9855688935951791 0 0 0 0 0.2429077442192892 0 0 6:0.083333 7:0.083333 9:0.041667 10:0.208333 11:0.125 13:0.125 14:0.333333 15:0.041667 17:0.065104 
-0 -0 0 0.3998205899886305 1.978276335856895 0.8502884338412268 0 0 0 0.1580076170992988 0 0 0 0 0 28.06322373281577 1.719001980093791 0.03790027163628883 0.871806528022354 16.36386616868047 0 0 1.915910848264192 0 0 0 0 0 0 0 0 0 9:0.125 10:0.083333 11:0.083333 12:0.041667 13:0.375 14:0.125 17:0.052083 
-0.3387330303849502 -0.7243762362126314 0.941958965608763 0.726473752865275 0 0 0.5550880630229498 0 0 0.98499556734658 0.917249840857449 0.5513030914865531 0.5978022762034685 0.3466852602873102 0.6408797113746274 0 0.1361144257093669 0 0.7649062408248145 0 0.6775211655101117 1.076580569587616 0 0.9835863514853795 0.2012660179677827 0 0.3751599030372498 0.1013975539247739 0 0 0.2983741143704772 0.361950102883762 6:0.291667 7:0.166667 8:0.25 10:0.25 14:0.375 15:0.333333 16:0.083333 17:0.109375 
-0 -0 0 0 3.097296389780976 0.4367789201237947 0 0.6275612168995939 0.4064235270235864 0 0.8659411515887809 0 0 0 0 0 0.1855097187725986 1.603143119147524 0 0 0 0 0.112987180347929 0 0.3888053204398151 0.1294911762188798 0 0 0 0 0 0 6:0.166667 9:0.25 10:0.166667 11:0.333333 13:0.333333 17:0.078125 
-3.59594108973555 -1.108615705273898 0 0 0.1692609127293137 2.938067553101011 0.3173680530767025 3.228829950811142 0.5714114780809513 0.01505169856425869 0.2635351044565519 0 0 0 2.682616578102719 0 4.717504553590623 1.730076350890192 0.01941538075139629 1.842089992204997 0.05319734840462947 9.79226478985156 2.646795573606616 14.08451977050061 3.480658999054521 3.107486886842931 5.496743894891957 3.356059904810499 0 0 0.1941703763777247 1.907301682463139 6:0.125 7:0.083333 9:0.041667 10:0.25 11:0.125 13:0.166667 14:0.375 15:0.083333 17:0.078125 
-0.3206858386614498 -0 0.7401716538569939 0 0 1.499226209499533 0.1185007800656794 0 0 0.1576797896660837 0 0.6522737747098817 0.6266652876796911 0.9302933088110755 0.585935631069852 0 0.150227811284736 0 0.2323782481103673 2.136931253721013 0.8563380728719332 0.3661107144667958 0 0.2024902975192647 0.2361418220376282 0.1905640647874202 0.185907903772171 0.1297622387791398 0.1598015694921644 0 0.276649470127015 0.5781828106080487 9:0.208333 10:0.375 11:0.041667 13:0.333333 15:0.125 16:0.166667 17:0.078125 
-0 -0 0 0 0 3.887807253719275 0 0 0 0 0 0 0 0 0 0 0 0 0 0 0 0 0.2428144510215836 0 0 0 0 0 0 0 0 0 6:0.125 9:0.208333 10:0.166667 11:0.333333 13:0.333333 17:0.072917 
-0 -0 0 0 0 0 0 0 0.4123139332199981 0 0 0 0 0 0 0 0 0 0 0 0 0 0 0 0 0 0 0 0 0.2054810990391447 0 0 6:0.291667 7:0.166667 8:0.25 9:0.041667 10:0.25 14:0.333333 15:0.208333 17:0.096354 
-0 -0 0.4886943058060772 0 0 0.5322817214686782 0.04854549400580564 0 0 0.08597106357025876 0 0.06883874465520511 0 0 0.2708285610668931 0 0 0 0 0.2600372702010368 0.0883977578603181 0 0.5815231641535589 0.4826013650646528 0.1482984318418737 0.0870085149625969 0 0 0 0 0 0 1:0.083333 2:0.041667 6:0.125 9:0.208333 10:0.166667 11:0.333333 13:0.333333 17:0.080729 
-0.7545042889941995 -1.105574628314572 2.667715837968753 1.443252002698665 0.2740482485620664 7.975866933217369 1.275001893923799 0 0 0.8213997877566219 0.4726840322139884 1.141339691028539 1.236443496479148 0.7932129225163135 2.212144953350856 0.9301088008210247 1.103803218727947 0 1.504429857435577 0 1.107219988344707 0.8110751155487879 0.3449292613049386 0.7211760711054972 0.4599086000714096 0.543729105359431 0.4248464311444691 0.4292676111580662 0.4389095880258666 0 0.5260184860215629 0.7153114065360815 6:0.166667 7:0.333333 8:0.291667 10:0.25 11:0.041667 12:0.041667 14:0.25 15:0.125 16:0.333333 17:0.114583 
-0 -0.9534020284370746 0.05268697189028695 0 0.7926632457286279 0 0 0.3312736193851944 1.006517652746271 0.2591543862676945 1.092352456683123 0 0 0 0 0 0 5.821164747923623 0 3.75052898193507 0 1.927777167512977 3.411988284054729 1.266245505854566 0.4314262925136478 0.6796161252857936 0 0.449680864523701 0 1.40350541460197 0 0 5:0.125 6:0.125 7:0.083333 9:0.041667 10:0.25 11:0.166667 13:0.125 14:0.333333 15:0.041667 17:0.080729 
-0.04635390256585599 -0 0.4992782050701212 0 0 0.1018549629055007 0.5707660880122285 0 0 0.5369672048263903 0 0.4726206847408601 0.7441875282782011 0 1.095223541852403 0 0.3684543119842518 0 0.6942639595507124 0 0.4871049246431414 0.36367397777324 0.82406118457905 0 0 0.06404524161018331 0.09316774028515527 0 0.5358626863465052 0 0 1.276538600483571 6:0.125 9:0.291667 10:0.25 11:0.375 13:0.333333 17:0.085938 
-0 -0 0 0 0 0.8422937251516475 0 0 0 0 0 0 0 0 0 0 0 0.3059763742059119 0 0.4260276890990846 0 0 0 0 0 0 0 0 0 0.2762156591675933 0 0 5:0.041667 6:0.291667 7:0.291667 8:0.083333 9:0.291667 10:0.041667 11:0.041667 13:0.291667 15:0.125 17:0.09375 
-0 -0 0 0 4.095050824455553 0 0 4.847360871805224 7.364947782914653 0 6.165697651417563 0 0 0 0 0 0 8.179437282025395 0 0 0 0 0 0 0 0 0 0.261356483429092 0 0 0 0 6:0.041667 9:0.208333 10:0.375 11:0.041667 13:0.333333 16:0.041667 17:0.065104 
-0.6721668588868734 -0.9059490140936799 1.003481966798637 0.397735744809295 0.1142591266857888 0.8221051263610453 0.9047149158513822 0 0 0.9580785911155774 0 0.8940675208021245 0.8345877178817962 0.9257320593610654 1.469662037111236 0 1.357068512994865 0 1.025072046217526 0 0.8076673556019794 0.8988134448333834 0.3756962523312494 0.2872086321717812 1.335737212835806 0.7631165605671673 0.50665525378489 1.020872651079294 0 0.5371748757594977 0.588323394480111 0.8925144161987216 5:0.041667 6:0.333333 7:0.291667 8:0.083333 9:0.291667 10:0.041667 11:0.041667 13:0.291667 15:0.125 17:0.096354 
-0 -0 0 0 0.1116596282208244 0 0.06671811789769859 0.3219423128119195 0.2943439501977854 0 0.2666483859737319 0 0 0.2545741948725134 0 0.1155513087213243 0.2601953127532651 0.04808855151733704 0 0.8866970010310148 0 0.1865168545715732 0 0 0.2557560099447622 0 0 0 0 0 0 0 5:0.125 6:0.291667 7:0.166667 8:0.25 10:0.25 14:0.333333 15:0.208333 17:0.101562 
-0 -0 0 7.864196002271805 0 0 0 0 0 0 0 0 0 0 0 64.63210860990041 0 1.449391803678244 0 0 0 0 0 0 0 0 0 0 0 0 0 0 9:0.208333 10:0.375 11:0.041667 13:0.375 17:0.0625 
-0.2036238474922011 -0 0.4760101842263816 0 0 0.1970640018026498 0 0 0 0 0 0 0 1.076029196981507 0 0.865259812909673 0 0 0 0 0 0 0 0 0 0 0 0 0 0 0.3126232527385455 0 6:0.125 7:0.041667 9:0.291667 10:0.25 11:0.375 13:0.333333 17:0.088542 
-1.166714690958548 -6.660821648333124 1.430995336641751 5.355485593894879 4.270586550090724 2.827497716517078 3.116821725051421 0.4945947754514621 0 5.030363176632703 1.062357354280048 1.242307886830667 2.280499324630085 5.760224517350446 1.808648080628402 0 1.142334611869733 0.3420688035180362 1.91796025954614 2.345966377603351 1.349266416634133 0.8511727640643281 0.880539791243852 0.01391459334919355 0.4633553913380741 0.3137303391483878 0.6245261360405081 0.2195865926681612 1.669513995767228 0 3.25467617488713 4.068377176799707 5:0.083333 6:0.083333 7:0.083333 9:0.333333 10:0.208333 11:0.166667 13:0.541667 14:0.333333 15:0.041667 17:0.117188 
-0 -0 0 0 0 0 0 0 0 0 0 0 0 0 0 0 0 0 0 0 0 0 0.01222509227923243 0 0 0 0 0 0 0 0 0 9:0.083333 10:0.083333 13:0.291667 14:0.125 17:0.036458 
-0 -0.7838976327430258 0.3201021875956785 0 0.07986986306326284 0.8161082517207701 0.7580121581118086 0 0 0 0.429287504882865 0.3016687116495933 1.269470357993939 0.9200720765445076 0.489711981200311 0 8.98858119486467 0 0.6329281335108324 2.75861220010836 0.8277307817390899 1.334804943017432 11.35513308774688 1.539836230253704 1.66343635577417 0.7308811727149056 0 2.912358743911437 2.974269364552295 0.940100860580503 0.7857678062805794 4.672371774442863 5:0.083333 6:0.083333 7:0.083333 9:0.291667 10:0.208333 11:0.125 13:0.125 14:0.333333 15:0.041667 17:0.085938 
-0.1458921260569459 -0 0 0 0 0 0 0 0 0 0 0 0.08196377940721118 0 0 0 1.934807153484739 0 0 0 0 0 0 0 0 0 0 0 0 0.3816816806951678 0 0 7:0.125 10:0.291667 11:0.25 14:0.291667 15:0.041667 17:0.0625 
-0.6603410975191774 -0 0 0 0 0 0 0 0 0 0 0 0 0 0 0 0 0 0 3.242167137579217 0.03178183145901016 7.91473963290006 10.34725047208295 6.652766690336033 0.6462702084593103 0 0 0 0 0.6359890065641173 0 0 9:0.083333 10:0.083333 13:0.291667 14:0.125 17:0.036458 
-0 -0 0 0 0.9829628352140123 0.1711444632280527 0 0.9515827087400379 0.8946776393651816 0 0.4338883374927582 0 0 0 0 0 0 1.508483186177591 0 0 0 0 0 0.4284762368141889 0.6303567968786664 0 0 0 0 0.9026194305949616 0 0 6:0.125 7:0.333333 8:0.291667 10:0.25 14:0.25 15:0.125 16:0.125 17:0.09375 
-0 -0 0 0 0 0 0 0 0 0 0 0 0 0 0 0 0 0 0 2.440702311164558 0 0 0 5.577251883826041 0 0 0 0 1.528824532572924 0.40437621684383 0 0 9:0.208333 10:0.375 11:0.041667 13:0.333333 17:0.059896 
-1.059157964819318 -0.5143679314596068 0.3308923075085967 8.323853908831106 0 1.497523971254942 0.4964753284226537 0 0 0.7871753017928932 0 0.3044204852280823 0.7713492016089983 0.5474281321343002 0.2610331518904362 6.367672187777683 1.098968756381227 0 0 0.7114565678621901 0.02083479406846496 0.3700550583774927 0.3925476269131555 0 1.11605337249153 0.5608257691043482 0.7017086757278436 0.9317226766007235 1.462239178996482 2.905930392431135 0.9511450147659445 0.8820971755430693 5:0.041667 6:0.041667 9:0.25 10:0.5 11:0.083333 13:0.333333 17:0.078125 
-0 -0 0 0 1.741308544313929 0 0.00246109589388574 7.35589459949635 6.205797366789953 0.1444100235627557 0.9111495987289457 0.3663608526078634 0 0.6612959692200251 0 0 0 0 0 0 0.1020372564167881 0 0 0 0.8340118806206508 0 0 0 0.8652591845344169 0 0.0537816421568768 0 6:0.041667 7:0.166667 10:0.291667 11:0.25 12:0.041667 14:0.291667 15:0.041667 17:0.070312 
-0 -0.9825857744830014 -0 0 0 0 0 0 0 0 0 0 1.905379934454533 1.529918958986316 0 0 0 0 0 0 0 0 0 0 0 0 0 0 0 0 0 0.01752121240446521 5:0.041667 6:0.166667 9:0.208333 10:0.333333 11:0.333333 13:0.416667 14:0.041667 15:0.291667 17:0.114583 
-0 -0 -0 0 0 0 0 0 0 0 0 0 0 0 0 0 0 0 0 0 0 0.174688097263028 0 0 0 0 0 0 0 0 0 0 4:0.083333 7:0.375 8:0.25 10:0.166667 11:0.166667 12:0.083333 14:0.333333 15:0.125 16:0.333333 17:0.119792 
-0 -0 -0 0 0 0.6180578851292502 0.5305421705922536 0 0 0 0 0.0781751394657787 0 0 0 0 0 0 2.102384505045486 0 0.5970067324701711 0 0 0 0 0 0 0 0 0 0 0 4:0.083333 7:0.125 8:0.333333 10:0.208333 11:0.208333 12:0.291667 14:0.25 15:0.333333 16:0.291667 17:0.132812 
-0 -0 -0 0.7567134637744223 0.7389216422782159 0 0.4498420958869175 0.3343676785253357 0.4074523349725095 0.1926199256713054 0 0 0 0 0 0.5161207866679949 0 0 0 0 0 0 0 0 0 0 0 0 0 0 0.09415825586429043 0 5:0.041667 6:0.166667 9:0.208333 10:0.291667 11:0.291667 13:0.416667 14:0.041667 15:0.291667 17:0.109375 
-0.2932116629894915 -0.4407143113391881 -0.3008450724649404 0.3295232744975731 0.1770832698315758 0.4020254754256194 0.4851265859160399 0.1632722041361869 0.1103189463450548 0.3281868277919448 0.3251494531981331 0.2875298417922503 0.4800297955696913 0.3811932820063633 0.2119018357595835 0.3965697823024141 0.2955154198191544 0.3668836856623858 1.214155919750466 0.1074929804972301 0.4759449397641447 0.8932043535900601 0.2979630827873757 0.660195800748092 0.2337573113722397 0.3555123843825271 0.2164158959914194 0.2230690126576326 0.1923610693214166 0.08780441603053527 0.2679170236603176 0.5264725506060693 3:0.041667 4:0.083333 5:0.125 6:0.041667 7:0.291667 8:0.166667 10:0.333333 11:0.375 13:0.125 14:0.333333 15:0.458333 17:0.148438 
-0 -0.306208432648501 -0.06416087948759305 0 0 0 0 0 0 0 0 0 0 0 0 0 0 0 0 0 0 0 0 0 0 0 0 0 0 0 0 0 3:0.083333 4:0.083333 7:0.375 8:0.291667 10:0.166667 11:0.166667 12:0.083333 14:0.333333 15:0.125 16:0.333333 17:0.127604 
-0 -0.2748374203517444 -0 0.5400916349193472 0.08655660107998647 0 0 0.1422287741790495 0.039736911445592 0.2636061819173369 0.2543108834666367 0.124505500694874 0 0.1663923679797668 0 0.592912313524168 0 0.1706208477013348 0 0.07584162214867002 0.2510222440540497 0 0.0678846711344865 0.4833196041530873 0 0.07776727896801322 0 0.03144891768758454 0 0 0.01434066244508676 0.07891879465363012 7:0.375 8:0.25 10:0.166667 11:0.166667 12:0.083333 13:0.041667 14:0.5 15:0.166667 16:0.333333 17:0.130208 
-0 -0 -0 0 0 3.977164573795245 2.129128493728174 0 0 0 0 0.3895104590957609 0 0 1.66308381318239 0 0 0 1.824222547717044 0 0.8238004682935424 0 0.1774464272947468 0 0 0 0.1075757722299237 0 0.1398261413941314 0 0 0.1850931892438095 5:0.041667 6:0.166667 9:0.291667 10:0.291667 11:0.291667 13:0.375 14:0.041667 15:0.375 17:0.117188 
-0 -1.372529886442818 -0.7282352256383987 1.33837240014214 0 2.70438961652826 0.3272925339488387 0 0 0 0 0 1.045176926824509 1.351670325967078 5.266343735937279 1.572101694769081 0 0 3.570664448214027 1.819166969140257 0.4834689666412908 0 1.397592579316555 0 0 0 0 0 0.4316616034282596 0 0.5232895736775892 0.8198531534832759 7:0.125 9:0.083333 10:0.208333 11:0.375 13:0.333333 14:0.375 15:0.125 17:0.101562 
-0.04404450059963963 -0.2392683210716508 -0.2068356740907367 0.03217786658037231 0.3133604755971214 0.0991471978057769 0.4396618478599862 0.1237800725665706 0.1273333074486612 0.2925997190574304 0.1289587258708317 0.3944291745851908 0.2519028631564759 0.2402993989656722 0.06030828893464151 0.2201825740081458 0.02525765043001274 0.09854351036049325 0.3939567823513535 0 0.2159814711446702 0.1034803011610117 0 0.07730706083178633 0.1104589780773999 0.04785627169085974 0 0.0664662410952869 0.05697642487943612 0.04605294761557206 0.1078220153057703 0.2530103554139363 7:0.333333 9:0.125 10:0.291667 11:0.416667 13:0.583333 14:0.333333 15:0.208333 17:0.143229 
-0 -0 -0.3731240369891281 0 0.09913333454199547 0 0.2154347793746923 0.2369293230242457 0.2165988890483247 0 0.2520242116629086 0.2427253502258958 0 0 0 0 0 0.01648338189804088 0 0.3394234840840619 0.3293907279539302 0 0.05875935307413785 0 0.2465638531590095 0 0 0 0 0.1708630383586736 0 0 3:0.041667 4:0.166667 6:0.041667 7:0.291667 8:0.166667 10:0.333333 11:0.375 13:0.125 14:0.333333 15:0.5 17:0.148438 
-0 -0.8945865470680096 -0.3230154075456299 0.5962626420475586 0.5041676393531732 0.5114913843561248 0.7214630604148978 0.2933209727726431 0.2883819502849304 0.7417083868887443 0.1868442473609316 0.8326417424119001 0.5823101709115857 0.5333550199883564 0 0.9929868925885776 0.1276493220974822 0.3313407149104507 0.2342758788517095 0.3926117020251419 0.5647069753929707 0.08456340534789986 0.2079075236075693 0 0.1944432987993443 0.09049029239843336 0 0.0575708258725478 0.02804986328535838 0.1811826082714383 0.9632978923149712 0.340392182320652 3:0.041667 4:0.083333 6:0.041667 7:0.375 8:0.208333 10:0.416667 11:0.5 12:0.125 13:0.125 14:0.333333 15:0.458333 17:0.169271 
-0.3771917561240761 -0.2905824249585653 -0 0 0 0 0.05705056667907174 0.1394869327401054 0.1519810024444972 0.4554372186673792 0.2363786890488069 0.5727521867932496 0.5537137622717188 0.1311601077431355 0 0.4769681399500015 0.2003594571578312 0.2539425152982243 0.3732358176238458 0.1032995787732413 0.5016613447269744 0.3725321142219685 0.2085918724515791 0.2518741486589905 0.1590557533361447 0.1305037035055712 0.1766120796262542 0.1242001859085416 0 0.1280839155181883 0.07111756167522314 0.2272797881034929 2:0.083333 3:0.041667 6:0.208333 7:0.25 8:0.291667 10:0.291667 12:0.25 13:0.041667 14:0.541667 15:0.375 16:0.291667 17:0.166667 
-0.4046805339689886 -0.6116699366148014 -0.3013216104494468 0.2276565841289942 0.2097339709955656 0 0.6568369360379805 0.1878420921131285 0.1427322475435907 0.4951599812058997 0.2428754200282183 0.6118256883278245 1.055386584603298 0.9974634621133716 0.1588791129545573 0.7046084267452617 0.2387386452508897 0.3124036677193527 0.4378919018479383 0.3372525374038419 0.487849643429792 0.4839977329356066 0.3639173004290846 0.3706166765966121 0.2105362634392868 0.2443597276440547 0.2303041511890279 0.2519265563479373 0.1780731093487808 0.1565790953585018 0.3393843802190275 0.9554989977800636 5:0.083333 6:0.166667 7:0.041667 9:0.333333 10:0.416667 11:0.5 13:0.375 14:0.041667 15:0.333333 17:0.143229 
-0.4516489789481387 -0 -0.0645477943822505 0 0 0.3972876090430225 0 0 0 0.324428459741125 0 0.3725857633652953 0.3355243998450628 0 0.574489705599858 0.03672929170694064 0.1090146372997104 0.09466834316026254 0.01129529905123278 0.119602299287996 0.1809561960623418 0.2687517145088739 0.2316180907795473 0.09959271256880813 0 0.053889766488871 0.226950930925156 0.1009255026585655 0.190821552351326 0 0 0.216179636254741 6:0.333333 7:0.25 8:0.083333 9:0.041667 10:0.291667 11:0.041667 12:0.333333 13:0.333333 14:0.041667 15:0.333333 16:0.166667 17:0.140625 
-0.6839605784365411 -0.7542381452478429 -0.7786113508484768 0.8995145750740327 0.9084831610747903 1.00710918161332 0.8614352794112871 0.6785589262982397 0.5681234132053525 0.8074131839924811 0.6519326675760634 1.030373194401838 1.200822707171409 0.8723375662120816 1.035608578102581 1.01458692213678 0.63907359786392 0.7784330763233772 0.8347636524332289 0.7170176412104005 0.8420638258882212 0.8521764822869621 0.6734474503007742 0.8576308315091016 0.6594625868194676 0.4822291693811647 0.4647137540586446 0.6185100356102057 0.5332611347234586 0.3854152366346035 0.4810096202356329 0.7478983318167987 5:0.416667 6:0.416667 7:0.208333 8:0.083333 9:0.25 10:0.291667 11:0.041667 12:0.333333 13:0.458333 14:0.041667 15:0.25 16:0.125 17:0.182292 
-0 -0 -0.1015005189736802 0 0 0 0 0 0 0 0 0 0 0 0 0 0 0 0 0 0 0 0 0 0 0 0 0 0 0 0 0 2:0.083333 3:0.041667 5:0.125 6:0.208333 7:0.25 8:0.25 10:0.291667 12:0.25 13:0.041667 14:0.458333 15:0.25 16:0.208333 17:0.153646 
-0.2076852598480214 -1.500184798877198 -0.418805375761463 0.7406244217554492 0.6123218130997868 0 0.8186833726034338 0.5031450943848311 0.4593823647899867 0.6269612535268144 0.6148260718665928 0.2634939522965947 0.01328268321373464 0 0 0.9727314616712021 0.4644856123697809 0.4946168140651677 0 0.3338869138416843 0.2762010648552141 0.7409109335500375 0.4576535061100451 0.6584839003422995 0.6779420257426446 0.4994911713197202 0.2567341932497059 0.6286555680488483 0.4237759154710804 0.07348504868797587 1.09569752652584 0 1:0.083333 5:0.041667 6:0.208333 9:0.208333 10:0.291667 11:0.291667 13:0.375 14:0.041667 15:0.291667 17:0.114583 
-0.09503108357441015 -0 -0.7549857289945608 0.3662440701314087 0.6027428022017156 1.006208078220112 0.0470894242399065 0.6080691590904912 0.6618709696647503 0.3846828064015741 0.7146468203364184 0 0.2046420448470223 0.2733704177730574 0.7046963356585065 0.2581459846441706 0.3481320284306957 0.6084478284299377 0.7236963879380504 0.5385731893409207 0 0.6913730882417409 0.3400303299386583 0.7626576590596286 0.4392498037027588 0.2545892783541553 0.2215134874216095 0.2043280066840182 0.3221510215089273 0.4155598792032443 0.01770176908356893 0.1872724409328174 6:0.333333 7:0.208333 8:0.125 9:0.041667 10:0.291667 11:0.041667 12:0.333333 13:0.333333 14:0.041667 15:0.25 16:0.125 17:0.132812 
-0.5708753368971466 -0.0689556092009878 -0.2919881471552175 0.2215974275572781 0.3472417699214059 0.4256887193813653 0.3190787862048166 0.3459499054456854 0.3261274460342283 0.3616697995309218 0.3941508438107791 0.5408513677426101 0 0 0 0.2990839293971021 0.346163207679803 0.4601788803578318 0.1514085906074079 0.2551666905783802 0.3798625436646861 0.4827238128305167 0.2340775757483293 0.434195266276526 0.2743730246506164 0.3717583841797777 0.2578170471994045 0.2474067383461254 0.142555110413956 0.2133645754295014 0 0.1971443066285533 3:0.041667 7:0.458333 9:0.166667 10:0.375 11:0.5 13:0.375 14:0.333333 15:0.208333 17:0.153646 
-0.4672321249224411 -0 -0 0 0 0 0 0 0 0 0 0 0 0 0 0 0 0 0 0 0 0 0 0 0 0 0 0 0 0 0 0 7:0.333333 9:0.125 10:0.291667 11:0.416667 13:0.375 14:0.333333 15:0.208333 17:0.130208 
-0 -0 -0.4941718304980505 0 0 0 0 0.2261399299629229 0.242044248135485 0 0 0 0 0 0 0 0 0.1780144738539805 0 0 0 0 0 0 0.06783994229228048 0 0 0 0 0.2494265305551433 0 0 4:0.083333 7:0.125 8:0.375 10:0.208333 11:0.208333 12:0.291667 14:0.25 15:0.333333 16:0.208333 17:0.130208 
-0.700536304672159 -0.2389904719387707 -1.156774887484098 1.247336048213677 0.9865389499880945 0.431125003212289 0 0.5736748352385146 0.6465646769119232 0.08798239842205986 1.067024986569733 0.3154789307605645 0 0.4749253857243409 0.1432090866465986 0.2415917782187347 0.5155640297427282 0.9621841435538099 0 0.2503509394422281 0 0.4635388688581734 0.4079650295469321 0.9814044699294676 0.8143679048061947 0.50331916451965 0.6191630878142662 0.2809692944581951 0.1511561383905423 0.6844662415471371 0.2138038532561343 0.4264691718678693 7:0.375 8:0.25 10:0.166667 11:0.166667 12:0.083333 14:0.333333 15:0.125 16:0.291667 17:0.111979 
-0.9392659422704438 -1.363056029141259 -0 1.072890326026279 0.6094282065348965 0 0.840088653018553 0.1054550378374581 0.057187609537653 0.60545014200435 0.3016059476507046 1.001910678262219 1.312954261125628 1.457988676663671 0 1.476702157805035 0.6468177074069823 0.3255789631043838 0 0.8831273109106735 1.192123664374017 0.8527221355156017 0.8586004039066607 0.7276310195825273 0.3266301297972205 0.3725030715352317 0.3857522204126613 0.3916528266573183 0.6226783256170089 0.03839635931267007 0.6592648316380623 0.8767714771828817 4:0.083333 7:0.125 8:0.333333 10:0.208333 11:0.25 12:0.291667 14:0.25 15:0.333333 16:0.208333 17:0.130208 
-0 -0.6359139666721333 -0 0 0.1924565663404679 0 0 0 0 0.6368826079564992 0 0 0 0 0 0.369543297701433 0 0.427587859451552 0 0.09079299807232939 0 0 0 0 0 0 0 0 0 0 0 0 3:0.041667 4:0.083333 6:0.041667 7:0.291667 8:0.25 10:0.333333 11:0.375 13:0.125 14:0.333333 15:0.458333 17:0.145833 
-0.1368651458644173 -0.6666980227569751 -0.08433946971960028 0.2413322118485825 0 0 0 0 0 0 0 0 0.7575316542136782 0.7509785280633671 0 0.3508344937065979 0 0 0 0 0 0 0 0.03235625657200392 0 0 0.3893430918822395 0 0.232628816582582 0 0.7449827125619026 0.2155502806474722 7:0.333333 9:0.125 10:0.416667 11:0.416667 13:0.375 14:0.333333 15:0.166667 17:0.135417 
-0.3123679156413275 -0.7854256679067504 -0.09164030704241688 0.5198103042406539 0.2469794025918428 0 1.20217398402334 0.03435033009099887 0 0.1282284739011159 0 0.9221327328615825 0.7406364591443911 0.5695486538951942 0 0.5937333346653696 0.3225230982978303 0.01956266239848073 0.8095958033007643 0.1315015178990859 0.8370491396838207 0.09261706780807999 0.112273189829611 0.09396623703119383 0.2702481093130475 0.2103194003667401 0.02299996583297541 0.2790786513875553 0.1534399849052515 0.04651764748835978 0.6606056910384843 0.3269320250285312 6:0.333333 7:0.208333 8:0.083333 9:0.041667 10:0.291667 11:0.083333 12:0.333333 13:0.333333 14:0.041667 15:0.25 16:0.166667 17:0.135417 
-0 -0.4518118704433602 -0.8247886750323167 1.215236819450949 0.6272984459975739 3.288832246869607 0 0.2444121446224125 0.1718517511960428 0.2047609690949163 0.4154818128327683 0 0 0.650913006791587 0 0.03865907015119797 0.2298392499458575 0.1423623655115113 1.355008943630134 0.424946702843464 0.1459191918438291 0.02683524239191684 0.2401508365708954 0.3336116438466806 0.200412143013337 0.2096152614236159 0.05135553651340536 0.2390367295812142 0.6392867945774823 0.1180448603912777 0.3107521451249306 0.2057486784843682 2:0.083333 3:0.041667 6:0.208333 7:0.25 8:0.25 10:0.291667 12:0.25 13:0.041667 14:0.458333 15:0.25 16:0.208333 17:0.145833 
-0 -0 -0.4825048879249564 0 0 0 1.258673542901634 0 0 0 0 0 0 0 2.766161089266142 0 0 0 0 0 0 0 0 0 0 0 0 0 0 0 0 0 2:0.083333 3:0.041667 6:0.208333 7:0.25 8:0.291667 10:0.291667 12:0.25 13:0.041667 14:0.458333 15:0.25 16:0.208333 17:0.148438 
-0.8853827479691987 -0 -0 0 0 0 1.525622716329499 0 0 0 0 0 0 0 0 0 0 0 2.690393069692363 0 0 0.3310852790413384 0 0 0 0 0 0 0 0 0 0 5:0.041667 6:0.166667 9:0.208333 10:0.291667 11:0.291667 13:0.375 14:0.041667 15:0.333333 17:0.109375 
-2.548134075835095 -0 -0.06773003151832373 0.8755217386148526 0 1.35694146273221 0 0 0 0.4142233913306847 0.1361383008696291 0 1.537357384653181 0.7379606471853389 2.115931521238513 0 0.7768296937558192 0 1.212176892967752 0 0 1.364498557259781 0.7149691636249575 1.042689481118606 0 0.4959581174611509 1.845987193813384 0.5959997595683324 1.104486584953346 0 0.3714838709728545 0.5608636105583901 3:0.041667 4:0.083333 6:0.041667 7:0.291667 8:0.166667 10:0.333333 11:0.375 13:0.125 14:0.333333 15:0.458333 17:0.140625 
-0 -0.0182341873851369 -0 0.09335193277310597 0 0 0 0 0 0 0 0 0 0 0 0 0 0 0 0 0 0 0 0 0 0 0 0 0 0 0 0 4:0.083333 7:0.125 8:0.333333 10:0.208333 11:0.208333 12:0.291667 13:0.041667 14:0.333333 15:0.333333 16:0.208333 17:0.135417 
-0 -0 -0.6985811392918191 1.216355431089431 0 0.2507169814651867 0 0 0 0.2131239069938591 0.0781993462821506 0.8429825904710142 0 0 0 0.4815269999098866 0 0 0 0 0 0 0 0 0 0 0.1495316137024262 0 0.6686411317854943 0 0.1288871963903298 0 7:0.375 8:0.25 10:0.291667 11:0.166667 12:0.083333 14:0.333333 15:0.208333 16:0.333333 17:0.127604 
-0.3805050780069359 -0 -0.5235128107025955 0 0 0.8347309182670534 0 0.005848571225489941 0 0.3673548540071582 0 0.3972594683160757 0.8871661241389662 0.1771478733126145 0.3426085200416751 0 0.1853371561553409 0 0 0.2809474433789373 0.6567650089329757 0.5083800449345499 0.1898286858522796 0 0 0 0 0.1496889663886485 0 0 0.03533849730338659 0.1637217075944457 7:0.375 8:0.25 10:0.166667 11:0.166667 12:0.083333 14:0.333333 15:0.125 16:0.458333 17:0.122396 
-0.3933061358050945 -1.172200889150158 -0.9262188753234517 0.8270292244059609 0.818050798000688 0.7075306368039938 0.9784128509794716 0.326646133604189 0.3290847447667892 1.0752779176548 0.7729547891485716 0.6456716082353305 0.8752737591607667 1.550520902175025 1.842754144942048 1.610926754598933 0.5070494023274303 0.5729774493424741 1.088299466823064 1.685237380476773 1.430081841096694 0.652675175272257 1.350265440704909 1.105082020451424 0.3872106207972393 0.2571662292970013 0.2429835328174914 0.4776813474332868 0.5346368507915312 0.3299526795178634 0.6442161304280721 1.722847097634216 5:0.208333 7:0.125 9:0.208333 10:0.208333 11:0.375 13:0.375 14:0.375 15:0.125 17:0.125 
-0 -0 -0 0 0 0.9256461553414399 0 0 0 0 0 0 0 0 1.858208912648677 0 0 0 0 0 0 0 0 0 0 0 0 0 0.1229314661985246 0 0 0 4:0.083333 7:0.125 8:0.333333 10:0.208333 11:0.208333 12:0.291667 14:0.25 15:0.333333 16:0.208333 17:0.127604 
-0 -0 -0 0 0 0 0 0 0 0.02256167660422277 0 0 0 0 0 0 0 0 0 0 0 0 0 0 0 0 0 0 0 0 0 0 7:0.125 9:0.041667 10:0.208333 11:0.375 13:0.375 14:0.375 15:0.125 17:0.101562 
-0.4210085266197719 -0.6146989490130872 -0.24059289257655 0.4334775012979151 0.4423902259889684 1.301761335840939 0.7880464226365976 0.3849768242070878 0.3786683028300102 0.4639956061435107 0.3432341901741736 0.6803949645417962 0.6276177873694559 0.5362919890201475 0.871639122666218 0.6586448298013314 0.3936386317090136 0.597956121666645 1.114097345095505 0.555241969620861 0.616060095163817 0.5608106525615296 0.4389351147236233 0.5659645950771599 0.3373692532801799 0.3226230700621485 0.3136930340867822 0.2911479546802991 0.2372921764738427 0.2454990697944569 0.2953008094211563 0.4583692255814424 2:0.083333 3:0.041667 5:0.208333 6:0.208333 7:0.25 8:0.25 10:0.291667 12:0.291667 13:0.041667 14:0.458333 15:0.25 16:0.208333 17:0.161458 
-0 -0.145196859614335 -0 0 0 0 0.05775182784695129 0.005825037082499721 0 0 0.1206880423412697 0 0 0 0 0 0 0.05516384801449935 0 0 0 0 0 0 0 0.08711316577506967 0 0 0 0 0 0 6:0.333333 7:0.208333 8:0.083333 9:0.041667 10:0.291667 11:0.041667 12:0.333333 13:0.375 14:0.041667 15:0.291667 16:0.125 17:0.135417 
-0 -0.3623878287403222 -0.2153752432627306 0 0.07960523495520158 0.06297733154919911 0 0.1225865592703728 0.1031718337622649 0.3133306844761471 0 0.04087933848315677 0.2621698835368654 0.09404136599884148 0.02335105512997443 0.4753514091146516 0.1587429857547568 0.1813486589292768 0 0.1919242296712924 0.1026512463776547 0.3524934385848993 0.1507191367201154 0.1822489666804779 0.07434331886789884 0.125828811712295 0.03841907565712047 0.1303062498951794 0 0.02636583511057778 0.08693081095123649 0.1608833100266239 3:0.125 7:0.375 8:0.375 10:0.166667 11:0.166667 12:0.083333 14:0.333333 15:0.291667 16:0.416667 17:0.145833 
-0 -2.535160078753931 -0 0 0 0.526407502801331 2.638866489708858 0 0 0 0 0.1292441490042448 0.2805741301831824 0.1300236273676716 1.006078899373777 0.625735465508992 0 0 2.723191023831574 0 0.03587755796862255 0 0 0 0 0 0 0 0 0 0.1261730811705596 0 7:0.375 8:0.25 10:0.25 11:0.166667 12:0.166667 14:0.333333 15:0.125 16:0.375 17:0.127604 
-2.110942603625442 -0 -0.4484453079261244 0.2890489508806408 0.7522590752747019 0 0.4785817427318633 0.6001587105275267 0.4864236382758589 0.5429759640339373 0.5332473722489649 0.5475320051310089 0.264843568601042 0 0 0 1.191954616226937 0.8996170678362724 0 0 0.4053709503325485 2.443797134747897 0 1.996721903946107 0.9567716017348531 0.9322325923017665 1.345744160387889 0.5739207756268766 0 0.4805830576753486 0 0 7:0.125 9:0.041667 10:0.208333 11:0.375 13:0.333333 14:0.375 15:0.125 17:0.098958 
-0 -0 -1.483245881156052 0 0 3.303296842149682 0 0 0 0 0.3689081076905188 0 0.1506306141785332 3.434238817100616 7.811768914236735 0 0.4935257729215536 0.6339561163032488 0 1.428733220508671 0.03696031610975546 0.2977856038477757 0.02063025704540243 0.5613743880869593 0.005439943098002212 0 0 0.06831696933955402 0.383848862514874 0.5968182399925391 0.2086212713921909 2.128653005612375 5:0.041667 6:0.166667 9:0.208333 10:0.291667 11:0.291667 13:0.375 14:0.041667 15:0.291667 17:0.106771 
-0.5270727693676619 -0 -0 0 0 0 0 0 0 0 0 0 0 0 0 0 0 0 0 0 0 0 0 0 0 0 0 0 0 0 0 0 3:0.041667 4:0.083333 6:0.041667 7:0.291667 8:0.166667 10:0.333333 11:0.375 13:0.166667 14:0.333333 15:0.458333 17:0.143229 
-0 -7.628007546921656 -0 -0 0 1.602956393451886 0.8371872527615428 0 0 0 0 0 0.373457407033387 6.744148160249347 0 8.166058937138459 0 0 0 0 0 0 0 0 0 0 0 0 0 0 1.621475830649517 0.2702745877543404 2:0.083333 3:0.041667 6:0.291667 7:0.166667 8:0.166667 10:0.416667 11:0.25 13:0.083333 14:0.416667 15:0.25 17:0.135417 
-0 -0 -0 -0 8192 0 0 0 0 0 0 0 0 0 0 0 0 0 0 0 0 0 0 0 0 0 0 0 0 0 0 0 5:0.041667 6:0.166667 9:0.25 10:0.208333 11:0.208333 13:0.416667 14:0.25 17:0.096354 
-0.6052371894097932 -1.009175072403012 -1.143626392747659 -1.178843187608446 0.6438208845666605 0.9128158158414789 0.9683893846821676 0.4194244512253997 0.3685110760276586 0.9881102459315422 0.6974405491576782 1.021960408025842 1.029243244400751 1.239954518348455 0.9541463389543315 2.637398013005293 0.8298501862746475 0.9301453706161372 1.044868931544633 0.6716504153854383 0.9078647881057869 1.122949642327671 0.7862227051264926 1.007492309495589 0.6390633488099121 0.4758594094150471 0.4782194541945647 0.699386076206877 0.5174235643589404 0.3344658085520246 0.1685760620790984 0.8194701543616381 5:0.458333 6:0.416667 7:0.333333 8:0.041667 9:0.375 10:0.541667 11:0.166667 13:0.458333 14:0.041667 15:0.125 17:0.184896 
-1.158414431164127 -2.087830559642574 -0 -0 7.58841779541817 1.132341141221608 0 0 0 0.6964692842661683 0 0 0 1.280991471940375 0 0 0 0 0 0 0 0 0 0 0 0 0 0 0 0 1.086280435694844 0.8472191600011049 5:0.041667 6:0.291667 7:0.208333 9:0.125 10:0.5 11:0.166667 13:0.416667 14:0.083333 15:0.041667 17:0.117188 
-0 -0.004396640734119379 -0 -0 0 0 0 0 0 0 0 0 0 0 0 0 0 0 0 0 0 0 0 0 0 0 0 0 0 0 0 0 6:0.083333 7:0.083333 9:0.041667 10:0.375 11:0.291667 13:0.125 14:0.375 15:0.041667 17:0.088542 
-0.002815974655831827 -0 -4.359167322798537 -0 0 1.590624568171799 0 1.478906152225732 1.469740844969773 0 2.021997491941464 0 0 0 0 0 0.03481898677505282 1.017268909300571 0 2.156529677461063 0.9310797385297117 0 1.210206005532294 0.8602536034050717 0.7881972745847631 0.3064254910274444 0.2194173450518337 0.1459731358490071 1.449638783726731 0.2964678865267969 0 0 6:0.083333 7:0.291667 8:0.125 10:0.25 11:0.25 12:0.125 14:0.375 15:0.125 16:0.166667 17:0.111979 
-0 -0 -5.498648154489437 -0 0 0 0 2.469760511872885 3.655421163151847 0 3.335677908111729 0 0 0 0 0 0 5.651249897951818 0 0 0 0 0 0 0 0 0 0 0.6364851873491375 0.7657631418819986 0 0 6:0.041667 9:0.208333 10:0.416667 11:0.083333 13:0.375 14:0.083333 17:0.075521 
-3.569831756879193 -0 -0 -0 0 0 0 0 0 0.08154062613026404 0 0 0 0 0 0 0 0 0 0 0 0 0 0 0 0 1.182779245771223 0 0 0 1.752547523098411 0 9:0.083333 10:0.166667 13:0.5 14:0.333333 17:0.067708 
-0 -5.008988969325523 -9.665810354586226 -0 0 0 3.048568435624988 3.578170589974476 2.764567387430852 0 0.9950645900562886 0.6025809810651602 11.9468705693399 1.040247541628155 0 19.69737202448578 9.804661920361173 1.378990439503257 6.649691723600001 8.624077642952948 1.734838044259382 0 2.744109325449674 0 0 0 0 0.7919319631376911 0.5473033290757749 0 0 0 9:0.125 10:0.125 13:0.416667 14:0.291667 17:0.059896 
-0 -0.8164145040663142 -0.7297962220211596 -0.7310677769543678 5.392711224267699 0.2644065474004609 1.729312297676354 0.3507682158377441 0.07204982472421427 1.046815616083294 0.9000930082443783 0.6447755310327267 0.5632516565164536 0.803936117820935 0.5527831575132125 0.5749809754596186 0.5166615106517349 1.113616113104275 0.6037872409743802 0.1890860283376813 0.5539757874845656 0.9399908991959219 0.4745636745055031 0.0361101225928193 1.166738291591602 0.5614754338324235 0.2009148098856378 0.5204895098439906 0.5620198750006051 0.1289713209385229 1.002933201945346 0.6241486940039329 6:0.458333 7:0.208333 8:0.041667 9:0.166667 10:0.458333 11:0.166667 13:0.416667 14:0.041667 15:0.041667 17:0.125 
-0 -0 -0 -0 0 0.7786498896779589 0 0 0 0 0 0 0 0 0 0 0 0 0 0 0 0 0 0 0 0 0 0 0 0 0.1510067580922721 0 7:0.083333 10:0.416667 11:0.333333 14:0.416667 15:0.166667 17:0.088542 
-0.8231636742279019 -0 -0.9262393362669489 -0 0 0 0 0 0 0 0.1300014446411898 0 0 0 0.1549878733552813 0 1.187092088872066 0 0 0 0 3.628102401562707 0 3.372686474378209 0.3223625361136884 1.172477935059642 0.621288329274715 0 0 0 0 0 2:0.083333 3:0.041667 6:0.291667 7:0.166667 8:0.166667 10:0.416667 11:0.208333 13:0.125 14:0.416667 15:0.25 17:0.135417 
-0 -0 -0 -0 8192 0 0 0 0 0 0 0 0 0 0 0 0 0 0 0 0 0 0 0 0 0 0 0 0 0 0 0 5:0.041667 6:0.166667 9:0.25 10:0.208333 11:0.208333 13:0.416667 14:0.25 17:0.096354 
-0.6673901666244634 -7.36014490901603 -0 -1.839922594097422 0 3.82740962401008 0.1789384158380575 0 0 0 0 0 1.257989687454912 14.71861189935866 4.240427849597131 5.044468676849752 0.637722896336415 0 2.884516509662534 1.877979280663902 0.7296769140932603 1.727674540545903 0 1.355675839849952 0.7290850195797993 0.7465229159695524 0 0.9889371583872961 0 0 4.713537667406444 9.738935845394524 5:0.041667 6:0.166667 9:0.25 10:0.208333 11:0.208333 13:0.416667 14:0.333333 15:0.125 17:0.109375 
-0 -0 -0 -0 8192 0 0 0 0 0 0 0 0 0 0 0 0 0 0 0 0 0 0 0 0 0 0 0 0 0 0 0 5:0.041667 6:0.166667 9:0.25 10:0.208333 11:0.208333 13:0.416667 14:0.25 17:0.096354 
-0.4377099144785449 -0.6473402970203961 -0.05958478875777314 -0.7787778630081518 0.03834593761125708 0.1843009618840479 1.285884498648652 0.2828127484503568 0.287150038099574 2.288787051281617 0.9177936194410681 0.737245785196618 0.6501542489029772 0.5296564731672002 0.6390822979368203 2.289267217870783 0.7521963603673151 0.4638498122846685 0.7838333451022822 0 0.5339441077529081 0.9769652149008745 0 0.1848186688962609 0.6842300607294951 0.6249021626193216 0.1968101381194383 0.6376648620403975 0 0.2951854767295615 0.4375349094572757 1.270348707421182 2:0.125 3:0.041667 5:0.083333 6:0.458333 7:0.166667 8:0.166667 9:0.125 10:0.416667 11:0.208333 13:0.208333 14:0.458333 15:0.25 17:0.169271 
-0 -0.2304481497826834 -0 -0.7404291046248027 0.4013087828607712 82.86511500207149 1.216816289580188 0 0 1.925236228819897 0 1.08089416760695 3.512611035230834 0.6126692063690617 0 0 0 0 0 0 0.2009382963612605 1.086900045710823 0 0 0 0 0 0 0 0 0 0 9:0.083333 10:0.125 13:0.541667 14:0.375 17:0.070312 
-0.4631070831643074 -0 -0.5010048112641955 -0.3448039717135564 2.3066566560889 0.004400352707042506 0.2748058736234962 0 0 0 0 0.166377531026395 0.2933998408443715 1.549746165513382 0 0.4032174851072248 0 0 0.1565373787526564 0.1799280058590004 0.169793685588552 0.5368783735870587 0 1.093598597072593 0.6173233601946292 0.07170825814715405 0.2644539809284459 0 0 0.1576005129646496 0 0 1:0.041667 5:0.083333 6:0.291667 7:0.208333 9:0.083333 10:0.5 11:0.166667 13:0.416667 14:0.041667 15:0.041667 17:0.117188 
-0 -0.122939771769784 -0 -0 0 3.825396321274628 0.09630293471496648 0 0 0 0.3427051890272096 0.1628051455310965 0 0 0 0 0 0 0 0 0 0 0.3308007080357636 0.4091720917486742 0 0 0 0 0 0 0 0 7:0.083333 10:0.375 11:0.291667 14:0.541667 15:0.208333 17:0.09375 
-0 -0 -0 -0.1967648581015772 0 0 0 0 0 0.3278459983882973 0 0 0 0 0 0 0 0 0 0 0.67712784077664 0 0 0 0 0 0 0 0.5599034177544825 0 0 0 2:0.083333 3:0.041667 6:0.291667 7:0.166667 8:0.166667 10:0.416667 11:0.208333 13:0.083333 14:0.416667 15:0.25 16:0.083333 17:0.138021 
-0 -0 -25.92135863610731 -0.4937637580255013 0 0 0 2.729543604153034 2.494964230273039 0 0 0.5292801903815734 0 0 0 6.791858524841464 0 3.18899026261157 0 4.67098601105325 0 1.639750037935342 1.273714740831401 0 0.6722731932564371 0.3298732303785742 0 0 0 0.0979461315910479 0 0 7:0.083333 10:0.333333 11:0.291667 14:0.375 15:0.041667 17:0.070312 
-3.208904748152944 -3.041302082616526 -0 -0 0 21.37175198792659 1.792590171672105 0 0 0.8006814745279197 0 0 0 0 2.530591887262033 0 3.038396798323393 0 0 0.4150325500400298 0 0 0.6306560238407185 8.712101304168522 0 0 1.508583042378214 1.499821325760551 8.459659044570417 0.4034223012570999 6.494731511825189 0.7032635943354543 9:0.208333 10:0.416667 11:0.083333 13:0.375 14:0.208333 17:0.080729 
-0 -0 -0 -0 162.0336119953966 0 0 0 0 0 0 0 0 0 0 0 0 0 0 0 0 0 0 0 0 0 0 0 0 0 0 0 5:0.041667 6:0.166667 9:0.25 10:0.208333 11:0.208333 13:0.416667 14:0.291667 15:0.041667 17:0.101562 
-0 -0.6584443627428519 -0 -0 1.286741467404547 0 2.03055615905236 0 0 0 0 0 0.06135323083902412 1.620022070047732 0.3302394686615862 0.1003289247406193 0 0 0.3676461014988142 0 0 0 0 0 0 0 0 0 0 0 0 0 6:0.083333 7:0.333333 8:0.166667 10:0.25 11:0.25 12:0.208333 14:0.375 15:0.125 16:0.166667 17:0.122396 
-0 -2.505860132881843 -0.9373725293580545 -0.6509020029845568 11.10537476761351 0 0 4.579665734257759 8.406376905253856 0.1497421765207473 3.771844850822649 0.1881128960538138 0 0 0 9.581147258306585 1.871064925709945 3.709169118119739 0 0.2360531472984554 0.0372649343853159 0 0 3.063083412024361 1.817393257165806 0.466374100040752 0 0.1654831452322982 0 0.5382479629939431 0 0 6:0.166667 7:0.083333 9:0.041667 10:0.291667 11:0.083333 13:0.416667 14:0.041667 17:0.070312 
-0 -0 -0 -0.4780523259716791 2.125823702020698 0 0 0 0 0 0 0 0 0 0 0 0 0 0 0 0 0 0 0 0 0 0 0 0 0 0 0 6:0.083333 7:0.333333 8:0.166667 10:0.25 11:0.25 12:0.166667 14:0.375 15:0.125 16:0.166667 17:0.119792 
-0.8022909949266348 -0 -0 -0.3830485346117004 0 0 0.6394321311105343 0 0 0.1571967325167403 0 0.07701718374380667 1.982139946686196 3.014276563708887 1.115414292890979 0 0 0 1.473873203620183 0 1.078737727174373 1.178795181821282 0 2.348558302175522 0 0 0.994196389553706 0 0.6103369449731202 0 0 0 7:0.083333 10:0.375 11:0.291667 14:0.416667 15:0.208333 17:0.085938 
-0 -0 -0 -0 0 0 0 0 0 0 0.547797129690665 0 0 0 0 0 0 0 0 0 0 0 0 0 0 0 0 0 0 0 0 0 2:0.083333 3:0.041667 6:0.291667 7:0.166667 8:0.166667 10:0.416667 11:0.208333 13:0.083333 14:0.458333 15:0.25 17:0.135417 
-0 -6.255033433082684 -2.308684275429271 -0 8192 0 0.1314727331685185 1.594857506259858 0.1402884247731749 3.939165831957274 0.3182034343437111 0 0 0 0 1.970087267626836 0 1.340006201483621 0 3.16690788058923 0 0 1.072912038418861 0 0.3025327697881926 0 0 0 2.568354527349699 0.5276539131878891 0 2.576150969207628 5:0.041667 6:0.166667 9:0.25 10:0.208333 11:0.208333 13:0.416667 14:0.25 17:0.096354 
-0.3448723812193601 -0 -0 -0 0 0 0 0 0 1.180313786893236 0 0 0 0 0 0 0 0 0.06702889370908548 0 0 0 0 1.340453586552664 0 0 1.256996875670393 0 0 0 0 0 2:0.041667 6:0.083333 7:0.083333 9:0.041667 10:0.416667 11:0.291667 13:0.166667 14:0.5 15:0.083333 17:0.106771 
-0 -0 -0 -0 0 0 0 0 0 0 0 0 0 0 0 0.002238320677332618 0 0 0 0 0 0 0 0 0 0 0 0 0 0 0 0 9:0.208333 10:0.416667 11:0.083333 13:0.375 14:0.083333 17:0.072917 
-1.774864367570917 -3.467603589763945 -0 -2.982517128879422 0 1.559919273798924 0.788636457245779 0 0 1.638398495399867 0.5158429475199251 2.645835231385854 1.52735979003882 0.9883376872552109 1.737020196639253 2.963081690800374 1.068923667685631 0.2734048283809203 1.788760583040796 0 1.08115642117337 1.251505057703796 0.3275281598810147 1.559584754169777 0.4133237375514365 0.5892892694219236 1.460641684814412 0.6773577104756253 1.024084798079684 0.2048821879060977 1.38263224138857 1.927660880212935 6:0.083333 7:0.333333 8:0.166667 10:0.25 11:0.25 12:0.166667 14:0.375 15:0.291667 16:0.166667 17:0.130208 
-0 -0 -0.04189927074898929 -0.1091984285454461 0 0 0 0 0 0 0 0 0 0 0 0 0 0 0 0.4947295127557154 0.01460217153775533 0 0.1828500364771825 0.4639596059240206 0 0 0 0 0 0.1594715936879186 0 0 8:0.041667 9:0.208333 10:0.416667 11:0.083333 13:0.375 14:0.083333 17:0.075521 
-0.6297753041607483 -0.1830710916822755 -3.040887014543071 -0 0 1.985181976973108 4.250183769973065 0 0 3.005618381846413 0.9727786689561844 1.152583729722009 2.230875332225135 3.924667227641641 0 5.561288545038589 0 0 0.4888427187783405 0 1.157831380191766 0 1.072346740885896 0 0 0 0.3819150228469722 0 0.9153013390448571 0 0.8492207201935694 4.469803579206109 5:0.041667 6:0.166667 9:0.291667 10:0.208333 11:0.208333 13:0.458333 14:0.375 15:0.125 17:0.117188 
-0 -0 -1.993858500430495 -0 1.465627821289449 0 0 0.8478990155298116 0.6192055095994159 0 0 0 0 0 0 0 0 1.552755892911736 0 2.286712653286078 0 0 2.546248910874818 0 0 0 0 0.9433945070392142 0 0 0 0 2:0.083333 3:0.041667 6:0.291667 7:0.166667 8:0.166667 10:0.416667 11:0.208333 13:0.083333 14:0.416667 15:0.25 17:0.132812 
-0.88235394853741 -0 -0 -0.4214686045328399 0 3.339679815478751 0 0 0 0 0 0 0 0 1.258990174414105 0 0 0 1.161172295939784 0 0.3286267710999832 5.199540206916797 0 2.187495544503828 0 0 1.822500297553187 0 0 0 0 0 6:0.083333 7:0.083333 9:0.041667 10:0.375 11:0.291667 13:0.166667 14:0.541667 15:0.083333 16:0.041667 17:0.106771 
-0 -0 -0 -0.1732930739031778 0.8559895521626479 0 0 0 0 0 0 0 0 0 0 0 0 0 0.1361621298788853 0 0 0 0 0 0 0 0.030298743930036 0 0 0 0 0 2:0.083333 3:0.041667 6:0.291667 7:0.166667 8:0.166667 10:0.5 11:0.208333 13:0.083333 14:0.458333 15:0.25 17:0.140625 
-0.08322872909228493 -0 -0 -1.041060583881968 0.6623692229568934 0 0 0 0 0 0 0.6240697034586348 0 0 0 0 0 0.7885199878622186 0 0 0 0 0 0 0 0 0 0 0 0.2322129432926068 0 0 3:0.083333 6:0.083333 7:0.375 8:0.166667 10:0.25 11:0.25 12:0.166667 14:0.375 15:0.125 16:0.166667 17:0.127604 
-0 -0 -13.76534686022288 -0 0 0 0 0 0 0 0 0 0 0 0 57.6406121040492 0 0 0 5.783551426069947 0 0 0 0 0 0 0 0 0 0.2738684008634559 0 0 9:0.208333 10:0.416667 11:0.083333 13:0.375 14:0.083333 17:0.072917 
-0.1921418358781235 -1.509627296471339 -0 -0 0.9984756021971832 1.038764387614942 0.9865832136496223 0 0 1.093786747932908 0 0.8468340812290323 0.8409917256653228 1.417180639233004 0.05638938108813356 3.796546771835842 0.7052429722188596 0.4768351967703705 0.516602197958735 0 1.484761396277035 0.6665968779317287 0.148886920203443 0.3118785353358596 0.1032015226244576 0.4146958767363368 0.09218180509340725 0.2488348916803107 0 0 2.322728492184489 0.7717619641181229 6:0.25 7:0.416667 8:0.166667 10:0.291667 11:0.416667 12:0.166667 14:0.416667 15:0.125 16:0.166667 17:0.151042 
-0.2150072140264775 -1.327585203840897 -0.6379153531215593 -0.8555430448873887 0 0.8484262880202561 0.8551630974863725 0.03585866973695361 0.0132238495774727 0.8713002847409018 0.3728663942089963 0.8376388618992788 0.8855852745408392 1.16767909448058 0.2097373624093672 0.9928141097441614 0.1992190510761155 0.2041636165782776 0.8828251197459042 0 0.7548433154886879 0.7095712998166176 0.04823243744005611 0 0.1590558534175401 0.1118996641333407 0 0.06956942576539886 0.3452239689795077 0 0.2832395339932305 0.5917428763404539 6:0.125 7:0.083333 9:0.208333 10:0.583333 11:0.458333 12:0.041667 13:0.125 14:0.583333 15:0.125 17:0.145833 
-0 -0 -0 -0.6781033679250339 0 6.728728010746432 0.09620890630842292 0 0 1.167822220750064 0 0.6669646725654621 2.199762761207253 1.677045873835461 0 0 0 0 1.038721822936221 0 0.634623830325082 0.8885980325580385 0.4178131602194903 0 0.3352288215089091 0.4293255348719847 0 0 0 1.542299505764515 0 1.814554915198366 5:0.041667 9:0.25 10:0.541667 11:0.125 13:0.375 14:0.166667 17:0.09375 
-0 -0 -0 -0.002608639193586367 0 0 0.06511703703010419 0 0 0.7583596266788769 0 0.02245191373649844 0.4956559452868975 0.2715356171081775 0 1.039703614769611 0 0 0.2584087180979088 0 0 0 0 0 0 0 0 0 0.2321368991911948 0.02212835780357445 0 0 6:0.083333 7:0.083333 9:0.041667 10:0.541667 11:0.333333 13:0.125 14:0.375 15:0.041667 17:0.101562 
-0 -0 -0 -0 2.794549136522991 1.92687696178145 0 0 0 0 0 0 0 0 0 0 0 0 0 0 0 0 0 0 0 0 0 0 0 0 0 0 9:0.208333 10:0.416667 11:0.083333 13:0.416667 14:0.083333 17:0.075521 
-1.430438071744642 -3.318952863706774 -0 -0 0 0 0 0 0 0 0 0 0 0 0.9009590290222879 8.349739274012721 1.762190705974783 6.801496393910499 0 6.438648667628199 0 14.81912173657127 5.364633990615672 5.881563321211723 1.201368809235059 1.284370962008751 1.94930686679594 1.038831954807282 0 1.774294550639786 0.2742560127683007 1.15826815470351 6:0.083333 7:0.083333 9:0.041667 10:0.375 11:0.291667 13:0.125 14:0.375 15:0.041667 17:0.088542 
-0 -0 -5.755814422310315 -0 0 2.689633213564941 0 0 0 0 1.089396996482502 0 0 0 0.2585637385578539 0 2.947636738151749 0.3018542081246483 0 6.278890781688251 0 0 4.954464898242088 0 0 0.3713144433095337 0.5166399504184629 0.5335409685220238 0.6982850948782439 0 0 0.4137499348864597 7:0.083333 10:0.333333 11:0.291667 14:0.375 15:0.125 17:0.075521 
-5.374546015370486 -0 -0 -0 0 0 0 0 0 0 0 0 0 0.1491575544392786 6.138382927501243 0 0.6442004868748877 0 0 0 0 9.869855454536715 0 3.062501946342395 0.7243104120708385 0.5672779544657864 0.2632983964377701 0.3720513089014414 0 0.2827232211309995 0 0 9:0.083333 10:0.125 13:0.416667 14:0.291667 17:0.057292 
-0 -0 -1.182013394700362 -0 0 0 0 0 0 5.052741074377229 0 0 0.3646772917790422 0 0 0 0 0 0 0 0 0 0 0 0 0 0 0 2.682464355812896 0 0 0 2:0.083333 3:0.041667 6:0.291667 7:0.166667 8:0.166667 10:0.458333 11:0.208333 13:0.083333 14:0.416667 15:0.25 17:0.135417 
-0 -0.4907565508000342 -0.3485905949815907 -0 -2.907021625239024 0 0.07161611355551277 0 0 0 0 0 0 0.3106203650500081 0 0 0 0 0 0 0 0 0 0 0 0 0 0 0 0.07786211642678949 1.089694796814493 0 6:0.333333 7:0.208333 9:0.166667 10:0.416667 11:0.166667 13:0.416667 17:0.106771 
-0 -0 -0 -0 -0.001003677280188806 0 0 0 0 0 0 0 0 0 0 0 0 0 0 0 0 0 0 0 0 0 0 0 0 0 0 0 3:0.125 6:0.166667 7:0.291667 8:0.041667 10:0.333333 11:0.083333 14:0.25 17:0.080729 
-0.3365761533768009 -0.5466376808435368 -0.418687656359932 -0.1652830177578328 -3.882503699359727 0.2705246455982735 0.2079766912516246 1.412159257001897 0.3736469784800396 1.099915387632136 0.6130961830755317 0.105773601762287 0.3237713871914772 2.826289008551183 0.2344835934034466 1.124338811313106 0.9250096874425874 1.39994220850517 0.173247196402368 0.7581809550234527 0.1410438395273884 0.7281248468535747 0.6061464101760885 0.4903679855496766 0.4586762286457281 0.4414391943139539 0.36128065059501 0.8325238499370853 0.8052238476664291 0.2479892214336241 0.5244954446366189 1.409569025510823 2:0.083333 3:0.041667 5:0.083333 6:0.333333 7:0.166667 8:0.166667 9:0.166667 10:0.416667 11:0.208333 13:0.083333 14:0.416667 17:0.135417 
-0 -0.02622115237971078 -0.08629242475502837 -0 -0.03058286067663068 0 0 0 0 0 0.1385617082065297 0 0 0 0 0 0.5954237695417689 0 0 0.7368078247630122 0 0.404719801768072 0.4829565564339099 0 0.957326372560253 1.65576675240941 0 1.412506276563484 0 0.4447976970341794 0 0.3413954899603583 3:0.125 6:0.375 7:0.166667 10:0.333333 13:0.041667 14:0.25 17:0.080729 
-0 -0 -0 -0.04680210803932636 -0 0 0.2028008627322898 0 0 0.379060567864975 0 0.04727331710752902 0 0 0 0 0 0 0 0 0 0 0 0 0.1833105972657386 0.04783689001210339 0 0.1592573731816954 0 0 0.001470709698124033 0 5:0.041667 6:0.416667 7:0.166667 9:0.208333 10:0.333333 13:0.458333 17:0.101562 
-0 -0 -0 -0 -4.949375946224633 0 0 1.854377804496075 4.518346141183401 0 2.230581914528309 0 0 0 0 0 0 0.796069846470143 0 0 0 0 0 0 2.059854064434118 0 0 0 0 0.5342995185217404 0 0 5:0.041667 6:0.291667 7:0.208333 9:0.083333 10:0.416667 11:0.083333 13:0.416667 17:0.096354 
